tree
version=v3
num_class=1
num_tree_per_iteration=1
label_index=0
max_feature_idx=41
objective=binary sigmoid:1
feature_names=compressorID cycle current_mean_3h rpm_mean_3h pressure_mean_3h vibration_mean_3h current_mean_lag_24h rpm_mean_lag_24h pressure_mean_lag_24h vibration_mean_lag_24h current_max_lag_24h rpm_max_lag_24h pressure_max_lag_24h vibration_max_lag_24h current_min_lag_24h rpm_min_lag_24h pressure_min_lag_24h vibration_min_lag_24h error1 error2 error3 error4 error5 error1count error2count error3count error4count error5count comp1_maint comp2_maint comp3_maint comp4_maint model2 model3 model4 age s-24 c-24 s-168 c-168 s-8760 c-8760
feature_infos=[1:100] [8:2921] [131.489892670426:234.51091472946663] [211.81118441944167:584.8307676802533] [73.951948259827915:162.30965599046701] [26.569635352906836:69.311324019534197] [155.96369327804192:220.78261792733369] [266.01041853614475:499.09697457766015] [91.057429382604241:152.21562721308601] [35.060087018904049:61.932124459057711] [174.04503492330795:255.124717259791] [354.68943301834202:695.02098440339603] [101.48619548392099:185.95199773086603] [41.786126510576601:76.791072301672301] [97.333603782359006:192.273502665092] [138.432075304341:440.09222717888798] [51.237105773425291:140.668647949122] [14.877053998382999:54.8179519133121] [0:1] [0:1] [0:1] [0:1] [0:1] [0:3] [0:3] [0:3] [0:3] [0:2] [0:491.875] [0:348.875] [0:370.75] [0:394.75] [0:1] [0:1] [0:1] [0:20] [-1:1] [-1:1] [-1:1] [-1:1] [-1:1] [-1:1]
tree_sizes=2841 3232 3326 3219 3447 3210 3236 3333 2906 3137 3357 3232 3129 3444 3246 3236 3357 3356 3249 3253 3459 3132 3252 3380 3382 3570 3374 3477 3476 3374 3481 3374 3480 3480 3369 3438 3354 3459 3271 3364 3352 3507 3082 2958 3068 2970 3602 3070 3059 3381 2967 3597 3069 2952 3286 3176 3064 3485 3072 3304 3492 3187 3182 3308 3059 3600 2989 3188 2994 3193 3476 3003 3294 2963 3216 2989 3403 2779 3603 3291 2960 3627 3320 2783 3306 3594 3115 3182 3292 3410 3604 3212 3217 3440 3597 3304 3311 3409 3587 3486

Tree=0
num_leaves=26
num_cat=0
split_feature=5 31 35 29 30 22 17 31 35 29 31 9 5 31 41 41 5 9 5 2 5 0 1 0 0
split_gain=52029.5 39342.5 33821.3 24684.3 13716.7 13503.2 5780.59 5186.33 4547.18 3836.35 3595.21 1220.66 2706.81 4047.72 310.176 252.411 121.443 257.585 79.2296 10.3507 10.0644 7.10543e-15 3.55271e-15 1.77636e-15 8.88178e-16
threshold=47.902592051513295 42.812500000000007 13.000000000000002 13.062500000000002 13.062500000000002 1.0000000180025095e-35 37.825139324675654 43.687500000000007 13.000000000000002 13.812500000000002 1.0000000180025095e-35 43.462144569481019 44.410706359108666 43.312500000000007 0.99944327765803764 0.99990161119634247 46.349721155492375 42.191642931855313 42.292916592878143 170.96944610965571 45.347119951713417 96.500000000000014 2727.5000000000005 81.500000000000014 16.500000000000004
decision_type=2 2 2 2 2 2 2 2 2 2 2 2 2 2 2 2 2 2 2 2 2 2 2 2 2
left_child=6 5 14 24 -5 15 11 10 -9 -10 19 16 18 -14 23 21 20 -18 -13 -8 -1 -2 -12 -3 -4
right_child=1 2 3 4 -6 -7 7 8 9 -11 22 12 13 -15 -16 -17 17 -19 -20 -21 -22 -23 -24 -25 -26
leaf_value=-4.68999275267839 -4.6907223825499607 -4.6907223825499607 -4.6907223825499607 -4.6907223825499607 1.0023658700240956 2.554772475434187 1.8302229896356534 -4.6907223825499607 -4.6907223825499607 0.072519607421098087 -4.6907223825499607 -4.6876742147510608 -4.6217176696167783 -1.7330581748631277 -1.93053386522269 -2.154799182255509 -4.6002102668974416 -3.724656401485408 -4.3877289612160784 2.5547724754341496 -4.6580658311618288 -4.6907223825499607 -4.6907223825499607 -4.6907223825499607 -4.6907223825499607
leaf_weight=2590.3508283942938 39.852294372394681 9.7384515702724403 0.67628135904669662 2.2607119716703918 25.07071609608829 1.3042569067329157 0.19322324544191616 2.1641003489494315 1.0337443631142376 4.1736221015453339 9.3133604303002322 22.964582720771435 5.0721101928502303 4.4731181319802999 0.20288440771401006 0.19322324544191261 30.935041595250368 1.7390092089772213 5.3136392496526232 0.1932232454419136 49.300911074504256 1.4201908539980639 0.51204160042107183 2.1930838357657203 4.6180355660617352
leaf_count=268120 4125 1008 70 234 2595 135 20 224 107 432 964 2377 525 463 21 20 3202 180 550 20 5103 147 53 227 478
internal_value=-4.62003 -2.94013 -1.48944 -0.315963 0.531464 -4.45832 -4.67394 -3.40883 -1.99384 -0.873059 -4.43024 -4.68215 -4.28727 -3.26802 -4.64457 -4.67891 -4.68774 -4.55361 -4.63131 2.1925 -4.6894 -4.69072 -4.69072 -4.69072 -4.69072
internal_weight=0 87.5301 44.7602 32.6257 27.3314 42.77 2727.73 17.5833 7.37147 5.20737 10.2118 2710.15 37.8235 9.54523 12.1344 41.4657 2672.33 32.6741 28.2782 0.386446 2639.65 41.2725 9.8254 11.9315 5.29432
internal_count=291400 9060 4633 3377 2829 4427 282340 1820 763 539 1057 280520 3915 988 1256 4292 276605 3382 2927 40 273223 4272 1017 1235 548
is_linear=0
shrinkage=1


Tree=1
num_leaves=29
num_cat=0
split_feature=9 28 35 1 30 5 5 28 37 31 31 5 41 5 31 22 22 9 9 31 5 13 31 37 5 13 17 9
split_gain=1056.6 475.235 173.878 141.848 125.624 170.508 101.344 131.649 116.022 62.0233 57.0736 43.5147 23.3829 22.5749 13.5555 13.1739 12.3856 11.9832 7.07332 5.85335 3.43321 10.5268 21.2857 2.82272 0.37537 1.72043 0.284205 8.76311e-05
threshold=42.587907395381229 13.062500000000002 13.000000000000002 2912.5000000000005 13.312500000000002 47.902592051513295 46.10876551319182 13.062500000000002 -6.3489749558319968e-15 42.812500000000007 50.562500000000007 47.902592051513295 0.99990161119634247 47.902592051513295 48.062500000000007 1.0000000180025095e-35 1.0000000180025095e-35 42.034942635344088 46.675156654617297 1.0000000180025095e-35 44.410706359108666 53.096225996077798 72.937500000000014 0.70710678118662995 42.916636913703307 53.704322082912903 39.226511289170354 42.191642931855313
decision_type=2 2 2 2 2 2 2 2 2 2 2 2 2 2 2 2 2 2 2 2 2 2 2 2 2 2 2 2
left_child=6 3 12 10 16 -6 20 13 17 -10 15 -12 19 27 -15 -2 -4 -9 -5 -3 24 23 -23 -22 26 -26 -1 -8
right_child=1 2 4 18 5 -7 7 8 9 -11 11 -13 -14 14 -16 -17 -18 -19 -20 -21 21 22 -24 -25 25 -27 -28 -29
leaf_value=-0.070576111310737613 -0.074524484244800848 -0.35501247156713228 -0.085913770103867096 0.25255452919098764 0.13251553230883692 0.044574656819127506 -0.070694597315244911 -0.1094834934286556 -0.070712269143802881 0.094159720670188574 -0.11276507716206503 -0.24380704928130945 0.47825650102203338 -0.072526897625761269 -0.23969655355628405 0.10848978184997551 0.12425564797649535 0.023023090382866256 0.48360910432691645 -0.073762551407454621 -0.070649752363327836 -0.050863174483596389 0.14761098205067291 -0.037590319867092388 -0.06933178082444888 -0.046392038926025975 -0.14526476461229862 -0.071602096289281422
leaf_weight=2093.8272894211113 17.970846027135853 0.36509591620415349 29.969196471385661 1.26411984860897 146.33627266343683 412.74169117584825 9.2578200465068221 26.496654285117987 13.344742071814833 68.934091963805258 20.146501315757632 32.362860795110464 0.37602115795016189 2.953114937990903 12.17960090562701 2.1587613439187399 1.4399680197238911 3.8272495968267313 1.33465891610831 52.79838902503252 86.57821705378592 10.612999123521147 3.5278804181143633 14.821824938058851 213.54558176547289 17.318894863128662 0.24967159330844779 0.55250386428088027
leaf_count=232125 1751 16 1360 21 3029 3347 952 2072 1375 1193 514 427 6 253 155 30 20 139 19 4294 9502 1164 387 1627 23674 1920 1 27
internal_value=0 0.0295399 0.0489879 -0.136932 0.05994 0.0675928 -0.0664095 -0.00794848 0.0242831 0.0674193 -0.155112 -0.19353 -0.0718035 -0.153455 -0.207074 -0.0548975 -0.0762785 -0.0927595 0.371218 -0.075694 -0.0697044 -0.057927 -0.00134765 -0.0658174 -0.0702897 -0.0676109 -0.070585 -0.0707457
internal_weight=0 719.264 644.027 75.2377 590.487 559.078 2578.03 137.546 112.603 82.2788 72.639 52.5094 53.5395 24.943 15.1327 20.1296 31.4092 30.3239 2.59878 53.1635 2440.48 115.541 14.1409 101.4 2324.94 230.864 2094.08 9.81032
internal_count=291400 14834 12072 2762 7756 6376 276566 6166 4779 2568 2722 941 4316 1387 408 1781 1380 2211 40 4310 270400 12680 1551 11129 257720 25594 232126 979
is_linear=0
shrinkage=0.0699999


Tree=2
num_leaves=30
num_cat=0
split_feature=5 28 35 5 28 1 0 9 5 31 5 35 17 1 0 22 17 6 9 31 8 31 5 13 15 37 9 1 17
split_gain=991.98 519.464 202.577 147.952 288.084 88.9506 61.8049 52.1363 70.7218 51.7854 38.2689 28.7402 65.6878 26.7625 24.9583 12.0356 3.61547 5.33785 3.34555 3.23032 1.6297 1.57243 1.36226 3.95238 21.4278 1.9086 0.613076 5.58952 0.213213
threshold=45.205795099712468 13.062500000000002 13.000000000000002 47.902592051513295 13.562500000000002 2912.5000000000005 84.500000000000014 43.462144569481019 42.292916592878143 48.062500000000007 47.902592051513295 13.000000000000002 37.825139324675654 2912.5000000000005 81.500000000000014 1.0000000180025095e-35 37.825139324675654 176.87772365156204 50.51042869905303 4.0625000000000009 100.18700506865396 1.0000000180025095e-35 43.641099638429608 53.882148074277204 311.88635792025156 0.70710678118657588 42.587907395381229 31.500000000000004 39.226511289170354
decision_type=2 2 2 2 2 2 2 2 2 2 2 2 2 2 2 2 2 2 2 2 2 2 2 2 2 2 2 2 2
left_child=7 5 13 4 -4 9 -5 22 16 15 -11 19 -13 21 20 -2 18 -18 -9 -10 -7 -3 26 25 -25 -24 28 -28 -1
right_child=1 2 3 6 -6 14 -8 8 11 10 -12 12 -14 -15 -16 -17 17 -19 -20 -21 -22 -23 23 24 -26 -27 27 -29 -30
leaf_value=-0.070396912530592229 -0.070691193674165417 -0.24111294521488921 0.96174975946847774 0.049346621191173209 0.10528663579435323 0.074047757057851105 -0.013096281511730512 -0.070658894964685193 0.15437485626144201 -0.095153378457256382 -0.20973868645904958 0.21977743082180662 0.0079687824741058021 0.31625372312266908 0.32491596922160726 0.10908280976163151 -0.12797026563198349 0.076291050354203471 0.16675828414743718 -0.076006568741726704 -0.078086624279793668 -0.072281340498216523 -0.070600885729428103 0.23494656654895094 -0.058035118342201444 -0.050099982649096556 0.34517144308377706 -0.060606950994384234 -0.1350884466136279
leaf_weight=2075.6896059019491 21.774985134601597 0.27134090894833107 1.9497707607224573 388.6134442538023 147.90938582550734 0.50729072093963523 97.070590869523585 21.420626686885957 0.31091425288468499 20.343165743164718 47.932562961708754 11.288039523176851 19.687777346000075 0.87647087778895993 2.5245564943179488 1.9916750090196718 10.764245333150026 0.66565235890448171 0.29483245871961017 7.3076621200889349 1.0786199355497954 70.940353487618268 120.19364542048424 1.3744236351922143 11.115682882256804 27.307084396481514 0.16834501503035326 13.951337571721522 0.24966955184936424
leaf_count=246593 2483 17 77 3853 4477 21 920 2345 30 1052 595 453 254 13 26 32 342 22 32 403 27 6880 14246 155 1263 3203 19 1566 1
internal_value=0 0.0222699 0.0430135 0.0556273 0.11643 -0.130391 0.0368666 -0.0679563 -0.00921109 -0.144619 -0.175597 0.0551974 0.0851549 -0.0681929 0.188204 -0.0556259 -0.0842082 -0.116075 -0.0674355 -0.0666047 -0.0294229 -0.0729246 -0.0698293 -0.0636039 -0.0257951 -0.0668055 -0.0703058 -0.055769 -0.0704047
internal_weight=0 803.784 707.631 635.543 149.859 96.1529 485.684 2321.79 71.7398 92.0424 68.2757 38.5944 30.9758 72.0882 4.11047 23.7667 33.1454 11.4299 21.7155 7.61858 1.58591 71.2117 2250.05 159.991 12.4901 147.501 2090.06 14.1197 2075.94
internal_count=291400 20473 16237 9327 4554 4236 4773 270927 3881 4162 1647 1140 707 6910 74 2515 2741 364 2377 433 48 6897 267046 18867 1418 17449 248179 1585 246594
is_linear=0
shrinkage=0.0699999


Tree=3
num_leaves=29
num_cat=0
split_feature=5 28 35 5 30 1 28 9 5 31 35 17 5 1 0 22 1 17 6 9 8 31 5 37 31 13 17 13
split_gain=933.094 449.424 178.068 111.334 191.153 75.8763 57.67 52.5165 67.2661 37.2694 27.209 45.5925 23.5711 20.7859 17.939 11.2926 3.60145 2.91263 4.78475 2.83642 1.45539 1.29807 1.29691 3.67681 7.64215 0.855817 0.16143 0.138964
threshold=45.205795099712468 13.062500000000002 13.000000000000002 47.902592051513295 13.062500000000002 2912.5000000000005 15.062500000000002 42.887568392957611 42.292916592878143 48.062500000000007 13.000000000000002 37.825139324675654 47.902592051513295 2912.5000000000005 81.500000000000014 1.0000000180025095e-35 2780.5000000000005 37.825139324675654 176.87772365156204 50.51042869905303 100.18700506865396 1.0000000180025095e-35 43.641099638429608 0.70710678118657588 42.812500000000007 53.882148074277204 39.226511289170354 53.528265046448958
decision_type=2 2 2 2 2 2 2 2 2 2 2 2 2 2 2 2 2 2 2 2 2 2 2 2 2 2 2 2
left_child=7 5 13 4 -4 9 -5 22 17 15 16 -12 -11 21 20 -2 -10 19 -19 -9 -7 -3 26 25 -25 -24 27 -1
right_child=1 2 3 6 -6 14 -8 8 10 12 11 -13 -14 -15 -16 -17 -18 18 -20 -21 -22 -23 23 24 -26 -27 -28 -29
leaf_value=-0.070480369875693838 -0.070645058453569026 -0.22619570043593895 -0.094170637425496903 0.073325662522307503 0.13305382600810736 0.065340612111726287 0.019494830212287307 -0.070613271439156897 -0.074978504391526243 -0.093951305198706314 0.17188211786163859 0.0074115961999149426 -0.1850885848413267 0.23708513822622526 0.26822712107392371 0.11131317738473763 0.18178976849725764 -0.12235192318496442 0.069995505499339541 0.13085690619599608 -0.077501917135583062 -0.072146041676788009 -0.070559832979552969 -0.070579164606857675 0.0038131331752517322 -0.048808439638553712 -0.12686377407427937 -0.068290315367432172
leaf_weight=1789.9128491994925 20.315652534365658 0.26911033084615965 20.929122908040881 136.48499719332904 136.18642998114228 0.53361523523926635 341.55843369569629 25.068108453880999 7.8465146012604219 19.201991476584226 14.2273175669834 19.686168074607849 50.411800984758884 1.0780264986678947 2.8312778295949101 1.8210727032273997 0.27711697528138746 10.49938335549086 0.67439982201904136 0.34714973345398803 1.0130160045810042 66.264012804720551 111.8331978903152 16.885732538998131 11.29067795537412 9.6263675587251765 0.24731963872909446 154.1976505429484
leaf_count=227872 2483 17 1161 822 3393 21 3951 2945 521 1052 540 254 595 13 26 32 27 346 22 32 27 6880 14210 2077 1379 1117 1 19584
internal_value=0 0.0207515 0.0401692 0.0516653 0.102786 -0.121207 0.0348639 -0.0677217 -0.0115578 -0.134792 0.0488469 0.0764099 -0.15995 -0.0678287 0.163498 -0.0556763 -0.0662195 -0.0809567 -0.110743 -0.0678614 -0.0282187 -0.0727691 -0.0698306 -0.0635509 -0.0407691 -0.0688359 -0.0703139 -0.0703067
internal_weight=0 798.899 702.77 635.159 157.116 96.1284 478.043 2172.62 78.6262 91.7505 42.0371 33.9135 69.6138 67.6111 4.37791 22.1367 8.12363 36.589 11.1738 25.4153 1.54663 66.5331 2093.99 149.636 28.1764 121.46 1944.36 1944.11
internal_count=291400 20473 16237 9327 4554 4236 4773 270927 4687 4162 1342 794 1647 6910 74 2515 548 3345 368 2977 48 6897 266240 18783 3456 15327 247457 247456
is_linear=0
shrinkage=0.0699999


Tree=4
num_leaves=31
num_cat=0
split_feature=5 28 31 30 5 1 22 9 5 31 31 17 31 5 13 22 5 17 14 13 17 5 13 15 19 31 4 13 15 17
split_gain=879.541 395.667 192.782 111.347 163.102 63.2033 44.8727 30.3739 50.0532 27.4258 23.6459 46.1408 26.3432 18.6602 15.0815 10.7031 3.91407 2.92556 2.28194 8.12516 2.46444 0.897404 3.10217 15.3452 2.28574 0.731067 0.328615 0.149383 2.02264 0.122306
threshold=44.819729815366941 13.062500000000002 42.812500000000007 13.062500000000002 47.902592051513295 2912.5000000000005 1.0000000180025095e-35 42.887568392957611 42.292916592878143 48.062500000000007 43.312500000000007 37.825139324675654 1.0000000180025095e-35 47.902592051513295 55.963379069768116 1.0000000180025095e-35 47.902592051513295 37.825139324675654 153.11583849939603 64.130782834550573 37.825139324675654 43.641099638429608 53.882148074277204 311.88635792025156 1.0000000180025095e-35 1.0000000180025095e-35 93.606734786769223 53.528265046448958 408.05552431519857 39.226511289170354
decision_type=2 2 2 2 2 2 2 2 2 2 2 2 2 2 2 2 2 2 2 2 2 2 2 2 2 2 2 2 2 2
left_child=7 5 6 17 -5 9 25 21 18 15 12 -12 -10 -11 26 -2 -8 -4 20 -20 -9 27 24 -24 -23 -3 -7 29 -29 -1
right_child=1 2 3 4 -6 14 16 8 10 13 11 -13 -14 -15 -16 -17 -18 -19 19 -21 -22 22 23 -25 -26 -27 -28 28 -30 -31
leaf_value=-0.070436727605253172 -0.070636692444195903 -0.16688233424028617 -0.074150185780173128 0.11993360584735084 0.03534263743031478 0.0046491300412448491 0.194406948594468 -0.070577247914725111 0.42257948259575678 -0.090012632080348931 0.22238239300585644 0.0069480784491091404 -0.071043758497077822 -0.1666252374246073 0.2213561609041981 0.11309526923618944 0.074794156039653323 -0.12401161362876888 -0.070571451685862985 0.34521546466480862 -0.11164308942078666 -0.067905179423483078 0.19747732922998892 -0.061683702001292917 0.095308614683667761 -0.070690628050433704 -0.075420404488888926 -0.068574509450747667 0.075407035671978082 -0.1200886492611698
leaf_weight=1669.901373305358 22.658246307633821 0.38886843901127477 18.267407502047721 148.28740628901869 452.5212400406599 0.33290642313659091 1.679198123048989 22.568701866082847 0.56004080967977898 22.238665010780096 7.6277232151478556 13.480593097861854 9.795007046312092 52.011656396556646 3.3164101298898458 1.6679492937400926 6.6460680589079857 8.4254537504166347 1.3184817400760938 0.27903323061764229 10.488426469266413 106.76888231746852 1.3047992978245 7.8836779985576868 0.42210549395531316 87.503892527893186 1.0228020744398234 143.69035387365147 0.47967566456645627 0.24312727153301139
leaf_count=227872 2961 30 1464 3414 3485 10 30 2823 12 1429 255 127 773 595 25 33 111 266 167 5 350 14391 123 1000 57 9961 46 19519 65 1
internal_value=0 0.0175701 0.0358585 0.0500055 0.0562208 -0.110622 -0.0564038 -0.0682775 -0.0216249 -0.122545 0.0422944 0.0847976 -0.0443467 -0.143679 0.140946 -0.0580389 0.0989199 -0.0898887 -0.0796579 0.00205282 -0.0836067 -0.0698751 -0.0639164 -0.0248818 -0.0672625 -0.0711162 -0.0557586 -0.0702573 -0.0680955 -0.070444
internal_weight=0 826.968 723.72 627.502 600.809 103.249 96.218 1996.81 66.118 98.5765 31.4634 21.1083 10.355 74.2503 4.67212 24.3262 8.32527 26.6929 34.6546 1.59751 33.0571 1930.69 116.379 9.18848 107.191 87.8928 1.35571 1814.31 144.17 1670.14
internal_count=291400 23860 18761 8629 6899 5099 10132 267540 4512 5018 1167 382 785 2024 81 2994 141 1730 3345 172 3173 263028 15571 1123 14448 9991 56 247457 19584 227873
is_linear=0
shrinkage=0.0699999


Tree=5
num_leaves=29
num_cat=0
split_feature=9 28 31 30 5 1 22 5 37 31 5 37 31 5 5 28 22 5 8 8 17 28 17 31 13 38 5 29
split_gain=829.815 295.677 151.112 114.127 88.1511 67.1541 56.7975 55.643 38.8086 17.7051 15.4714 67.2105 39.0986 25.4578 14.57 10.9656 10.153 9.03872 6.02367 5.84374 4.68831 3.60776 2.71257 1.99244 1.32359 5.97462 1.13354 0.606831
threshold=42.034942635344088 13.062500000000002 42.812500000000007 13.062500000000002 47.902592051513295 2912.5000000000005 1.0000000180025095e-35 49.877922099773066 5.7328944716010845e-14 48.687500000000007 45.347119951713417 0.70710678118654691 42.812500000000007 47.902592051513295 47.000323547609263 13.062500000000002 1.0000000180025095e-35 47.902592051513295 97.663159577973403 100.23124656336788 33.269355432592256 65.062500000000014 37.825139324675654 1.0000000180025095e-35 60.418067951263112 0.84672419922829534 43.706775393019406 50.937500000000007
decision_type=2 2 2 2 2 2 2 2 2 2 2 2 2 2 2 2 2 2 2 2 2 2 2 2 2 2 2 2
left_child=7 5 6 22 -5 9 23 10 18 16 24 13 -13 -12 -8 27 -2 -11 -9 -7 -17 -20 -4 -3 26 -26 -1 -10
right_child=1 2 3 4 -6 19 14 8 15 17 11 12 -14 -15 -16 20 -18 -19 21 -21 -22 -23 -24 -25 25 -27 -28 -29
leaf_value=-0.070274738783478549 -0.070715553991908583 -0.20437303601495369 -0.07523713168901397 0.09984085367493635 0.038026851940284163 0.25470437520018191 0.34695019597144627 0.051228363451283822 -0.066962049025889356 -0.097361724192848234 -0.054269209619434461 -0.07078857732014443 0.088292011294089159 -0.14579730695166521 0.08395396656091747 0.068797817576159728 0.11912044876315603 -0.15225979435199422 -0.11598724015387799 0.087632589390038818 -0.033022286375584776 -0.22772523482630824 -0.12123531175227027 -0.070639068145381831 -0.070498768581790786 0.44232068344398212 -0.063465859242794437 -0.14754028569701391
leaf_weight=1662.1253526164219 18.274762762710456 0.54997096839360793 14.052709348034115 159.14957039710134 390.21567072533071 2.1636101747862986 1.2126418021507541 0.784414644818752 0.78795908577740448 23.127438046038151 51.235891204793006 11.120355506893246 23.715072853956372 20.990877593867481 6.9358554184436798 27.160813109949235 1.4932921701110888 40.308207013644278 4.1042419136501849 1.9507589945569632 2.4127060491591683 2.161613404750824 11.360307516530154 73.390053211711347 0.60601605195552011 0.13637124001979828 129.1132914707996 1.0934943649917839
leaf_count=243034 2504 29 1073 2792 2973 24 27 32 25 1061 5948 1330 1024 750 124 274 31 456 178 28 27 64 310 9053 87 16 18106 20
internal_value=0 0.0204502 0.0365373 0.0492255 0.0559342 -0.100568 -0.0523043 -0.0665117 0.0167958 -0.114219 -0.0682009 -0.0423519 0.0375094 -0.0808695 0.123092 0.0500663 -0.0563752 -0.132245 -0.131642 0.17549 0.060491 -0.154535 -0.0957996 -0.0716338 -0.0697452 0.0237025 -0.069784 -0.113794
internal_weight=0 744.185 656.867 574.778 549.365 87.3181 82.0885 1937.55 38.5052 83.2037 1899.04 107.062 34.8354 72.2268 8.1485 31.455 19.7681 63.4356 7.05027 4.11437 29.5735 6.26586 25.413 73.94 1791.98 0.742387 1791.24 1.88145
internal_count=291400 20485 16381 7148 5765 4104 9233 270915 620 4052 270295 9052 2354 6698 151 346 2535 1517 274 52 301 242 1383 9082 261243 103 261140 45
is_linear=0
shrinkage=0.0699999


Tree=6
num_leaves=29
num_cat=0
split_feature=5 28 35 29 5 1 9 5 14 31 1 31 0 22 5 31 14 13 17 15 5 13 0 19 31 13 15 17
split_gain=785.512 312.826 162.774 92.7552 119.923 49.1457 29.7227 43.8297 17.9999 17.1648 16.5972 15.9492 10.454 9.49062 8.89758 5.7624 2.11809 6.98257 1.94543 1.39941 1.01256 3.30279 16.1256 2.20123 0.592509 0.170284 1.98934 0.117389
threshold=44.819729815366941 13.062500000000002 13.000000000000002 13.062500000000002 47.902592051513295 2912.5000000000005 42.887568392957611 42.292916592878143 120.66960490281552 43.312500000000007 2912.5000000000005 48.062500000000007 81.500000000000014 1.0000000180025095e-35 47.902592051513295 1.0000000180025095e-35 153.11583849939603 64.130782834550573 37.825139324675654 350.5079144313296 43.641099638429608 53.882148074277204 98.500000000000014 1.0000000180025095e-35 1.0000000180025095e-35 53.528265046448958 408.05552431519857 39.226511289170354
decision_type=2 2 2 2 2 2 2 2 2 2 2 2 2 2 2 2 2 2 2 2 2 2 2 2 2 2 2 2
left_child=6 5 10 15 -5 11 20 16 -9 -10 24 13 19 -2 -13 -4 18 -18 -8 -7 25 23 -23 -22 -3 27 -27 -1
right_child=1 2 3 4 -6 12 7 8 9 -11 -12 14 -14 -15 -16 -17 17 -19 -20 -21 21 22 -24 -25 -26 26 -28 -29
leaf_value=-0.070356279155112916 -0.07055707560102327 -0.17197146496038457 0.072396885436001215 0.10349454409831199 0.031599740366780447 0.060367177342232271 -0.070520351554185415 0.53388144328229437 -0.051561902964628994 0.06409225326920584 0.18352180643188815 -0.087585415778514808 0.18198234905287158 0.11985988682468214 -0.14225229054144883 -0.075409977691468788 -0.070504126183983648 0.32446856283390724 -0.10826265555257394 -0.078950443684532218 -0.067478847067938288 -0.036805227308673541 0.57437808175915062 0.090327582154422506 -0.072352927592679833 -0.068229556048183898 0.073826962732376503 -0.11908465761818506
leaf_weight=1454.3283334532753 19.79011284373701 0.29379686899483104 1.3464255705475796 153.06803039181978 441.85708559863269 0.52148149209096928 20.214711729902781 0.35388421220705168 8.720336099155249 22.543287036940455 1.2605058327317227 20.123111047782004 3.4209519540891051 1.3714418271556486 53.045234460383654 32.231676724739373 1.1604203777387727 0.27042981889098872 10.00358906155452 1.0953592881560323 93.830047477968037 8.2929884418845141 0.21706392476335246 0.43513185391202469 69.294834445230663 125.69154157489538 0.48490164056420226 0.24228830635547538
leaf_count=227872 2961 19 27 4114 3859 23 2823 23 768 376 15 1429 29 33 595 2551 167 5 350 29 14391 1095 28 57 8176 19519 65 1
internal_value=0 0.0158574 0.0323704 0.0437089 0.0500975 -0.100362 -0.0679426 -0.0208402 0.0374522 0.0318329 -0.0682137 -0.111738 0.112659 -0.0582165 -0.127218 -0.0694832 -0.0790742 0.00414547 -0.0830147 -0.0340162 -0.0697127 -0.06298 -0.0212159 -0.0667504 -0.0727735 -0.0701504 -0.0676836 -0.0703644
internal_weight=0 798.72 699.352 628.503 594.925 99.3677 1746.79 63.2667 31.6175 31.2636 70.8491 94.3299 5.03779 21.1616 73.1683 33.5781 31.6492 1.43085 30.2183 1.61684 1683.52 102.775 8.51005 94.2652 69.5886 1580.75 126.176 1454.57
internal_count=291400 23860 18761 10551 7973 5099 267540 4512 1167 1144 8210 5018 81 2994 2024 2578 3345 172 3173 52 263028 15571 1123 14448 8195 247457 19584 227873
is_linear=0
shrinkage=0.0699999


Tree=7
num_leaves=30
num_cat=0
split_feature=5 28 31 29 5 1 22 9 5 30 30 22 31 5 13 5 6 17 1 5 13 15 19 31 6 13 1 9 17
split_gain=740.715 277.157 146.863 91.8101 105.9 43.6937 38.0485 29.7875 39.8503 15.6628 33.0218 13.6658 9.4902 9.02334 8.51706 5.42599 1.22495 1.95368 1.38221 1.07456 3.30808 12.5498 1.99724 0.36582 0.300995 0.181752 1.93164 0.152424 0.0902774
threshold=44.819729815366941 13.062500000000002 42.812500000000007 13.062500000000002 47.902592051513295 2912.5000000000005 1.0000000180025095e-35 42.887568392957611 42.103799889137896 13.312500000000002 15.062500000000002 1.0000000180025095e-35 4.8125000000000009 47.902592051513295 55.963379069768116 47.902592051513295 176.87772365156204 37.825139324675654 2408.5000000000005 43.641099638429608 53.882148074277204 311.88635792025156 1.0000000180025095e-35 1.0000000180025095e-35 167.4293829401042 53.528265046448958 19.500000000000004 43.462144569481019 39.226511289170354
decision_type=2 2 2 2 2 2 2 2 2 2 2 2 2 2 2 2 2 2 2 2 2 2 2 2 2 2 2 2 2
left_child=7 5 6 27 -5 11 23 19 16 12 -11 13 -10 -2 24 -8 17 -9 -18 25 22 -22 -21 -3 -7 28 -27 -4 -1
right_child=1 2 3 4 -6 14 15 8 9 10 -12 -13 -14 -15 -16 -17 18 -19 -20 20 21 -23 -24 -25 -26 26 -28 -29 -30
leaf_value=-0.07031860545520674 -0.080250717999746424 -0.13930076529186183 -0.070910452698201315 0.099180148175489105 0.030853366275322279 0.0045272664040850877 0.24038903222934385 -0.070485324577880815 0.2250997213683037 0.22525886161491698 0.019740072001094983 0.12308026703250995 -0.10309863948676661 -0.12667834854534149 0.15412482625636492 0.073933748360742346 -0.070487944851033435 -0.11042772245235381 0.066877991621037747 -0.067243054216694617 0.1635493005092126 -0.060333008627164293 0.076596155790436729 -0.07061834711284265 -0.075145826414506428 0.070108691901233311 -0.068045153811778988 -0.080897220895093061 -0.11357404367020538
leaf_weight=1356.7078117374331 31.539363086223602 0.38190271216444571 13.607805161271246 150.39047681400552 425.98473187442869 0.30770452972501405 1.1588062373921264 18.386758459731944 0.47216806653886934 4.6072951853275326 22.730729023460299 1.2448327406309534 5.0390136977657676 58.666769310133532 3.8709677951410413 5.5812663994729519 0.96223416319116839 8.9071853961795551 0.57247177883982658 87.782674124930054 1.4928413163870553 6.88567308569327 0.47557362914085288 75.82894491776824 0.94867937220260501 0.49800311168655653 117.52571693854406 16.652819508221 0.23646567761897941
leaf_count=227872 3387 30 1500 3173 3232 11 30 2753 36 48 950 34 225 1597 25 111 143 334 23 14391 123 1000 57 9961 45 80 19504 724 1
internal_value=0 0.014942 0.0304962 0.0424418 0.0486815 -0.0961182 -0.0568638 -0.0677557 -0.0200368 0.0326738 0.0543763 -0.107267 -0.0749804 -0.110446 0.102727 0.102552 -0.0800987 -0.0835202 -0.0192481 -0.0696285 -0.0624776 -0.0204428 -0.066468 -0.0709625 -0.0556329 -0.070097 -0.0674622 -0.0764063 -0.0703261
internal_weight=0 786.165 689.587 606.636 576.375 96.5783 82.9509 1633.28 61.6779 32.8492 27.338 91.451 5.51118 90.2061 5.12735 6.74007 28.8286 27.2939 1.53471 1571.6 96.6368 8.37851 88.2582 76.2108 1.25638 1474.97 118.024 30.2606 1356.94
internal_count=291400 23860 18761 8629 6405 5099 10132 267540 4512 1259 998 5018 261 4984 81 141 3253 3087 166 263028 15571 1123 14448 9991 56 247457 19584 2224 227873
is_linear=0
shrinkage=0.0699999


Tree=8
num_leaves=26
num_cat=0
split_feature=5 28 35 28 28 5 1 9 22 5 31 1 22 0 5 2 6 5 13 6 29 31 13 15 0
split_gain=697.894 247.07 137.921 90.2872 221.812 40.496 39.1975 29.9051 37.2064 33.6866 18.592 14.2336 12.3963 7.87538 6.62665 1.70958 1.15311 1.13951 3.31409 12.2102 2.07091 0.363958 0.194004 1.9659 0.0791164
threshold=44.819729815366941 13.062500000000002 13.000000000000002 15.062500000000002 27.812500000000004 47.902592051513295 2912.5000000000005 42.887568392957611 1.0000000180025095e-35 42.292916592878143 43.312500000000007 2912.5000000000005 1.0000000180025095e-35 81.500000000000014 47.902592051513295 160.27805046721437 176.87772365156204 43.641099638429608 53.882148074277204 181.26063466210721 289.06250000000006 1.0000000180025095e-35 53.528265046448958 408.05552431519857 1.5000000000000002
decision_type=2 2 2 2 2 2 2 2 2 2 2 2 2 2 2 2 2 2 2 2 2 2 2 2 2
left_child=7 6 11 5 -5 -4 12 17 9 16 -11 21 14 15 -2 -8 -9 22 20 -20 -19 -3 24 -24 -1
right_child=1 2 3 4 -6 -7 13 8 -10 10 -12 -13 -14 -15 -16 -17 -18 18 19 -21 -22 -23 23 -25 -26
leaf_value=-0.06470366971827754 -0.079826717433983965 -0.1505632291655622 0.15402111014769085 -0.12132148958430475 0.039877289112301886 0.066670572438878709 0.093737277129538193 -0.083137267558104438 0.59327530957426089 -0.062740872206729942 0.058276591584112171 0.1550723503713782 0.12702176310776017 0.15128880405337139 -0.12062855092035057 -0.075855739465419708 -0.020465174330797024 -0.066999457943605234 -0.035427549135983935 0.43962317368896064 0.082107242068241895 -0.072374493561990591 -0.067852181411373017 0.073004189972248057 -0.070344362724796813
leaf_weight=12.303776210639624 29.557829573750496 0.29305908596143027 33.082544818054885 46.556309876963496 411.75158783746883 121.57994736777619 0.38280594348907371 26.665500206872824 0.48210008908063073 8.5255655404180306 23.007280097808689 1.3728293934836973 1.1258820940274734 3.6050915652886033 57.34324086108245 1.2177832154557107 1.5205551655963052 82.193400987889618 7.9638280132785422 0.2742462079040705 0.45896648848429222 63.585970461834222 109.92845159303397 0.4876707149669518 1253.5382867744192
leaf_count=2216 3387 19 359 1964 7406 822 6 3168 12 777 381 15 34 29 1597 46 174 14368 1091 32 80 8176 19519 65 225657
internal_value=0 0.0141219 0.0288095 0.0391087 0.0235022 0.085355 -0.092723 -0.0675586 -0.0192042 -0.0241486 0.025557 -0.0679404 -0.103761 0.09392 -0.106751 -0.0352949 -0.0797563 -0.0695427 -0.0619515 -0.0196131 -0.0661715 -0.0727332 -0.0700441 -0.0672301 -0.0702895
internal_weight=0 771.455 678.222 612.97 458.308 154.662 93.2326 1527.35 60.201 59.7189 31.5328 65.2519 88.027 5.20568 86.9011 1.60059 28.1861 1467.15 90.8904 8.23807 82.6524 63.879 1376.26 110.416 1265.84
internal_count=291400 23860 18761 10551 9370 1181 5099 267540 4512 4500 1158 8210 5018 81 4984 52 3342 263028 15571 1123 14448 8195 247457 19584 227873
is_linear=0
shrinkage=0.0699999


Tree=9
num_leaves=28
num_cat=0
split_feature=5 28 35 30 5 1 9 5 31 31 1 31 0 5 22 15 5 13 15 19 6 17 17 31 13 1 0
split_gain=657.613 221.06 123.864 84.5272 88.602 35.3168 29.6156 33.4138 23.908 19.056 12.5435 11.3148 6.61155 4.89072 4.22469 1.71459 1.20831 3.3147 9.9984 1.9556 1.16582 1.31799 1.28635 0.280554 0.207097 1.91497 0.0842557
threshold=44.819729815366941 13.062500000000002 13.000000000000002 13.062500000000002 47.902592051513295 2912.5000000000005 42.887568392957611 42.103799889137896 1.0000000180025095e-35 43.312500000000007 2912.5000000000005 1.0000000180025095e-35 81.500000000000014 47.902592051513295 1.0000000180025095e-35 323.55590223859156 43.641099638429608 53.882148074277204 311.88635792025156 1.0000000180025095e-35 176.87772365156204 37.825139324675654 37.825139324675654 1.0000000180025095e-35 53.528265046448958 19.500000000000004 1.5000000000000002
decision_type=2 2 2 2 2 2 2 2 2 2 2 2 2 2 2 2 2 2 2 2 2 2 2 2 2 2 2
left_child=6 5 10 14 -5 11 16 20 -9 -10 23 -2 15 -13 -4 -7 24 19 -19 -18 22 -22 -8 -3 26 -26 -1
right_child=1 2 3 4 -6 12 7 8 9 -11 -12 13 -14 -15 -16 -17 17 18 -20 -21 21 -23 -24 -25 25 -27 -28
leaf_value=-0.064302996361539716 0.13168640032285264 -0.14116334433868974 -0.087749269242791444 0.087598082118782963 0.025899054332110844 0.088605134593272433 -0.070417115679703435 0.50114883983594372 -0.070838732453182313 0.052332124294082023 0.13463395086375748 -0.079402542899854558 0.13834619566656947 -0.11538042336030348 0.07341144144045797 -0.07811524321026965 -0.066739588888184945 0.12976227043202507 -0.059475429356995721 0.074769183416343546 -0.070447059143632085 0.066502649127122671 -0.10441341440984538 -0.072235843047939924 0.069794919123308694 -0.067650488534029579 -0.070313471567119631
leaf_weight=11.540959919337181 1.015001784544437 0.2907687317347144 26.685992039740089 156.60291907843202 419.67691606702283 0.41104048257693548 15.808157794177538 0.51564073190092941 8.2808025428093952 23.972415816038847 1.4667380210012186 27.704346970189363 3.6639762790873647 55.808987360447645 0.82156135514378448 1.142098411452025 76.940643722191453 1.7423507105559091 6.3687569950707257 0.48152359761297603 0.89200305938720592 0.56083788489922881 8.3261701262090337 59.396948419976979 0.49911365192383428 102.81837592460215 1169.2867956066038
leaf_count=2216 39 19 2209 4270 4053 11 2753 13 838 408 15 3382 29 1597 19 41 14391 123 1000 57 145 21 334 8176 80 19504 225657
internal_value=0 0.0134102 0.0273284 0.0369434 0.0426656 -0.0897126 -0.0673744 -0.0185368 0.0282689 0.0207088 -0.067602 -0.100622 0.0870409 -0.103445 -0.0829359 -0.0339925 -0.0694552 -0.0613992 -0.0188252 -0.0658595 -0.0784796 -0.0175806 -0.0821456 -0.0725716 -0.0699918 -0.0669865 -0.0702547
internal_weight=0 754.687 664.942 603.787 576.28 89.7455 1428.03 58.356 32.7689 32.2532 61.1545 84.5283 5.21712 83.5133 27.5076 1.55314 1369.68 85.5333 8.11111 77.4222 25.5872 1.45284 24.1343 59.6877 1284.15 103.317 1180.83
internal_count=291400 23860 18761 10551 8323 5099 267540 4512 1259 1246 8210 5018 81 4979 2228 52 263028 15571 1123 14448 3253 166 3087 8195 247457 19584 227873
is_linear=0
shrinkage=0.0699999


Tree=10
num_leaves=30
num_cat=0
split_feature=5 28 31 28 0 30 22 1 9 5 22 30 22 5 33 5 5 13 39 29 39 14 0 16 7 13 15 31 0
split_gain=620.484 197.511 118.393 82.4327 110.599 84.1106 33.7914 31.9307 29.4535 30.4947 22.5407 15.1455 10.4254 6.67646 5.90414 3.62834 1.27991 3.31241 8.49916 2.01482 1.10096 0.903568 0.847143 0.838719 0.555195 0.221058 1.94229 0.174087 0.0897088
threshold=44.819729815366941 13.062500000000002 42.812500000000007 105.68750000000001 71.500000000000014 13.062500000000002 1.0000000180025095e-35 2912.5000000000005 42.887568392957611 42.103799889137896 1.0000000180025095e-35 13.312500000000002 1.0000000180025095e-35 47.902592051513295 1.0000000180025095e-35 47.902592051513295 43.641099638429608 53.882148074277204 -0.90096886790241448 289.06250000000006 0.99371220989324438 168.53220763761502 98.500000000000014 81.960621406750008 461.11835333071468 53.528265046448958 408.05552431519857 1.0000000180025095e-35 1.5000000000000002
decision_type=2 2 2 2 2 2 2 2 2 2 2 2 2 2 2 2 2 2 2 2 2 2 2 2 2 2 2 2 2
left_child=8 7 6 5 -5 -4 27 12 16 20 11 -11 15 -8 23 -2 25 19 -19 -18 21 -10 -22 -9 -16 28 -27 -3 -1
right_child=1 2 3 4 -6 -7 13 14 9 10 -12 -13 -14 -15 24 -17 17 18 -20 -21 22 -23 -24 -25 -26 26 -28 -29 -30
leaf_value=-0.063881434446704397 -0.078976821441436973 -0.11847270426649101 -0.090882541975921299 0.031235083733629911 -0.14535638979874071 0.052434330227825683 0.28174513626741782 0.024155402788868057 -0.080860033496296432 -0.08848532296897943 0.48704515772553075 0.040403010981028845 0.13813370977404066 0.073383782644637963 0.10262700416503326 -0.11080679625580875 -0.066471110565432284 0.14669841321278571 -0.049698715589185954 0.079324355292094362 -0.070360037326088101 0.066939457218817444 0.11961631105537647 -0.080560252653826617 0.15705954070316824 -0.06743860199134509 0.072246530784883231 -0.070614806876904884 -0.07028410357737562
leaf_weight=10.829259663354604 25.971256598364562 0.37447154661640425 20.930217684712261 48.689467770978808 27.023701232392341 485.70087691303343 0.89163650572299857 0.6665522209368635 23.482499514939271 5.3615673710592082 0.51200783718377252 26.786065981723368 0.90735163749195535 4.8653332330286503 1.8808544417843225 54.106569195864722 72.074066605418921 1.2873501875437794 6.6934594158083192 0.46746575832366843 0.21858267881907423 0.20444405358284612 0.24274033308029175 0.85623513907194138 1.7938869111239908 96.203982612583786 0.49024862004443903 68.574858201202005 1090.6753800227307
leaf_count=2216 3387 30 1541 1047 341 5700 30 19 3203 260 10 989 34 111 27 1597 14368 174 949 80 44 5 1 22 13 19519 65 9961 225657
internal_value=0 0.0126208 0.0256897 0.0363324 -0.0317943 0.0465135 -0.0572711 -0.087016 -0.0671743 -0.0178543 0.0262461 0.0189071 -0.0978101 0.105655 0.0811724 -0.100484 -0.0693653 -0.0608224 -0.0180187 -0.0655316 -0.0774985 -0.0795844 0.0296023 -0.0347243 0.129199 -0.0699395 -0.0667304 -0.0708747 -0.0702212
internal_weight=0 743.233 657.051 582.344 75.7132 506.631 74.7063 86.1827 1335.53 56.8079 32.6596 32.1476 80.9852 5.75697 5.19753 80.0778 1278.72 80.5223 7.98081 72.5415 24.1483 23.6869 0.461323 1.52279 3.67474 1198.2 96.6942 68.9493 1101.5
internal_count=291400 23860 18761 8629 1388 7241 10132 5099 267540 4512 1259 1249 5018 141 81 4984 263028 15571 1123 14448 3253 3208 45 41 40 247457 19584 9991 227873
is_linear=0
shrinkage=0.0699999


Tree=11
num_leaves=29
num_cat=0
split_feature=9 28 28 28 41 28 5 37 1 28 5 17 5 15 5 13 30 22 5 37 13 12 31 14 16 5 15 2
split_gain=585.088 157.439 99.8401 183.002 108.355 83.5638 49.8318 97.8202 36.6129 33.4119 22.7103 35.267 22.3593 20.9432 17.8266 17.9867 13.0993 9.95261 3.68085 8.44765 20.1373 3.36239 2.09767 0.610025 0.474076 0.465238 1.47937 0.0352487
threshold=42.034942635344088 13.062500000000002 15.062500000000002 28.187500000000004 0.96517929112935064 65.812500000000014 46.10876551319182 0.70710678118654369 2912.5000000000005 13.062500000000002 47.902592051513295 37.825139324675654 47.902592051513295 379.4532753804661 47.902592051513295 53.882148074277204 13.562500000000002 1.0000000180025095e-35 44.410706359108666 0.70710678118653714 53.096225996077798 118.63990075876401 48.687500000000007 124.52585786490052 70.75503520607252 42.630493491084643 408.05552431519857 190.37652204421451
decision_type=2 2 2 2 2 2 2 2 2 2 2 2 2 2 2 2 2 2 2 2 2 2 2 2 2 2 2 2
left_child=6 8 10 4 -4 -5 18 14 17 23 11 -3 -11 -12 15 -8 -16 22 25 24 -21 -10 -2 -9 -20 27 -27 -1
right_child=1 2 3 5 -6 -7 7 9 21 12 13 -13 -14 -15 16 -17 -18 -19 19 20 -22 -23 -24 -25 -26 26 -28 -29
leaf_value=-0.070318639669901997 -0.070606649256382575 0.19088873664278758 -0.15211773002232273 0.056352531141928799 0.10356648770812744 -0.0091239749491899627 -0.060096896608637346 0.038294175450414886 0.18279873126262758 0.17472886066541257 0.072950762053110754 0.055531540216103771 0.049592679779678059 -0.037760555033491558 -0.0029644884889349931 0.15016907138766403 -0.14247267171815331 0.15504910404603042 -0.036016091702014329 -0.045157320355108437 0.14250209074724043 0.06045240828884843 -0.10315861875866893 -0.10292059478434747 -0.070524544011146162 -0.066481055892504082 0.041259253386958405 -0.067780962976288814
leaf_weight=970.81775600975379 11.776285242289303 19.800925068790093 45.786877555539832 227.55384942516685 9.8726621582172793 164.58993378048763 19.804915545508269 0.15375471999868651 1.8654741505160917 8.8241629311814886 90.335199187044054 18.011529139243066 33.782276964746416 9.2277107615955156 3.8245783750899163 2.2165760975331059 23.950202941545285 0.77396133774891396 2.0299864504486314 19.272823459003124 3.2785514825955024 2.6847651381976902 55.021281704539433 5.9684462960576639 49.948724629357457 145.39811673108488 0.62716927472501893 27.582417625933886
leaf_count=215198 2504 420 3214 6184 260 5322 2687 10 14 856 742 150 463 89 275 285 819 32 347 3093 418 38 1516 340 8431 31451 130 6112
internal_value=0 0.0159995 0.0280266 0.012012 -0.106766 0.0288708 -0.0648567 -0.0169717 -0.0815856 0.0535373 0.0802295 0.126413 0.0755095 0.0626898 -0.0859691 -0.0389325 -0.123262 -0.094528 -0.0687271 -0.0536539 -0.0178751 0.110611 -0.0974198 -0.0993741 -0.0691768 -0.0697088 -0.0660183 -0.0702485
internal_weight=0 657.3 585.179 447.803 55.6595 392.144 1317.48 98.5249 72.1218 48.7286 137.375 37.8125 42.6064 99.5629 49.7963 22.0215 27.7748 67.5715 1218.96 74.5301 22.5514 4.55024 66.7976 6.1222 51.9787 1144.43 146.025 998.4
internal_count=291400 20485 16381 14980 3474 11506 270915 5735 4104 1669 1401 570 1319 831 4066 2972 1094 4052 265180 12289 3511 52 4020 350 8778 252891 31581 221310
is_linear=0
shrinkage=0.0699999


Tree=12
num_leaves=28
num_cat=0
split_feature=5 28 35 28 28 9 5 1 5 35 17 1 31 0 22 31 5 5 13 15 19 6 39 13 1 31 0
split_gain=553.017 159.69 101.859 72.1203 181.27 29.5506 27.6091 26.3052 20.9589 13.8996 23.8362 10.6405 8.93032 4.93415 4.80676 4.65837 2.06672 1.43746 3.40523 8.50799 2.03978 1.41544 1.00133 0.25143 2.01582 0.191776 0.102357
threshold=44.819729815366941 13.062500000000002 13.000000000000002 15.062500000000002 27.812500000000004 42.887568392957611 42.292916592878143 2912.5000000000005 47.902592051513295 13.000000000000002 37.825139324675654 2912.5000000000005 1.0000000180025095e-35 81.500000000000014 1.0000000180025095e-35 0.56250000000000011 47.902592051513295 43.641099638429608 53.882148074277204 311.88635792025156 1.0000000180025095e-35 168.17708030519631 0.99371220989324438 53.528265046448958 19.500000000000004 1.0000000180025095e-35 1.5000000000000002
decision_type=2 2 2 2 2 2 2 2 2 2 2 2 2 2 2 2 2 2 2 2 2 2 2 2 2 2 2
left_child=5 7 11 8 -5 17 14 12 -4 15 -11 25 -2 21 22 -8 -14 23 20 -20 -19 -9 -7 26 -25 -3 -1
right_child=1 2 3 4 -6 6 9 13 -10 10 -12 -13 16 -15 -16 -17 -18 18 19 -21 -22 -23 -24 24 -26 -27 -28
leaf_value=-0.062922979308836474 0.15335665005668264 -0.13008965554147636 0.12361948411548032 -0.1164921722586028 0.032977600436087273 -0.079514000217251635 0.25655057943698723 0.073190466176415434 0.060312072972965348 0.12131725101636075 -0.014989615627549286 0.11417116263675864 -0.077821541656242721 0.1159835539680078 0.23866915254000259 -0.077213305783678673 -0.10315521699916781 -0.065897227416243376 0.11311076927619806 -0.058091051374424336 0.082449959350756344 -0.077400898411947514 0.027975269717690949 0.078267349430019659 -0.066988777322309886 -0.072321558843755143 -0.070230485188961675
leaf_weight=9.4860864938236755 0.71506944252177973 0.28307475848123331 33.645814224611968 44.233981544151902 392.81586226541549 22.714104071026675 0.21192863490432756 0.42633010027930041 107.4816246223636 11.915089463815095 13.307036895537747 1.5368600655347098 22.973426694748923 3.5983464904129505 0.23803451284766097 6.1818715133704245 50.386443032766692 63.421839860500768 1.8978560511022795 5.6768577243201435 0.45744616771116753 1.0820821379311381 0.43275210191495617 0.47075281757861276 84.381734144873917 53.600377552211285 950.06407808628865
leaf_count=2216 39 19 359 1964 7406 3297 11 14 822 484 213 15 3382 29 3 459 1597 14391 123 1000 57 38 45 80 19504 8176 225657
internal_value=0 0.011496 0.0232089 0.0318984 0.0178497 -0.0667092 -0.0166195 -0.0822285 0.075405 0.0260339 0.0494026 -0.067445 -0.0928221 0.0714344 -0.0742861 -0.0661504 -0.0952217 -0.0691781 -0.0595728 -0.0151962 -0.0648349 -0.0348385 -0.0775044 -0.0698353 -0.0661829 -0.072625 -0.0701582
internal_weight=0 712.779 633.598 578.177 437.05 1170.86 55.0008 79.1817 141.127 31.6159 25.2221 55.4203 74.0749 5.10676 23.3849 6.3938 73.3599 1115.86 71.454 7.57471 63.8793 1.50841 23.1469 1044.4 84.8525 53.8835 959.55
internal_count=291400 23860 18761 10551 9370 267540 4512 5099 1181 1167 697 8210 5018 81 3345 470 4979 263028 15571 1123 14448 52 3342 247457 19584 8195 227873
is_linear=0
shrinkage=0.0699999


Tree=13
num_leaves=31
num_cat=0
split_feature=5 28 31 41 28 22 9 5 1 9 28 28 22 5 33 30 5 5 13 13 29 6 5 16 17 31 13 15 31 0
split_gain=520.489 143.798 96.6518 70.9618 80.785 30.0959 29.9698 25.2033 23.9881 22.8741 12.6231 44.6971 8.33038 7.26655 4.42238 4.31806 1.55858 1.51944 3.38205 8.84102 2.08518 1.03664 1.07893 0.720765 0.627836 0.50031 0.268219 2.00733 0.123141 0.108866
threshold=44.819729815366941 13.062500000000002 42.812500000000007 -0.99784660193569996 65.062500000000014 1.0000000180025095e-35 42.887568392957611 42.103799889137896 2912.5000000000005 51.134465473147507 13.062500000000002 14.062500000000002 1.0000000180025095e-35 47.902592051513295 1.0000000180025095e-35 1.0625000000000002 47.902592051513295 43.641099638429608 53.882148074277204 53.994068017447908 289.06250000000006 176.87772365156204 41.529432822099643 81.960621406750008 37.825139324675654 111.93750000000001 53.528265046448958 408.05552431519857 1.0000000180025095e-35 1.5000000000000002
decision_type=2 2 2 2 2 2 2 2 2 2 2 2 2 2 2 2 2 2 2 2 2 2 2 2 2 2 2 2 2 2
left_child=6 8 5 9 -5 28 17 21 12 -4 15 -12 16 -7 23 -9 -2 26 20 -20 -19 24 -23 -10 -8 -16 29 -28 -3 -1
right_child=1 2 3 4 -6 13 7 10 14 -11 11 -13 -14 -15 25 -17 -18 18 19 -21 -22 22 -24 -25 -26 -27 27 -29 -30 -31
leaf_value=-0.062429427091263735 -0.077430379205145214 -0.11193935430641415 -0.20976825191634985 0.052095111649252818 -0.007146853467783044 0.31094556861432104 -0.07032998064348242 0.19931243237587781 0.019004444459860655 0.084574786489250195 0.33969182020069577 0.014119977909450528 0.16117372539113134 0.0729131426589925 0.083289045662473526 -0.097072208543506358 -0.1000715433805697 -0.065585054487538388 0.3284645450841811 -0.03141424002591281 0.086146007422784027 -0.070364627769037291 0.063113643369591174 -0.079753055710945972 -0.096174944376469451 0.13574334502187951 -0.066742468235432229 0.078287726448633341 -0.070588528246635945 -0.070204820960908881
leaf_weight=8.9122580760158581 21.527618632186204 0.35491734044626255 7.7203147816471738 386.77684145234525 159.21932274708524 0.73819553758948941 12.372579730115836 0.25398049503564735 0.66154946852475294 1.5541135170496998 2.2419945388101068 26.357749282382429 0.63708994118496676 4.2259150147438049 1.7805741284973922 4.6639164807274938 48.375898243975826 59.45981207373552 0.35096759349107642 7.1250485982745886 0.44714016886427899 0.69355481024831422 0.51862802798859775 0.80003951862454414 7.336663326015695 1.7833831179887054 78.997129862895235 0.47040882101282377 61.543726975563914 886.14645354449749
leaf_count=2216 3387 30 137 5790 2690 30 2753 4 19 12 32 983 34 111 29 240 1597 14368 65 1058 80 141 25 22 334 11 19519 65 9961 225657
internal_value=0 0.0109084 0.0219838 0.031558 0.0348194 -0.057526 -0.066433 -0.015801 -0.0802755 -0.160445 0.0218286 0.0396422 -0.0908025 0.10831 0.0674855 -0.0817657 -0.0930989 -0.0690785 -0.0589126 -0.0145194 -0.0644525 -0.0760864 -0.0132564 -0.0350531 -0.0799506 0.109537 -0.0697814 -0.065884 -0.0708256 -0.0701274
internal_weight=0 697.7 622.133 555.271 545.996 66.8628 1096.35 54.4391 75.5662 9.27443 33.5176 28.5997 70.5406 4.96411 5.02555 4.9179 69.9035 1041.91 67.383 7.47602 59.907 20.9214 1.21218 1.46159 19.7092 3.56396 974.526 79.4675 61.8986 895.059
internal_count=291400 23860 18761 8629 8480 10132 267540 4512 5099 149 1259 1015 5018 141 81 244 4984 263028 15571 1123 14448 3253 166 41 3087 40 247457 19584 9991 227873
is_linear=0
shrinkage=0.0699999


Tree=14
num_leaves=29
num_cat=0
split_feature=5 28 35 30 5 9 5 1 35 17 1 31 28 0 22 5 13 40 37 15 5 6 1 17 9 1 31 5
split_gain=490.17 129.663 88.5401 63.1174 71.8237 29.9325 23.0726 21.9347 11.5507 18.6371 9.41306 7.84075 4.92485 4.00149 2.9235 1.6133 4.3092 8.23416 1.79659 1.31045 1.18033 0.977957 1.02203 0.483664 0.272834 8.22133 0.116449 0.105338
threshold=44.819729815366941 13.062500000000002 13.000000000000002 13.062500000000002 47.902592051513295 42.887568392957611 42.103799889137896 2912.5000000000005 13.000000000000002 37.825139324675654 2912.5000000000005 1.0000000180025095e-35 1.0000000180025095e-35 81.500000000000014 1.0000000180025095e-35 43.11808082752021 53.704322082912903 0.52066236470583471 0.85355339059338264 323.55590223859156 47.902592051513295 176.87772365156204 2408.5000000000005 37.825139324675654 42.587907395381229 31.500000000000004 1.0000000180025095e-35 42.255707699677608
decision_type=2 2 2 2 2 2 2 2 2 2 2 2 2 2 2 2 2 2 2 2 2 2 2 2 2 2 2 2
left_child=5 7 10 14 -5 15 21 11 12 -10 26 -2 -8 19 -4 24 18 -18 -17 -9 -13 23 -23 -7 27 -26 -3 -1
right_child=1 2 3 4 -6 6 8 13 9 -11 -12 20 -14 -15 -16 16 17 -19 -20 -21 -22 22 -24 -25 25 -27 -28 -29
leaf_value=-0.070265732834358621 0.17056842852813356 -0.11830022339285498 -0.087033171805586798 0.073762812872973357 0.017386515352654397 -0.070307574978826198 0.28144164188952281 0.069250742972429641 0.097658439874794403 -0.017945147218968147 0.10064847175029051 -0.077051631031331544 -0.076517902073782146 0.10455142203137037 0.072382206993026499 -0.069379689969684868 -0.060979815991883915 0.069542985855429063 -0.039696702694787783 -0.076493273728490629 -0.097337565798676653 -0.070340212962322735 0.062091133687775892 -0.093607795297779753 0.52521514428775051 -0.070310505277982036 -0.072331490033711407 -0.067570693841084814
leaf_weight=790.29086284572259 0.56552353734150429 0.27150874625658517 23.029728432651613 156.28651668154635 379.88442523567937 11.539664241252472 0.1943424716591825 0.42827202845364709 13.657761156558992 13.675510437460614 1.5860655847936858 20.174853136064485 6.0876562895718962 3.4855791130103171 0.57783048879355092 78.731452697189525 7.3467109007760865 3.4949888456612825 11.443722025956957 1.0276931370608506 46.326676280819811 0.65887434501200803 0.50394819118082523 7.0215290533378711 0.11748637165874187 3.4241116077173501 49.410688275238499 78.085369735956192
leaf_count=215327 39 19 2209 4270 4053 2753 2 11 531 221 15 3382 505 29 19 20776 1369 630 2904 41 1597 143 23 334 15 807 8176 21200
internal_value=0 0.0103537 0.0208234 0.0288873 0.0338194 -0.066175 -0.015118 -0.0784893 0.0201476 0.0398191 -0.0672235 -0.0889762 -0.0654439 0.0638401 -0.0831312 -0.0689741 -0.0605997 -0.0189038 -0.0656128 -0.0336227 -0.0911833 -0.0752205 -0.0129466 -0.0791218 -0.0699443 -0.050555 -0.0725827 -0.0700234
internal_weight=0 683.055 611.047 559.779 536.171 1026.27 53.3393 72.0086 33.6153 27.3333 51.2683 67.0671 6.282 4.94154 23.6076 972.935 101.017 10.8417 90.1752 1.45597 66.5015 19.724 1.16282 18.5612 871.918 3.5416 49.6822 868.376
internal_count=291400 23860 18761 10551 8323 267540 4512 5099 1259 752 8210 5018 507 81 2228 263028 25679 1999 23680 52 4979 3253 166 3087 237349 822 8195 236527
is_linear=0
shrinkage=0.0699999


Tree=15
num_leaves=29
num_cat=0
split_feature=9 28 28 28 41 28 5 37 36 5 1 29 1 0 5 22 13 28 5 37 31 13 12 5 31 15 31 5
split_gain=463.315 105.92 75.0117 149.72 99.0254 70.529 47.1855 83.6194 30.6588 26.0374 25.935 20.3802 41.3799 18.1293 13.3831 7.9709 6.74101 5.86396 4.27162 9.2714 16.0715 7.63182 2.51771 1.91192 0.799084 0.283595 13.1215 0.127696
threshold=42.034942635344088 13.062500000000002 15.062500000000002 28.187500000000004 0.96517929112935064 65.812500000000014 46.10876551319182 1.5532049602816996e-13 -0.70710678118632997 47.902592051513295 2912.5000000000005 221.31250000000003 235.50000000000003 19.500000000000004 47.902592051513295 1.0000000180025095e-35 53.882148074277204 14.562500000000002 43.706775393019406 0.70710678118657588 42.812500000000007 60.418067951263112 118.63990075876401 47.902592051513295 48.687500000000007 408.05552431519857 242.56250000000003 42.255707699677608
decision_type=2 2 2 2 2 2 2 2 2 2 2 2 2 2 2 2 2 2 2 2 2 2 2 2 2 2 2 2
left_child=6 10 11 4 -4 -5 18 14 23 -10 15 13 -13 -3 16 24 -8 -16 25 21 -21 -20 -12 -9 -2 27 -27 -1
right_child=1 2 3 5 -6 -7 7 8 9 -11 22 12 -14 -15 17 -17 -18 -19 19 20 -22 -23 -24 -25 -26 26 -28 -29
leaf_value=-0.070240690760756896 -0.070499284109980478 0.017798069324187215 -0.14938518093569497 0.051117752263673689 0.098976285095779409 -0.010485125463668567 -0.065960724807456919 -0.070800808400690834 0.15078547871880138 0.029703987999306018 0.15119731105553622 -0.34528685093731437 0.056482081260495628 0.089964962211804708 -0.083110113452752113 0.20231993946482518 0.072722810395768084 -0.16111327008605572 -0.066113175522882719 -0.070398013963738959 0.053828084452483722 0.48070204832742341 0.044139867715187686 -0.14787081573960567 -0.093291155405363452 -0.070277342740504858 0.86891557480502091 -0.067665470842795741
leaf_weight=719.98736104322597 8.9929400115506706 20.638151228893548 41.795424858515617 212.55239414912648 9.6901357658207399 159.33158360305242 14.672813027165832 3.5076369786402202 11.329108281992374 37.532995002577081 1.8467250382527698 1.7120859026908863 4.7165800239890814 98.296847123652697 7.2425429123686653 0.46213031001388927 1.9450566349551071 13.571422341512514 80.677925304276869 10.961399832740428 9.5480024949647468 0.12526093330234189 2.5803951737470925 2.8658744842978194 46.573062677169219 3.3112098264973606 0.074530640617012867 108.57905014720745
leaf_count=210786 2504 201 3214 6184 260 5322 2258 475 1128 548 14 11 59 1130 243 32 223 664 17987 2458 1599 3 38 196 1516 897 20 31430
internal_value=0 0.0136307 0.023319 0.00923559 -0.102641 0.0247243 -0.0634375 -0.0157965 0.0389427 0.0577778 -0.0743068 0.0708804 -0.0505172 0.0774422 -0.0965714 -0.0871946 -0.0497284 -0.133971 -0.068168 -0.0545971 -0.0125655 -0.0652655 0.0887977 -0.105456 -0.0896025 -0.0698206 -0.0496028 -0.0699032
internal_weight=0 609.188 548.733 423.37 51.4856 371.884 1025.93 92.6674 55.2356 48.8621 60.4553 125.364 6.42867 118.935 37.4318 56.0281 16.6179 20.814 933.265 101.313 20.5094 80.8032 4.42712 6.37351 55.566 831.952 3.38574 828.566
internal_count=291400 20485 16381 14980 3474 11506 270915 5735 2347 1676 4104 1401 70 1331 3388 4052 2481 907 265180 22047 4057 17990 52 671 4020 243133 917 242216
is_linear=0
shrinkage=0.0699999


Tree=16
num_leaves=30
num_cat=0
split_feature=5 28 31 29 5 9 22 5 1 31 17 31 5 31 9 5 13 31 19 6 17 5 17 1 9 9 12 31 5
split_gain=437.02 109.224 83.6146 67.2886 70.7858 28.9452 27.0195 21.3343 18.3069 10.4417 22.5742 11.5873 6.98976 6.92377 4.3097 1.38969 4.56376 12.3882 1.85208 0.889126 0.939399 0.773937 0.34587 0.307703 11.0453 0.173622 0.0935054 0.0871133 0.0687342
threshold=44.710303257598859 13.062500000000002 42.812500000000007 13.062500000000002 47.902592051513295 42.887568392957611 1.0000000180025095e-35 42.103799889137896 2912.5000000000005 43.312500000000007 37.825139324675654 1.0000000180025095e-35 47.902592051513295 1.0000000180025095e-35 42.587907395381229 42.916636913703307 53.704322082912903 58.312500000000007 1.0000000180025095e-35 176.87772365156204 37.825139324675654 47.902592051513295 37.825139324675654 19.500000000000004 42.587907395381229 43.462144569481019 115.50965563530751 1.0000000180025095e-35 42.255707699677608
decision_type=2 2 2 2 2 2 2 2 2 2 2 2 2 2 2 2 2 2 2 2 2 2 2 2 2 2 2 2 2
left_child=5 8 6 25 -5 15 27 19 13 11 -11 -9 -8 -2 26 23 18 -18 -17 22 -21 -15 -7 24 -1 -4 -10 -3 -25
right_child=1 2 3 4 -6 7 12 9 14 10 -12 -13 -14 21 -16 16 17 -19 -20 20 -22 -23 -24 28 -26 -27 -28 -29 -30
leaf_value=-0.07024153247137202 0.1887558791294571 -0.10641441390307692 -0.071084959544664331 0.073675676136328527 0.016378732059189407 -0.070287563013647691 0.32067681190191433 0.17578435306069354 -0.02659560205360733 0.12236370694731084 -0.018769245932214927 -0.070978543018289722 0.072553732794430906 -0.076229337779864612 0.09269276104925607 -0.067082821850553809 -0.070431420017781951 0.090787123780592227 0.066597381501613317 -0.070319107644078935 0.061154885316282201 -0.093068706154845346 -0.090779282779937145 -0.070232704830880455 0.72584013531856595 -0.082074579534075459 -0.075488684449641824 -0.070573718485300918 -0.067642707141723754
leaf_weight=3.0833480875007804 0.44689180748537083 0.33421652618562703 12.616176343988629 149.49607632867992 360.24497016542591 10.576457076705998 0.6542988910805424 1.0551939518190945 0.24628065666183718 10.371646416140722 11.95365407806821 8.0146479583345336 3.7149738688021898 19.522721183486283 3.6794646792113781 88.799579337937757 7.1507607111707312 3.4681946861092001 0.51075265393592317 0.60723264329135307 0.47429330134764314 42.459659579326399 6.5265391331631681 688.1801388063468 0.087832524441182502 15.949824582086874 0.8642264730297029 57.858647485496476 54.158775839256123
leaf_count=923 39 30 1606 3382 3232 2753 31 13 5 265 122 808 111 3688 26 26678 1555 673 91 145 21 1597 334 215194 6 733 51 10485 16803
internal_value=0 0.00895529 0.0184219 0.027324 0.0331827 -0.0658633 -0.0581744 -0.0138805 -0.0756665 0.021066 0.0467968 -0.0422699 0.10971 -0.0857853 0.0562155 -0.0689118 -0.0611601 -0.0177768 -0.0663183 -0.0742149 -0.0126624 -0.0877648 -0.0781072 -0.0699508 -0.0481924 -0.077221 -0.0646455 -0.0707796 -0.0700437
internal_weight=0 668.088 600.869 538.307 509.741 895.019 62.5621 49.5797 67.2192 31.3951 22.3253 9.06984 4.36927 62.4293 4.78997 845.439 99.9293 10.619 89.3103 18.1845 1.08153 61.9824 17.103 745.51 3.17118 28.566 1.11051 58.1929 742.339
internal_count=291400 25016 19610 8953 6614 266384 10657 4461 5406 1208 387 821 142 5324 82 261923 28997 2228 26769 3253 166 5285 3087 232926 929 2339 56 10515 231997
is_linear=0
shrinkage=0.0699999


Tree=17
num_leaves=30
num_cat=0
split_feature=5 28 35 41 28 9 5 9 1 35 15 1 39 22 33 5 13 31 19 6 5 16 5 31 1 9 28 31 5
split_gain=411.555 98.6957 78.0436 60.8556 64.4307 28.9926 19.4916 17.7185 16.8431 10.3116 10.564 8.41895 7.72077 6.58386 3.51392 1.47281 4.56406 10.7146 1.71967 0.839496 0.856651 0.651559 0.593052 0.400252 0.316953 5.31303 0.286091 0.0791439 0.0734462
threshold=44.710303257598859 13.062500000000002 13.000000000000002 -0.99784660193569996 65.062500000000014 42.887568392957611 42.103799889137896 51.134465473147507 2912.5000000000005 17.500000000000004 373.50458781858106 2912.5000000000005 -0.94388333030836813 1.0000000180025095e-35 1.0000000180025095e-35 42.916636913703307 53.704322082912903 58.312500000000007 1.0000000180025095e-35 176.87772365156204 41.529432822099643 81.659874150177117 47.902592051513295 111.93750000000001 19.500000000000004 42.587907395381229 1.0000000180025095e-35 1.0000000180025095e-35 42.255707699677608
decision_type=2 2 2 2 2 2 2 2 2 2 2 2 2 2 2 2 2 2 2 2 2 2 2 2 2 2 2 2 2
left_child=5 8 11 7 -5 15 19 -4 13 12 -11 27 -8 22 21 24 18 -18 -17 26 -21 -10 -2 -16 25 -1 -7 -3 -26
right_child=1 2 3 4 -6 6 9 -9 14 10 -12 -13 -14 -15 23 16 17 -19 -20 20 -22 -23 -24 -25 28 -27 -28 -29 -30
leaf_value=-0.070225146468478092 -0.07589914321652988 -0.11138854289124094 -0.18707504388584037 0.044121518435210061 -0.0087723482592356478 0.041681948704465337 0.13899377633127116 0.081814412531789629 0.015987558119502743 0.030771220462133798 0.18337050062132312 0.092017712608980076 -0.021775622825746788 0.1979707143695163 0.068749773198604855 -0.066850196219643887 -0.070402264694517491 0.076975430221886659 0.057850072722050304 -0.070309572054552058 0.057539789627662999 -0.07933716781228467 -0.091090633550647587 0.11781981986959583 -0.070217153880973215 0.32648130373112499 -0.078110382533781081 -0.072534311093360976 -0.067448078201106196
leaf_weight=2.8755419182125475 18.289569247281179 0.25829510058974747 8.3455689125694299 372.55861422652379 161.87310964055359 0.098288452252751735 1.5837919672485501 1.4026309293694801 0.61991235893219598 7.7636778103187662 3.114688899833709 1.5700805131345976 19.30149913369678 0.40178719209507008 1.611257642041892 83.074292201781645 6.6699890706222487 3.7910258222837001 0.54544060188345511 0.56674977997317799 0.46957724122330546 0.81099644140340388 40.41882009775145 1.6471720328554509 641.79204622190446 0.17552141472697247 15.992501393076962 46.994482234818861 50.637967549497262
leaf_count=923 3692 19 214 7435 3310 6 85 13 17 222 67 15 834 35 29 26678 1555 673 91 141 25 24 1597 12 215194 6 3081 8604 16803
internal_value=0 0.00843231 0.0173327 0.0249391 0.0281006 -0.0655644 -0.0132548 -0.148386 -0.074295 0.0192004 0.0744634 -0.0674481 -0.00958401 -0.0844253 0.0534002 -0.0688035 -0.0605835 -0.0169932 -0.0660368 -0.0734456 -0.0123789 -0.0380397 -0.086358 0.0935552 -0.0699155 -0.0474034 -0.0773786 -0.0727467 -0.0700146
internal_weight=0 656.802 593.003 544.18 534.432 838.453 48.8908 9.7482 63.7995 31.7637 10.8784 48.8229 20.8853 59.1102 4.68934 789.562 94.0807 10.461 83.6197 17.1271 1.03633 1.43091 58.7084 3.25843 695.481 3.05106 16.0908 47.2528 692.43
internal_count=291400 25016 19610 10972 10745 266384 4461 227 5406 1208 289 8638 919 5324 82 261923 28997 2228 26769 3253 166 41 5289 41 232926 929 3087 8623 231997
is_linear=0
shrinkage=0.0699999


Tree=18
num_leaves=29
num_cat=0
split_feature=5 28 31 29 5 9 22 5 1 31 30 31 31 5 0 22 5 13 31 29 0 39 5 1 9 9 5 31
split_gain=387.741 89.376 72.9955 58.3909 60.9207 28.8385 24.6772 17.9344 15.5219 10.1824 17.8617 7.33752 6.11287 5.61487 3.2228 3.02847 1.55982 4.55863 9.39041 1.73308 1.0775 0.801073 0.455384 0.327814 3.79161 0.13738 0.0784748 0.0543898
threshold=44.710303257598859 13.062500000000002 42.812500000000007 13.062500000000002 47.902592051513295 42.887568392957611 1.0000000180025095e-35 42.292916592878143 2912.5000000000005 43.312500000000007 13.312500000000002 1.0000000180025095e-35 1.0000000180025095e-35 47.902592051513295 81.500000000000014 1.0000000180025095e-35 42.916636913703307 53.704322082912903 58.312500000000007 289.06250000000006 17.500000000000004 0.99371220989324438 47.902592051513295 19.500000000000004 42.587907395381229 43.462144569481019 42.255707699677608 1.0000000180025095e-35
decision_type=2 2 2 2 2 2 2 2 2 2 2 2 2 2 2 2 2 2 2 2 2 2 2 2 2 2 2 2
left_child=5 8 6 25 -5 16 27 15 12 11 -11 -9 -2 -8 20 21 23 19 -19 -18 -10 -7 -14 24 -1 -4 -25 -3
right_child=1 2 3 4 -6 7 13 9 14 10 -12 -13 22 -15 -16 -17 17 18 -20 -21 -22 -23 -24 26 -26 -27 -28 -29
leaf_value=-0.070209871836567031 0.19843582826370046 -0.099820834019888699 -0.071081724961959025 0.067261901547620531 0.013937477875332439 -0.076018616621687449 0.29609239502287266 0.14102958973030749 0.056869788865444137 -0.10769017526185329 0.069276777031047523 -0.07095994472615734 -0.075587233225756917 0.072321375487073569 0.090406761575701183 0.14956878240416083 -0.066607697919563211 -0.07037507910263481 0.066198813909254972 0.059139154191497005 -0.076280719762287494 0.029778320586524236 -0.089313021169450987 -0.070202638315985541 0.22167801269175894 -0.081235179737231211 -0.067242450992252803 -0.070556231720384235
leaf_weight=2.6817004089243706 0.37515242816880245 0.31300878361798723 11.696105231065305 149.89482722780667 350.35410475055687 16.556457821861848 0.65599477337673207 0.89909623074345457 0.42452380037866422 3.2682068354915854 19.289173270110041 7.2621966835577041 17.124463664833456 3.382882833480835 3.1520664603449404 0.30280709639191528 77.770585403544828 6.2213745580520463 4.0876770624890924 0.54078859579749305 0.99762694886885583 0.35827652201987703 38.409695428679697 598.52232546638697 0.23736662417650212 14.782160605071111 47.353899297071621 53.592603460885584
leaf_count=923 39 30 1606 3382 3232 3297 31 12 13 87 274 743 3688 111 29 3 26626 1555 673 143 40 45 1597 215194 6 733 16803 10485
internal_value=0 0.00797015 0.01635 0.0245536 0.0299156 -0.06527 -0.0582221 -0.0126591 -0.0730351 0.0193958 0.0436371 -0.0476059 -0.0831781 0.108666 0.0509401 -0.0698497 -0.06869 -0.059979 -0.0162217 -0.0657393 -0.0365342 -0.0737777 -0.0850805 -0.0698798 -0.0464747 -0.0767501 -0.0699856 -0.0707262
internal_weight=0 645.155 584.672 526.727 500.249 785.352 57.9445 47.9362 60.4835 30.7187 22.5574 8.16129 55.9093 4.03888 4.57422 17.2175 737.416 88.6204 10.3091 78.3114 1.42215 16.9147 55.5342 648.795 2.91907 26.4783 645.876 53.9056
internal_count=291400 25016 19610 8953 6614 266384 10657 4461 5406 1116 361 755 5324 142 82 3345 261923 28997 2228 26769 53 3342 5285 232926 929 2339 231997 10515
is_linear=0
shrinkage=0.0699999


Tree=19
num_leaves=29
num_cat=0
split_feature=5 28 35 30 30 9 5 1 28 28 1 22 13 29 22 5 13 8 19 6 1 5 1 6 28 5 9 8
split_gain=365.438 80.9409 68.0222 55.8935 68.6904 28.2921 16.464 14.3142 8.78238 30.9613 7.74307 5.75842 3.72673 2.33593 2.17592 1.65088 4.54698 8.50668 1.71368 0.832789 0.812942 0.351345 0.338799 3.68094 0.294684 0.0838381 0.0619814 0.0591269
threshold=44.710303257598859 13.062500000000002 13.000000000000002 13.062500000000002 15.062500000000002 42.887568392957611 42.103799889137896 2912.5000000000005 13.062500000000002 14.812500000000002 2912.5000000000005 1.0000000180025095e-35 55.963379069768116 1.0000000180025095e-35 1.0000000180025095e-35 42.916636913703307 53.704322082912903 95.399149496449738 1.0000000180025095e-35 176.87772365156204 2408.5000000000005 47.902592051513295 19.500000000000004 166.60801205423274 1.0000000180025095e-35 42.255707699677608 43.462144569481019 99.843488466979309
decision_type=2 2 2 2 2 2 2 2 2 2 2 2 2 2 2 2 2 2 2 2 2 2 2 2 2 2 2 2
left_child=5 7 10 14 -5 15 19 11 13 -10 26 21 27 -8 -4 22 18 -18 -17 24 -21 -2 23 -1 -7 -24 -3 -9
right_child=1 2 3 4 -6 6 8 12 9 -11 -12 -13 -14 -15 -16 16 17 -19 -20 20 -22 -23 25 -25 -26 -27 -28 -29
leaf_value=0.21326425524500944 -0.075278163471786383 -0.070394313450668836 -0.089539431542591807 0.06985827619353932 0.011663373017827374 0.043479899395395892 0.078889242117327743 -0.038713531526765523 0.19166061508020185 -0.0034903056083505249 0.085319937542541663 0.20120203951800966 0.084665377560731239 -0.093957584243756331 0.071792103635497526 -0.06634820612516483 0.62477306948547817 -0.021871847140043834 0.05851012897755406 -0.070269460391770094 0.059215075913278528 -0.087710247206600978 -0.070189090084011418 -0.070485208298358373 -0.077292411121936133 -0.067025042484507066 -0.07572460720958174 -0.0756758984361839
leaf_weight=0.24563829367980305 16.041781617561355 24.628502016188577 21.735616612015296 135.19259884720668 375.232240003068 0.099696035729718413 0.4255522564053561 0.29239673726260551 4.8473753188736763 22.354677939321846 1.574255222454666 0.3494193006772538 3.3835766916163266 3.8421154690440744 0.41750559769570728 72.817812430672348 0.10068080364726384 10.062986146425827 0.54264104482717712 0.50080060097389001 0.45203382195904851 36.444979481108021 558.16248222487047 2.5451805230695754 14.091650500777176 44.29073154181242 18.886773572245147 0.77183019602671266
leaf_count=69 3692 6148 2329 1175 7449 6 3 21 60 920 15 35 25 225 19 26678 22 2206 91 143 23 1597 215194 860 3081 16803 2475 36
internal_value=0 0.00749324 0.0153635 0.0223527 0.027077 -0.0649988 -0.0122209 -0.0718726 0.0166383 0.0312854 -0.0671904 -0.082025 0.0487304 -0.0767221 -0.0864989 -0.0685707 -0.0593454 -0.0154662 -0.0654246 -0.0721905 -0.00884075 -0.0839106 -0.0698438 -0.0455106 -0.076444 -0.0699565 -0.0727078 -0.0655205
internal_weight=0 634.951 577.667 532.578 510.425 735.382 46.6139 57.284 31.4697 27.2021 45.0895 52.8362 4.4478 4.26767 22.1531 688.768 83.5241 10.1637 73.3605 15.1442 0.952834 52.4868 605.244 2.79082 14.1913 602.453 43.5153 1.06423
internal_count=291400 25016 19610 10972 8624 266384 4461 5406 1208 980 8638 5324 82 228 2348 261923 28997 2228 26769 3253 166 5289 232926 929 3087 231997 8623 57
is_linear=0
shrinkage=0.0699999


Tree=20
num_leaves=31
num_cat=0
split_feature=5 28 28 28 41 30 9 15 0 1 5 1 35 13 14 31 33 5 13 31 29 6 17 16 1 35 31 28 5 5
split_gain=343.856 73.5169 64.4255 128.291 83.747 68.8912 27.913 19.4579 40.1641 17.995 15.1679 13.2244 8.81244 8.95615 7.888 5.24537 2.88252 1.74659 4.52847 8.42462 1.72307 0.791208 0.773531 0.593175 0.352203 3.45619 0.330693 0.276403 0.271347 0.0895559
threshold=44.710303257598859 13.062500000000002 15.062500000000002 27.812500000000004 0.96517929112935064 104.43750000000001 42.887568392957611 374.1436575094861 51.500000000000007 247.50000000000003 42.103799889137896 2912.5000000000005 17.500000000000004 54.478854341163313 120.66960490281552 1.0000000180025095e-35 1.0000000180025095e-35 42.916636913703307 53.704322082912903 58.312500000000007 289.06250000000006 176.87772365156204 37.825139324675654 81.659874150177117 19.500000000000004 19.500000000000004 111.93750000000001 1.0000000180025095e-35 47.902592051513295 42.255707699677608
decision_type=2 2 2 2 2 2 2 2 2 2 2 2 2 2 2 2 2 2 2 2 2 2 2 2 2 2 2 2 2 2
left_child=6 11 7 4 -4 -5 17 9 -9 -3 21 15 14 -14 -12 -2 23 24 20 -20 -19 27 -23 -13 25 -1 -18 -8 -17 -26
right_child=1 2 3 5 -6 -7 10 8 -10 -11 12 16 13 -15 -16 28 26 18 19 -21 -22 22 -24 -25 29 -27 -28 -29 -30 -31
leaf_value=-0.070452792750960141 0.19217092980938977 -0.084521710827972635 -0.14732979329460186 0.028239492932404422 0.08275397794814697 -0.051867979452428728 0.041194901111815681 -0.097718642496310973 0.08405021402294191 0.07845655049708454 0.3114752749013287 0.014301921586023562 0.30047289545685157 0.049203014783840572 -0.017426648440898182 -0.074990711643485058 0.061558517199467207 -0.066077469096212149 -0.070353130602712394 0.059237235670852484 0.059581962381522337 -0.070255863698866647 0.058657359060313587 -0.078821883128711384 -0.070176441834512104 0.19916461672607405 0.10825256233283367 -0.076843277338248056 -0.086262172162712536 -0.066795020242330347
leaf_weight=2.4171407963149245 0.34216897794976731 3.4381760717369607 40.564441834983882 331.20056492270669 9.5828367965295893 62.535487827437464 0.097926273476329651 10.777736657648349 13.315784168255048 96.262297917739488 0.36377682862803951 0.59820612263865658 0.74634962715208431 10.118723383406175 20.057032406330109 15.016593409003688 1.4714120125863703 68.203332237666473 5.7291582853067649 4.3052866701036692 0.53892137855291267 0.47726414026692587 0.43682511593215168 0.76222052751109004 520.51776858349331 0.25781671772710968 1.5016343377064911 13.213066743919624 34.531431167211849 41.433683779323474
leaf_count=860 39 53 3609 12295 269 1824 6 130 170 1260 14 17 30 259 905 3688 29 26626 1555 673 143 145 21 24 215194 69 12 3081 1597 16803
internal_value=0 0.00710134 0.0145397 0.00208616 -0.103362 0.0155164 -0.0646968 0.0591936 0.00273969 0.0728362 -0.011718 -0.0707716 0.0155313 0.0664634 -0.0115676 -0.0809599 0.0465238 -0.0684442 -0.0586801 -0.0147523 -0.0650923 -0.0716487 -0.00865079 -0.0378735 -0.0698065 -0.0444666 0.0851429 -0.0759749 -0.0828461 -0.0699271
internal_weight=0 621.901 567.677 443.883 50.1473 393.736 688.914 123.794 24.0935 99.7005 45.511 54.2237 31.2859 10.8651 20.4208 49.8902 4.33347 643.403 78.7767 10.0344 68.7423 14.2251 0.914089 1.36043 564.626 2.67496 2.97305 13.311 49.548 561.951
internal_count=291400 25016 19610 17997 3878 14119 266384 1613 300 1313 4461 5406 1208 289 919 5324 82 261923 28997 2228 26769 3253 166 41 232926 929 41 3087 5285 231997
is_linear=0
shrinkage=0.0699999


Tree=21
num_leaves=28
num_cat=0
split_feature=9 28 30 40 0 5 37 31 5 1 5 13 30 30 22 22 5 37 1 13 8 17 15 39 31 5 1
split_gain=324.121 61.3539 58.5477 56.7555 59.3791 43.3254 72.893 19.9913 24.4316 16.3103 14.4853 15.3204 9.5864 9.53334 5.83804 5.3826 3.79692 9.1585 16.2133 4.36405 2.33449 1.60781 0.411795 10.8357 0.215445 0.1869 0.00364176
threshold=42.034942635344088 13.062500000000002 13.062500000000002 0.99986920147353153 83.500000000000014 45.681004648843405 0.70710678118654369 42.812500000000007 47.902592051513295 2912.5000000000005 47.902592051513295 52.819164487896266 14.062500000000002 13.562500000000002 1.0000000180025095e-35 1.0000000180025095e-35 43.706775393019406 0.70710678118657588 1211.5000000000002 60.418067951263112 100.23124656336788 37.825139324675654 408.05552431519857 0.99371220989324305 48.687500000000007 42.255707699677608 2912.5000000000005
decision_type=2 2 2 2 2 2 2 2 2 2 2 2 2 2 2 2 2 2 2 2 2 2 2 2 2 2 2
left_child=5 9 15 4 -4 16 10 26 -9 14 11 -7 -5 -12 24 21 22 19 -19 -18 -11 -3 25 -24 -2 -1 -8
right_child=1 2 3 12 -6 6 7 8 -10 20 13 -13 -14 -15 -16 -17 17 18 -20 -21 -22 -23 23 -25 -26 -27 -28
leaf_value=-0.070157951805156327 -0.070470684224821764 -0.073111279590365952 0.039184436421191605 -0.39289340864271322 -0.021129140678252983 -0.06741115131804748 -0.070581463025150268 0.15253708445337039 0.030155713811268511 0.11833720427538709 -0.00175812002358063 0.069894398442213415 -0.16128156631766033 -0.13425716517388836 0.24084811063805109 0.12317342520090122 -0.066493508798325884 0.10122315965216717 -0.055788122233118263 0.26001744856410058 0.011201815860338521 -0.10843718558500741 -0.070196316720174262 0.71889835030266758 -0.084820355049505122 -0.066368451149530452 -0.076946811649290806
leaf_weight=473.67473696544766 6.0152073178905985 14.164032230852177 366.41144711960806 1.1669191271066655 102.3178640967235 20.335407701088119 5.8660755750606759 10.859005754580719 30.286360050493386 2.1042582055088128 3.0609969197539639 4.951419639051891 3.5080873994156718 20.352564621251076 0.27510934555902977 0.60045337956398626 53.497169328504242 4.8868791444692752 9.462568760616703 0.20133558660745521 1.8932722390163688 11.389646564144639 2.2387009884696449 0.088646249845623859 34.712849917064887 73.695445669582114 0.47616436146199692
leaf_count=210786 2504 2772 10386 8 2278 3683 1126 700 348 24 275 697 69 819 32 21 16413 1217 2481 3 28 847 889 28 1516 31430 20
internal_value=0 0.0109135 0.0179655 0.0235982 0.0260187 -0.0607875 -0.0170872 0.0446229 0.0624544 -0.0673717 -0.0772605 -0.0405253 -0.219094 -0.116935 -0.0805302 -0.0839887 -0.0675919 -0.0519942 -0.00231602 -0.0652693 0.0675968 -0.0888566 -0.0695228 -0.0401405 -0.082701 -0.0696478 -0.0710594
internal_weight=0 544.559 499.558 473.404 468.729 713.933 96.188 47.4876 41.1454 45.0007 48.7004 25.2868 4.67501 23.4136 41.0032 26.1541 617.745 68.048 14.3494 53.6985 3.99753 25.5537 549.698 2.32735 40.7281 547.37 6.34224
internal_count=291400 20485 16381 12741 12664 270915 7668 2194 1048 4104 5474 4380 77 1094 4052 3640 263247 20114 3698 16416 52 3619 243133 917 4020 242216 1146
is_linear=0
shrinkage=0.0699999


Tree=22
num_leaves=29
num_cat=0
split_feature=5 28 35 28 28 15 1 9 5 31 17 22 1 22 13 5 13 31 0 6 17 1 35 31 29 5 9 4
split_gain=307.058 67.2076 73.4338 55.2636 134.033 18.8203 13.8752 13.6578 11.558 8.1849 15.3127 7.4527 6.80523 4.30173 3.65838 1.35875 4.58253 12.461 2.16874 0.753723 0.709838 0.38519 2.86493 0.243465 0.199445 0.101934 0.0929812 0.0729407
threshold=44.077567602490745 13.062500000000002 13.000000000000002 15.062500000000002 27.812500000000004 374.1436575094861 2912.5000000000005 42.887568392957611 42.103799889137896 43.312500000000007 37.825139324675654 1.0000000180025095e-35 2912.5000000000005 1.0000000180025095e-35 55.963379069768116 42.916636913703307 53.704322082912903 214.81250000000003 1.5000000000000002 176.87772365156204 37.825139324675654 19.500000000000004 19.500000000000004 48.062500000000007 1.0000000180025095e-35 42.255707699677608 43.462144569481019 93.606734786769223
decision_type=2 2 2 2 2 2 2 2 2 2 2 2 2 2 2 2 2 2 2 2 2 2 2 2 2 2 2 2
left_child=7 6 12 5 -5 -4 13 15 19 11 -11 -10 26 23 27 21 18 -18 -17 24 -21 22 -1 -2 -9 -23 -3 -8
right_child=1 2 3 4 -6 -7 14 8 9 10 -12 -13 -14 -15 -16 16 17 -19 -20 20 -22 25 -24 -25 -26 -27 -28 -29
leaf_value=-0.070440423110971456 -0.070305493200156194 -0.070354408786118219 0.075619748172602502 -0.10929391918014345 0.020933849337156134 0.0063007750265554165 -0.026559948990339654 0.021513234681454722 -0.071499182457514576 0.13927770568169678 -0.023752420490446985 0.16428652311909381 0.07553929862396272 0.17099872975013308 0.086844074399755986 0.089517218816542218 -0.021399556873974209 0.47942542233491281 -0.066961456146885798 -0.070237508385785116 0.056772648375893478 -0.070154499562209927 0.16092801655936403 -0.082899385103271897 -0.076203488696187718 -0.06630242916225125 -0.076540919149171924 -0.074187019387327385
leaf_weight=2.1260834431741382 9.1677410652628151 30.135358331026509 94.29899376234971 43.274861595127732 368.39488127268851 24.095858751796186 0.19508790434338041 0.10321373073384243 6.0200846749357906 5.2444449979811889 6.1141590976621956 0.73730998183600593 1.5629792152903963 0.33506564400158723 3.3252971188630909 0.43834729050286014 5.7130712573416522 0.25426422571763385 43.779231846565381 0.43788733077235598 0.42476879269815981 453.35848294012249 0.29913798719644535 41.890176447108388 12.202519605285486 36.360660308157094 19.677037383022252 0.81918216892518103
leaf_count=860 4266 9124 1112 2716 9788 215 13 11 640 196 66 5 17 37 27 185 1552 42 19598 145 21 215194 69 3015 3076 16803 2551 56
internal_value=0 0.00458221 0.0116207 0.0193654 0.00724426 0.0615119 -0.0688482 -0.0660176 -0.0210453 0.01523 0.0515211 -0.0457722 -0.0682854 -0.0789975 0.051348 -0.0686118 -0.0576396 -5.97351e-05 -0.0654102 -0.0709498 -0.00769816 -0.0697307 -0.0419024 -0.0806381 -0.0753839 -0.0698685 -0.0727982 -0.0650263
internal_weight=0 637.173 581.44 530.065 411.67 118.395 55.7326 573.614 31.2844 18.116 11.3586 6.75739 51.3754 51.393 4.33957 542.329 50.1849 5.96734 44.2176 13.1684 0.862656 492.144 2.42522 51.0579 12.3057 489.719 49.8124 1.01427
internal_count=291400 32937 25523 13831 12504 1327 7414 258463 4160 907 262 645 11692 7318 96 254303 21377 1594 19783 3253 166 232926 929 7281 3087 231997 11675 69
is_linear=0
shrinkage=0.0699999


Tree=23
num_leaves=30
num_cat=0
split_feature=5 28 31 28 28 41 22 9 1 5 31 31 22 31 5 13 5 13 35 0 31 17 30 26 2 4 31 31 1
split_gain=289.306 61.3313 68.7991 59.2663 110.744 59.8639 21.4866 13.8904 12.8442 11.5258 7.54709 12.8545 5.2374 3.93512 3.62711 3.24426 1.47654 4.57728 9.29696 1.9657 0.195179 0.128799 0.109 4.62194 0.0783932 0.0756954 0.0585024 0.0313692 0.000209672
threshold=44.077567602490745 13.062500000000002 42.812500000000007 105.68750000000001 201.93750000000003 -0.99784660193569996 1.0000000180025095e-35 42.587907395381229 2912.5000000000005 41.529432822099643 58.312500000000007 60.187500000000007 1.0000000180025095e-35 1.0000000180025095e-35 47.902592051513295 55.963379069768116 42.916636913703307 53.704322082912903 18.500000000000004 1.5000000000000002 48.062500000000007 37.825139324675654 240.06250000000003 1.0000000180025095e-35 190.37652204421451 93.606734786769223 1.0000000180025095e-35 1.0000000180025095e-35 19.500000000000004
decision_type=2 2 2 2 2 2 2 2 2 2 2 2 2 2 2 2 2 2 2 2 2 2 2 2 2 2 2 2 2
left_child=7 8 6 5 -5 -4 27 16 13 21 12 -12 -11 -2 -8 25 22 19 -19 -18 -15 28 24 -24 -1 -10 -23 -3 -9
right_child=1 2 3 4 -6 -7 14 9 15 10 11 -13 -14 20 -16 -17 17 18 -20 -21 -22 26 23 -25 -26 -27 -28 -29 -30
leaf_value=-0.070144132742016446 0.15953181006990766 -0.092078011252073863 -0.14688935276492784 -0.097057615937213543 0.08184020299015804 0.033059377965919373 0.24858373727879879 -0.072623361068669401 -0.024915163546119355 -0.042352470522744122 0.31184354385856033 0.02965863861282287 0.14204816352786134 -0.070296802281835297 0.071929689695924504 0.082352167034711474 0.075894657128274909 -0.030262779175470204 0.24913361540238785 -0.066714313622727894 -0.081962355709351287 -0.11866599411389989 -0.070138357013739869 0.26147159355344796 -0.064505108895242635 -0.073915324257546086 -0.083227014732942556 -0.07051440635101569 -0.070190926825177649
leaf_weight=435.68277545343153 0.33875686465762456 0.33253274339949612 9.2551183627219853 51.011704189470038 25.396524523035623 426.6758780273376 0.71562673908192609 0.17749258747789909 0.19347000494599242 10.533210997004062 0.86918039876036246 8.7956259129568917 0.81297062919475216 8.5487900052685273 2.7894865581765771 3.2634826311841607 0.47917510801926155 5.2186772492714217 0.65704481024295081 40.763537323335186 39.499153980053961 0.24191975593566795 8.4566721019800717 0.21109176240861494 12.42443821148481 0.76650851406157017 4.0387165871215984 55.833175468957052 8.0028023640625161
leaf_count=221422 41 43 182 1393 495 9201 39 14 13 1178 10 330 7 4260 111 27 185 1382 183 19525 3017 1 4303 108 6293 56 303 14059 3219
internal_value=0 0.00433439 0.0109866 0.0192715 -0.0375957 0.0292389 -0.0601487 -0.0657198 -0.0679921 -0.0220532 0.00958013 0.0550362 -0.0291399 -0.0782106 0.107997 0.0490777 -0.0686204 -0.0568224 0.000980351 -0.0650574 -0.0798868 -0.0753918 -0.0698374 -0.0620624 -0.0699878 -0.06404 -0.0852298 -0.0706421 -0.0702437
internal_weight=0 624.62 572.01 512.339 76.4082 435.931 59.6708 537.365 52.6102 33.4719 21.011 9.66481 11.3462 48.3867 3.50511 4.22346 503.893 47.1184 5.87572 41.2427 48.0479 12.4609 456.775 8.66776 448.107 0.959979 4.28064 56.1657 8.18029
internal_count=291400 32937 25523 11271 1888 9383 14252 258463 7414 5062 1525 340 1185 7318 150 96 253401 21275 1565 19710 7277 3537 232126 4411 227715 69 304 14102 3233
is_linear=0
shrinkage=0.0699999


Tree=24
num_leaves=30
num_cat=0
split_feature=5 35 28 29 29 1 9 5 31 30 22 13 22 1 31 17 5 13 13 12 5 30 17 9 5 31 17 1 1
split_gain=272.749 58.152 63.1917 51.4408 60.5576 14.3384 13.891 10.7585 7.01101 11.8918 6.00166 4.27327 4.10079 3.91776 2.1465 1.93824 1.55758 4.46168 8.98981 1.96306 0.116782 1.55979 0.103144 0.0773329 0.0563234 0.0435114 0.00654158 0.000169748 0.000145318
threshold=44.077567602490745 13.000000000000002 13.062500000000002 13.062500000000002 15.062500000000002 2912.5000000000005 42.587907395381229 41.529432822099643 43.312500000000007 13.312500000000002 1.0000000180025095e-35 61.224677060079451 1.0000000180025095e-35 2912.5000000000005 1.0000000180025095e-35 26.281377894906452 42.916636913703307 53.704322082912903 53.788947343363105 109.67965706804053 42.255707699677608 240.06250000000003 37.825139324675654 43.462144569481019 47.902592051513295 1.0000000180025095e-35 39.226511289170354 19.500000000000004 2903.5000000000005
decision_type=2 2 2 2 2 2 2 2 2 2 2 2 2 2 2 2 2 2 2 2 2 2 2 2 2 2 2 2 2
left_child=6 5 12 14 -5 23 16 22 10 -10 -9 15 13 -3 -4 -7 20 19 -19 -18 26 -22 27 28 -25 -24 -1 -8 -2
right_child=1 2 3 4 -6 11 7 8 9 -11 -12 -13 -14 -15 -16 -17 17 18 -20 -21 21 -23 25 24 -26 -27 -28 -29 -30
leaf_value=-0.070128934732370488 -0.070300826986202755 -0.080963387770478387 0.065241476808984386 0.06358766893049167 0.0079541836223236233 0.084588621834977909 -0.07244190395393442 -0.069662926802468189 -0.10269771638317148 0.068650222468458463 0.13253565534283598 0.13160855621450668 0.18768381534870376 0.021775409100886465 -0.076039552550101391 -0.078364206509750192 0.076237596492191223 0.358162696023965 -0.020243544257708634 -0.066473334732155873 -0.067883417370073695 0.045631654267765089 -0.11322047083580365 -0.078479318927617309 -0.070733357708396075 -0.082247358612114393 -0.084987038806931758 -0.070177986829207867 -0.072592191516656343
leaf_weight=394.22725087706931 33.010672615841031 37.532135543879122 0.53695879178121941 131.17349164653569 356.24008320039138 0.55779019277542763 0.16589284350629707 6.3994578279089209 2.4102218471234655 11.240331219742073 0.81038714013993729 2.2071805787272751 0.29116508783772488 1.9113293513655651 28.23003428184893 0.99690468667540699 0.47821126389317115 0.32558177877217431 5.5793873849324882 38.181729241856374 31.115661427262243 0.60466164059471239 0.23601412773132313 13.274721038091231 7.0386538836755781 3.8089274077210575 0.14524815976619621 7.4630913394503295 0.13618052029050787
leaf_count=215326 12023 3469 29 1385 8828 5 14 1035 128 355 7 14 33 51 3589 43 241 76 1489 19469 16482 317 1 854 2583 303 1 3219 31
internal_value=0 0.00409355 0.0110099 0.0175579 0.0229264 -0.0630993 -0.0654456 -0.0212093 0.00890334 0.038396 -0.0469358 0.0689935 -0.0740528 -0.0759849 -0.0734024 -0.0199003 -0.0685034 -0.0560518 0.000620608 -0.064708 -0.0698057 -0.0657196 -0.0750183 -0.0723944 -0.0757953 -0.0840546 -0.0701344 -0.0702272 -0.0703102
internal_weight=0 613.137 555.915 516.181 487.414 57.2221 503.192 32.5343 20.8604 13.6506 7.20984 3.76188 39.7346 39.4435 28.767 1.55469 470.658 44.5649 5.90497 38.6599 426.093 31.7203 11.6739 53.4602 20.3134 4.04494 394.372 7.62898 33.1469
internal_count=291400 32937 17384 13831 10213 15553 258463 5062 1525 483 1042 62 3553 3520 3618 48 253401 21275 1565 19710 232126 16799 3537 15491 3437 304 215327 3233 12054
is_linear=0
shrinkage=0.0699999


Tree=25
num_leaves=32
num_cat=0
split_feature=5 13 28 28 28 37 15 9 1 31 31 5 5 0 14 0 6 12 31 8 5 13 16 0 5 30 17 31 17 1 1
split_gain=256.862 54.5497 44.3654 50.5814 102.707 34.2266 20.8688 13.79 12.0188 10.103 16.3784 10.0315 9.73138 6.2156 6.9114 6.17744 5.68229 5.49727 3.62757 1.87167 1.63965 4.34263 7.73573 1.92131 0.124585 1.47962 0.0826754 0.0326306 0.00521686 0.000137438 7.47722e-05
threshold=44.077567602490745 51.226933306407112 13.062500000000002 15.062500000000002 27.812500000000004 0.85355339059338264 374.1436575094861 42.587907395381229 2912.5000000000005 42.812500000000007 43.687500000000007 41.529432822099643 47.902592051513295 93.500000000000014 137.80722172264203 83.500000000000014 165.60977995430815 109.67965706804053 1.0000000180025095e-35 99.716600448032665 42.916636913703307 53.704322082912903 71.604695024003107 1.5000000000000002 42.255707699677608 240.06250000000003 37.825139324675654 1.0000000180025095e-35 39.226511289170354 19.500000000000004 2912.5000000000005
decision_type=2 2 2 2 2 2 2 2 2 2 2 2 2 2 2 2 2 2 2 2 2 2 2 2 2 2 2 2 2 2 2
left_child=7 5 8 6 -5 12 -4 20 18 30 -11 26 17 15 -15 -13 -14 -2 -3 -10 24 23 -23 -22 28 -26 29 -28 -1 -9 -7
right_child=1 2 3 4 -6 9 -8 11 19 10 -12 13 16 14 -16 -17 -18 -19 -20 -21 21 22 -24 -25 25 -27 27 -29 -30 -31 -32
leaf_value=-0.070120195309765404 0.12819479355613045 0.15989856498779548 0.07580368883972316 -0.099282918256106981 0.017910418174833655 -0.070376997414737005 0.00038438371252172524 -0.072273252863942816 0.1100804626929326 0.26539436787660653 0.030589473246405537 0.0087799550003917377 -0.36446875074326285 0.23601329326218187 0.0012192336951159918 -0.11959404316893989 -0.1303033851424589 -0.06921080264184605 -0.079783266939543671 0.009307694536106222 0.073967555419019962 0.31217381882252948 -0.020211761450357007 -0.066216116199112399 -0.067717262225005806 0.040481352607711026 -0.10859386876607117 -0.081345425673277502 -0.083765941197514113 -0.070165924295677862 -0.071861441442440124
leaf_weight=367.61928443447687 0.70193193678278376 0.31247246370185422 84.44140203477582 41.031941451859893 342.55370290088467 3.6798463445156844 22.84005349612562 0.15502562338952142 1.7183149924967431 1.6400047151837487 12.948175621102562 16.07862045173534 0.53744532744167273 1.1687726947711774 1.2949215987464411 2.0736283061560234 9.1982807005988416 45.340785651060287 31.611846080224495 1.9035846780752761 0.48557230434380372 0.36565738869830866 5.5597840857226402 35.765718912589364 29.080769695923667 0.63277838670182873 0.22909006476402316 3.5893932455801405 0.13733196258544822 6.9596948124235496 0.17413541686255474
leaf_count=215326 153 35 1107 2665 9989 1140 273 14 19 30 810 1311 38 32 80 102 533 12700 3399 27 185 84 1481 19525 16482 317 1 303 1 3219 19
internal_value=0 0.00386807 0.0117892 0.0172577 0.00537431 -0.052313 0.059747 -0.0651726 -0.0637272 0.0303563 0.0569863 -0.0204695 -0.0796461 0.00827518 0.112605 -0.00588489 -0.14323 -0.0662013 -0.0774373 0.0571167 -0.0683805 -0.0552574 0.000299663 -0.0643384 -0.069773 -0.0654131 -0.0746713 -0.0829802 -0.0701253 -0.0702118 -0.0704441
internal_weight=0 600.634 526.413 490.867 383.586 74.2206 107.281 471.196 35.5462 18.4422 14.5882 31.5491 55.7784 20.6159 2.46369 18.1522 9.73573 46.0427 31.9243 3.6219 439.647 42.1767 5.92544 36.2513 397.47 29.7135 10.9332 3.81848 367.757 7.11472 3.85398
internal_count=291400 32937 17514 14034 12654 15423 1380 258463 3480 1999 840 5062 13424 1525 112 1413 571 12853 3434 46 253401 21275 1565 19710 232126 16799 3537 304 215327 3233 1159
is_linear=0
shrinkage=0.0699999


Tree=26
num_leaves=30
num_cat=0
split_feature=5 31 31 31 30 0 31 31 1 9 5 9 31 30 22 5 5 13 36 12 5 30 17 31 17 5 41 22 1
split_gain=241.811 51.5879 55.4591 69.7521 64.1595 46.7094 22.0801 20.5828 14.1487 13.9558 9.3889 6.47743 6.34004 10.197 5.18483 3.08038 1.72633 4.22882 6.84725 1.91595 0.132873 1.41015 0.0663237 0.0246476 0.00416593 0.00335343 0.000951452 0.000581285 0.000111286
threshold=44.077567602490745 42.812500000000007 45.187500000000007 54.937500000000007 171.56250000000003 83.500000000000014 1.0000000180025095e-35 43.312500000000007 2912.5000000000005 42.587907395381229 41.529432822099643 46.675156654617297 43.312500000000007 13.312500000000002 1.0000000180025095e-35 47.902592051513295 42.916636913703307 53.704322082912903 0.7071067811865287 109.67965706804053 42.255707699677608 240.06250000000003 37.825139324675654 1.0000000180025095e-35 39.226511289170354 48.488817585445773 0.99990161119634247 1.0000000180025095e-35 19.500000000000004
decision_type=2 2 2 2 2 2 2 2 2 2 2 2 2 2 2 2 2 2 2 2 2 2 2 2 2 2 2 2 2
left_child=9 6 4 8 7 -5 11 -3 -4 16 22 25 14 -14 -12 -13 20 19 -19 -18 24 -22 28 -24 -1 -2 27 -8 -11
right_child=1 2 3 5 -6 -7 26 -9 -10 10 12 15 13 -15 -16 -17 17 18 -20 -21 21 -23 23 -25 -26 -27 -28 -29 -30
leaf_value=-0.070112047327687638 -0.071269532280362174 0.18237594176826155 -0.12449902074830851 0.021558265771874325 -0.36228804234690781 -0.031672056269599375 -0.070422994345010162 0.063709296841945137 0.13500655205017328 -0.07211647508749526 -0.069439445702779087 0.19737786327906745 -0.099863162431393634 0.061600601837154961 0.12123917469172173 0.071464421258802036 0.07418500628649613 -0.052774999326150623 0.10687535409125684 -0.065946485605751018 -0.067541066489329019 0.036104499527887107 -0.10462234501767972 -0.080514420287692762 -0.082659801259501814 -0.078588504814612714 -0.07512714032589396 -0.073780315689890852 -0.070154680643882528
leaf_weight=342.80440313136205 0.55907274957280495 8.0637063198955712 23.479235359438466 321.47507748391945 1.6669649349059898 107.88321246721898 55.65384069836 64.059082045801915 1.076692571863531 0.14484803576488214 6.0645807516411905 1.2758550338039638 2.2973871039575888 11.56133762502577 0.78975081793032575 3.751083871757146 0.48500393214635451 3.9793347492814055 1.9670410878024993 33.519772630417719 27.183012721245181 0.6588096278719594 0.22141459584236178 3.3800392018165439 0.12969966232776542 0.67966459016315639 0.21285790577530761 0.25384831498376925 6.4901802955428138
leaf_count=215326 90 198 1860 9232 38 2228 18157 892 6 14 1035 42 128 355 7 151 241 1088 477 19469 16482 317 1 303 1 12 16 15 3219
internal_value=0 0.0036541 0.0107705 0.00162097 0.0670535 0.00818329 -0.0565412 0.0769769 -0.113121 -0.0648339 -0.0195053 0.068091 0.00759852 0.0348344 -0.0474696 0.103422 -0.0682495 -0.0544243 3.67996e-05 -0.0639478 -0.0697392 -0.0650885 -0.0743487 -0.0819966 -0.0701168 -0.0752853 -0.070456 -0.0704382 -0.0701975
internal_weight=0 590.09 527.704 453.914 73.7898 429.358 62.3862 72.1228 24.5559 441.677 30.9495 6.26568 20.7131 13.8587 6.85433 5.02694 410.727 39.9512 5.94638 34.0048 370.776 27.8418 10.2365 3.60145 342.934 1.23874 56.1205 55.9077 6.63503
internal_count=291400 32937 14454 13326 1128 11460 18483 1090 1866 258463 5062 295 1525 483 1042 193 253401 21275 1565 19710 232126 16799 3537 304 215327 102 18188 18172 3233
is_linear=0
shrinkage=0.0699999


Tree=27
num_leaves=31
num_cat=0
split_feature=5 35 28 14 31 29 9 1 5 31 17 22 13 1 31 0 5 13 28 0 17 5 30 9 17 5 31 17 31 1
split_gain=228.001 50.385 51.9369 48.2388 103.437 48.5423 13.8318 12.8607 8.76225 5.62565 8.95845 4.71741 3.32286 3.15642 3.2425 2.40547 1.81487 4.11547 6.6954 1.87723 1.65961 0.141668 1.34916 0.0722679 0.0532468 0.0515696 0.0187359 0.00333069 9.66287e-05 9.01161e-05
threshold=44.077567602490745 13.000000000000002 13.062500000000002 131.57957482810602 113.68750000000001 13.062500000000002 42.587907395381229 2912.5000000000005 41.529432822099643 43.312500000000007 37.825139324675654 1.0000000180025095e-35 61.224677060079451 2912.5000000000005 1.0000000180025095e-35 92.500000000000014 42.916636913703307 53.704322082912903 28.562500000000004 1.5000000000000002 26.281377894906452 42.255707699677608 240.06250000000003 43.462144569481019 37.825139324675654 47.902592051513295 1.0000000180025095e-35 39.226511289170354 42.812500000000007 19.500000000000004
decision_type=2 2 2 2 2 2 2 2 2 2 2 2 2 2 2 2 2 2 2 2 2 2 2 2 2 2 2 2 2 2
left_child=6 7 13 4 -4 -5 16 23 24 11 -11 -10 20 14 -3 -15 21 19 -19 -18 -9 27 -23 28 29 -25 -26 -1 -2 -8
right_child=1 2 3 5 -6 -7 8 12 9 10 -12 -13 -14 15 -16 -17 17 18 -20 -21 -22 22 -24 25 26 -27 -28 -29 -30 -31
leaf_value=-0.070104453107702108 -0.070149934476606307 0.1531126805242041 0.018698878423808653 -0.074025526055137625 -0.17452285349293284 0.029618442756591517 -0.071970702512234377 0.081820112006036116 -0.06914194074867959 0.084971768794672303 -0.027098430127089589 0.11495691178859446 0.12198616445695774 -0.077961122517714254 -0.07946691450514401 0.086381534281703337 0.072195036664986084 0.07827591465269701 -0.070353277267210537 -0.065658658291459004 -0.077029923711998863 -0.067354130679341345 0.03234718729372791 -0.078499825840502149 -0.1011831121579205 -0.070744762738010045 -0.079748206688345161 -0.081655413003069846 -0.070407169484803717 -0.070144199981754043
leaf_weight=319.66212808864657 13.22969429875957 0.29635977954603632 43.649402582668699 23.409851302276365 19.70373591419775 409.01049944513943 0.13531927554868328 0.51401488250121408 5.6780663742683855 7.3872891067294386 6.6332681651692837 0.77512246160767961 2.1097888080403209 0.74824058543890615 32.963854421162978 1.0471701193600891 0.49160801153630274 2.814113921718671 3.1447284668684006 31.418190728756599 0.86395674792584032 25.413178428076211 0.68292447039857407 12.400050191179618 0.21320736408233676 6.3549427607504176 3.1807285614777356 0.12236545979976554 15.584867926343575 6.0522767736110836
leaf_count=215326 7503 32 1401 3231 229 8970 14 5 1035 404 79 7 14 35 3470 16 185 702 863 19525 43 16482 317 854 1 2583 303 1 4551 3219
internal_value=0 0.00343929 0.00982752 0.0156498 -0.0413959 0.0240075 -0.0645297 -0.0629774 -0.0187996 0.0070565 0.0319502 -0.047029 0.0667681 -0.0725144 -0.0773946 0.0178914 -0.0681113 -0.0535628 -0.000161879 -0.0635349 -0.0177752 -0.0697042 -0.064745 -0.0724903 -0.0740489 -0.0758721 -0.0810947 -0.0701089 -0.0702891 -0.0701841
internal_weight=0 581.886 530.829 495.773 63.3531 432.42 413.805 51.0573 30.0553 20.4737 14.0206 6.45319 3.48776 35.0556 33.2602 1.79541 383.749 37.8686 5.95884 31.9098 1.37797 345.881 26.0961 47.5696 9.58153 18.755 3.39394 319.784 28.8146 6.1876
internal_count=291400 32937 17384 13831 1630 12201 258463 15553 5062 1525 483 1042 62 3553 3502 51 253401 21275 1565 19710 48 232126 16799 15491 3537 3437 304 215327 12054 3233
is_linear=0
shrinkage=0.0699999


Tree=28
num_leaves=31
num_cat=0
split_feature=5 35 28 41 28 9 1 5 28 28 39 13 1 31 0 5 13 31 12 17 8 5 30 9 17 5 31 17 31 1
split_gain=214.336 46.3413 47.238 47.7035 53.495 14.0131 11.9433 8.19864 5.19872 19.7388 4.72682 2.97781 2.93536 2.91933 2.18767 1.90615 4.00139 6.49375 1.86925 1.5234 0.283307 0.150995 1.29497 0.0590942 0.0427782 0.0419154 0.014322 0.00266581 7.84027e-05 7.29783e-05
threshold=44.077567602490745 13.000000000000002 13.062500000000002 -0.99861012336511024 65.062500000000014 42.587907395381229 2912.5000000000005 41.529432822099643 13.312500000000002 14.812500000000002 0.43388373911756511 61.224677060079451 2912.5000000000005 1.0000000180025095e-35 92.500000000000014 42.916636913703307 53.704322082912903 58.312500000000007 109.67965706804053 26.281377894906452 96.357005092864341 42.255707699677608 240.06250000000003 43.462144569481019 37.825139324675654 47.902592051513295 1.0000000180025095e-35 39.226511289170354 42.812500000000007 19.500000000000004
decision_type=2 2 2 2 2 2 2 2 2 2 2 2 2 2 2 2 2 2 2 2 2 2 2 2 2 2 2 2 2 2
left_child=5 6 12 10 -5 15 23 24 20 -10 -4 19 13 -3 -14 21 18 -18 -17 -8 -9 27 -23 28 29 -25 -26 -1 -2 -7
right_child=1 2 3 4 -6 7 11 8 9 -11 -12 -13 14 -15 -16 16 17 -19 -20 -21 -22 22 -24 25 26 -27 -28 -29 -30 -31
leaf_value=-0.07009737543718382 -0.070139807809878149 0.14067893429900605 -0.087832467286314955 0.033263698573848553 -0.016682384263150378 -0.071835135621070301 0.079530545175019354 0.017912607219861206 0.20663540381052675 -0.0087957244215152424 -0.20702413884194576 0.11804638382651998 -0.077401606896374223 -0.078798099027136609 0.083473274773804618 0.072300746047896658 -0.070256468281197901 0.075891868200927415 -0.065357074287204373 -0.076571312803903349 -0.087815716685540668 -0.067155728919371604 0.029093847169020529 -0.077929663839841304 -0.098182277109301594 -0.070699144506912934 -0.079041242839410233 -0.080741499139977843 -0.070379740257315762 -0.070134429410189533
leaf_weight=298.08005511516239 12.337004354805687 0.2998349455883752 2.5201385532272971 329.92844783200417 154.18007829412818 0.12640053313225674 0.49256940418854289 0.13031456875615122 2.408185233827683 15.480957313731777 4.6173614028375596 2.0304290703497827 0.7025187888648351 30.986883669247618 1.0091811360325662 0.49141016858630138 3.1139679760672143 2.8560289344750345 29.464484007214196 0.81020152941346169 2.6401243855943903 23.762666578404609 0.70527511858381231 11.643315736262595 0.20464861392974887 5.9289981842157422 2.9912729354109615 0.11533807963132758 14.536698727315523 5.6438642975408584
leaf_count=215326 7503 32 125 9328 4279 14 5 15 49 1152 99 14 35 3470 16 241 1085 480 19469 43 309 16482 317 854 1 2583 303 1 4551 3219
internal_value=0 0.00324726 0.00926215 0.0147081 0.0173567 -0.0641421 -0.0627494 -0.0178728 0.00638638 0.020205 -0.164939 0.0650489 -0.0718114 -0.0766948 0.0174467 -0.0679648 -0.0526698 -0.000339535 -0.0630989 -0.0175502 -0.0828425 -0.0696677 -0.0643814 -0.0723336 -0.07377 -0.07549 -0.0802669 -0.0701015 -0.0702696 -0.0701717
internal_weight=0 572.024 524.244 491.246 484.109 388.215 47.7792 29.6258 20.6596 17.8891 7.1375 3.3332 32.9984 31.2867 1.7117 358.589 35.9259 5.97 29.9559 1.30277 2.77044 322.663 24.4679 44.446 8.96619 17.5723 3.19592 298.195 26.8737 5.77026
internal_count=291400 32937 17384 13831 13607 258463 15553 5062 1525 1201 224 62 3553 3502 51 253401 21275 1565 19710 48 324 232126 16799 15491 3537 3437 304 215327 12054 3233
is_linear=0
shrinkage=0.0699999


Tree=29
num_leaves=30
num_cat=0
split_feature=5 31 31 40 28 5 37 31 28 9 0 5 9 7 28 31 17 5 15 39 31 17 31 17 13 41 35 1 9
split_gain=201.66 53.1591 49.2008 41.8615 43.4639 35.5327 33.3708 19.2618 13.3129 11.4761 11.4479 7.30046 5.72333 5.60374 6.85407 6.84817 1.90652 0.680204 2.62367 4.57956 1.70764 0.03439 0.0110028 0.00213578 0.00209318 0.000479775 0.000389416 5.91037e-05 7.31923e-07
threshold=43.641099638429608 42.812500000000007 43.687500000000007 0.9996932690879351 13.062500000000002 47.902592051513295 4.4583952275966137e-14 1.0000000180025095e-35 25.937500000000004 42.587907395381229 20.500000000000004 41.529432822099643 46.675156654617297 452.74493361294691 15.062500000000002 43.687500000000007 37.825139324675654 42.255707699677608 408.05552431519857 0.99371220989324305 102.18750000000001 37.825139324675654 1.0000000180025095e-35 39.226511289170354 59.254634244583706 0.99990161119634247 13.000000000000002 19.500000000000004 42.034942635344088
decision_type=2 2 2 2 2 2 2 2 2 2 2 2 2 2 2 2 2 2 2 2 2 2 2 2 2 2 2 2 2
left_child=9 7 5 4 -4 6 -3 12 -5 17 -7 21 24 15 -15 -13 -14 23 20 -20 -19 27 -23 28 -2 26 -9 -11 -1
right_child=1 2 3 8 -6 10 -8 25 -10 11 -12 13 16 14 -16 -17 -18 18 19 -21 -22 22 -24 -25 -26 -27 -28 -29 -30
leaf_value=-0.070090249247090008 -0.072462530463205735 0.10482344238622121 -0.071787965126077144 0.029539245116007997 0.012770723679356326 -0.096421342915689323 0.38866119154396594 -0.070138809908228308 -0.23073361991612337 -0.071709046677586985 0.071753156151559014 -0.047674641557487865 0.15073997213097151 0.059211689837143401 -0.085444238789312829 0.080186112995904738 0.06007366017943231 -0.06824335126002716 -0.070162884128329966 0.46192840314442696 -0.030880843723474712 -0.095546762389424014 -0.078388518921740133 -0.079908297762537564 -0.078656529399314459 -0.074011732683447906 -0.070527539728927294 -0.070125322034327947 -0.070115272120749694
leaf_weight=272.10233423521277 0.78746315327589289 4.7597201330354455 31.870506440434838 1.204125422053038 455.32931396021741 2.3809988063294432 3.5385862902039662 18.66099296498578 4.8080688437912613 0.11805497342720794 11.875774431508033 2.9511714875116031 1.9228560340998226 2.3496912015252738 5.0640274850302376 6.7408472448005341 2.77866693289252 37.584116809535772 0.20619921758770843 0.12874575145542622 7.1313784773228681 0.19588582217693362 2.811441560043022 0.10862179845571418 0.40474518667906523 0.18096984445582975 39.054474155185744 5.2629639711230993 5.8509381529875091
leaf_count=211585 116 120 3886 64 12789 32 142 11942 55 14 152 573 33 133 352 259 161 26443 116 2 4706 1 303 1 5 18 10437 3219 3741
