tree
version=v3
num_class=1
num_tree_per_iteration=1
label_index=0
max_feature_idx=41
objective=binary sigmoid:1
feature_names=compressorID cycle current_mean_3h rpm_mean_3h pressure_mean_3h vibration_mean_3h current_mean_lag_24h rpm_mean_lag_24h pressure_mean_lag_24h vibration_mean_lag_24h current_max_lag_24h rpm_max_lag_24h pressure_max_lag_24h vibration_max_lag_24h current_min_lag_24h rpm_min_lag_24h pressure_min_lag_24h vibration_min_lag_24h error1 error2 error3 error4 error5 error1count error2count error3count error4count error5count comp1_maint comp2_maint comp3_maint comp4_maint model2 model3 model4 age s-24 c-24 s-168 c-168 s-8760 c-8760
feature_infos=[1:100] [8:2921] [131.489892670426:234.51091472946663] [211.81118441944167:584.8307676802533] [73.951948259827915:162.30965599046701] [26.569635352906836:69.311324019534197] [155.96369327804192:220.78261792733369] [266.01041853614475:499.09697457766015] [91.057429382604241:152.21562721308601] [35.060087018904049:61.932124459057711] [174.04503492330795:255.124717259791] [354.68943301834202:695.02098440339603] [101.48619548392099:185.95199773086603] [41.786126510576601:76.791072301672301] [97.333603782359006:192.273502665092] [138.432075304341:440.09222717888798] [51.237105773425291:140.668647949122] [14.877053998382999:54.8179519133121] [0:1] [0:1] [0:1] [0:1] [0:1] [0:3] [0:3] [0:3] [0:3] [0:2] [0:491.875] [0:348.875] [0:370.75] [0:394.75] [0:1] [0:1] [0:1] [0:20] [-1:1] [-1:1] [-1:1] [-1:1] [-1:1] [-1:1]
tree_sizes=1166 1204 1202 1184 1184 1184 1181 1199 1204 1194 1203 1203 1192 1200 1193 1198 1210 1201 1197 1201 1201 1204 1211 1197 1206 1212 1205 1205 1200 1202 1210 1201 1207 1204 1200 1205 1193 1193 1206 1209 1202 1207 1220 1206 1202 1214 1210 1215 1214 1197 1205 1202 1195 1200 1207 1201 1204 1230 1207 1215 1202 1210 1215 1214 1216 1207 1212 1211 1213 1205 1215 1223 1215 1221 1214 1213 1213 1201 1208 1213 1207 1212 1206 1220 1218 1213 1219 1190 1207 1201 1228 1206 1221 1207 1222 1223 1214 1217 1223 1208

Tree=0
num_leaves=10
num_cat=0
split_feature=4 34 8 1 33 1 4 41 30
split_gain=2.91315e+07 384940 384545 284126 266880 469990 201021 61213.6 29415.6
threshold=111.30211561560502 1.0000000180025095e-35 106.61774889986047 2912.5000000000005 1.0000000180025095e-35 2912.5000000000005 108.04788393241888 0.99990161119634247 44.312500000000007
decision_type=2 2 2 2 2 2 2 2 2
left_child=2 4 -1 -3 -2 -6 7 -4 -8
right_child=1 3 6 -5 5 -7 8 -9 -10
leaf_value=-4.9748848943585688 4.8740378795047627 -5.0114931881448861 -5.0114931881448861 4.8270683608542386 -5.0114931881448861 4.900616047247131 -5.0114931881448861 4.8048468785923495 4.6919174214555701
leaf_weight=1912.1349251745269 7190.8121646130458 34.048252552747726 24.514459981583062 24.902013229206204 37.13458008132875 63.558618951588869 1.6065814532339562 3.5654835011810055 32.462811234407127
leaf_count=270365 7024 4832 3479 41 5270 38 228 7 116
internal_value=-4.94099 4.77838 -4.79876 -0.855448 4.82392 1.24514 0.620103 -3.76505 4.23434
internal_weight=0 7350.46 1974.28 58.9503 7291.51 100.693 62.1493 28.0799 34.0694
internal_count=291400 17205 274195 4873 12332 5308 3830 3486 344
is_linear=0
shrinkage=1


Tree=1
num_leaves=10
num_cat=0
split_feature=12 4 37 32 4 32 33 34 12
split_gain=9595.87 6950.96 57563.7 48451.7 18412.5 14759.7 12128.4 55587.8 5135.61
threshold=126.52207801211252 111.30211561560502 0.70710678118652459 1.0000000180025095e-35 113.49271225606218 1.0000000180025095e-35 1.0000000180025095e-35 1.0000000180025095e-35 126.86056299818651
decision_type=2 2 2 2 2 2 2 2 2
left_child=1 -1 3 6 5 -4 7 -3 -2
right_child=8 2 4 -5 -6 -7 -8 -9 -10
leaf_value=-0.070648311534400099 0.85968616174118073 -9.2293739085355728 -1.8684736979595258 -9.2293739085355799 -0.0050245836727393842 -9.2293739085355746 -0.091743636061407965 -0.085317266994676941 0.043505106695022229
leaf_weight=1669.5488793901168 37.960713018663228 5.0204793633893159 6.5181096415035409 5.6000549420714369 253.91685655154288 1.6785110915079711 9.7238814407028258 9.2772532496601343 7761.5702325562015
leaf_count=244990 2314 667 967 744 868 223 1479 1411 37737
internal_value=0 -0.125735 -0.440985 -3.36593 -0.110434 -3.37585 -1.99901 -3.29614 0.0474775
internal_weight=0 1961.28 291.735 29.6217 262.113 8.19662 24.0216 14.2977 7799.53
internal_count=291400 251349 6359 4301 2058 1190 3557 2078 40051
is_linear=0
shrinkage=0.07


Tree=2
num_leaves=10
num_cat=0
split_feature=30 30 4 41 12 32 33 30 12
split_gain=6419.27 3932.85 14996.5 26206.9 19800.2 49144.9 15165.4 8695.83 4022.66
threshold=42.812500000000007 1.0000000180025095e-35 111.30211561560502 0.91629518385720943 126.52207801211252 1.0000000180025095e-35 1.0000000180025095e-35 27.062500000000004 127.02041373463852
decision_type=2 2 2 2 2 2 2 2 2
left_child=1 -1 -3 4 -4 6 -6 8 -5
right_child=-2 2 3 7 5 -7 -8 -9 -10
leaf_value=0.063193464585290682 0.051249568053918261 -0.070662410015630533 -0.57466364492901989 -0.71829544213488161 -3.3776164106187161 -9.6855125479057715 -0.070502238879713838 0.048977586070421048 -4.5821868764003169
leaf_weight=525.63068403874058 7606.8554222842213 1071.5519944666885 27.859127351664938 2.3892202606657511 16.231043533887714 4.7642359528690568 11.686457935255023 95.775836722459644 2.9508910151198506
leaf_count=1105 116490 164805 3414 276 2312 664 1680 234 420
internal_value=0 -0.0971372 -0.165475 -0.793945 -1.94579 -3.11459 -1.99324 -0.104304 -2.85344
internal_weight=0 1758.84 1233.21 161.657 60.5409 32.6817 27.9175 101.116 5.34011
internal_count=291400 174910 173805 9000 8070 4656 3992 930 696
is_linear=0
shrinkage=0.07


Tree=3
num_leaves=10
num_cat=0
split_feature=12 12 13 29 30 4 32 1 28
split_gain=4358.29 6374.32 20897.5 2284.89 4751.28 11313.5 5620.29 2689.88 2108.89
threshold=126.67205693552502 126.86056299818651 59.803877884025404 13.062500000000002 140.06250000000003 113.49271225606218 1.0000000180025095e-35 1128.5000000000002 13.062500000000002
decision_type=2 2 2 2 2 2 2 2 2
left_child=-1 2 -2 4 -3 -6 7 -7 -5
right_child=1 3 -4 8 5 6 -8 -9 -10
leaf_value=-0.068210598940772901 -0.10025897428188517 -0.10561583596050862 3.9726358141222162 -0.19644023737281549 -0.26502787825936541 -0.98191118298848501 -10.139716174737609 -9.7983796183947884 0.061666045101458282
leaf_weight=1831.5399572987808 21.523001071705949 240.02982048415288 8.6551465187221783 158.72221510991221 5.6680666403844944 0.83318824693560622 0.98724777996540058 0.21289351116865873 6824.1194312988955
leaf_count=252477 1163 8754 23 7388 761 116 144 31 20543
internal_value=0 0.0526248 1.06785 0.0483875 -0.160528 -1.87196 -6.35143 -2.7762 0.0557992
internal_weight=0 7260.75 30.1781 7230.57 247.731 7.7014 2.03333 1.04608 6982.84
internal_count=291400 38923 1186 37737 9806 1052 291 147 27931
is_linear=0
shrinkage=0.07


Tree=4
num_leaves=10
num_cat=0
split_feature=12 31 1 31 31 28 30 4 32
split_gain=3903.2 1900.81 1965.75 58722.6 1609.31 1462.46 2900.9 7067.83 6965.69
threshold=126.67205693552502 13.062500000000002 2873.5000000000005 13.312500000000002 0.81250000000000011 13.062500000000002 49.187500000000007 108.04788393241888 1.0000000180025095e-35
decision_type=2 2 2 2 2 2 2 2 2
left_child=-1 4 5 -4 -2 6 -3 -8 -9
right_child=1 2 3 -5 -6 -7 7 8 -10
leaf_value=-0.066640787076156102 0.024673052628170548 -0.048565236933500837 8.6679781213615659 0.00042152167419959389 -0.328089261760308 0.057958559819873301 -0.070485979701309237 -1.5679526583288508 -7.1358417431440202
leaf_weight=1746.5487951835103 138.06188840400137 133.65127623945591 4.005242070183157 87.579582977312384 117.12767895030265 6520.1706436593404 12.659592316951604 4.1342712086625388 1.5005967700853942
leaf_count=252477 772 4649 3 516 9002 21184 1954 648 195
internal_value=0 0.0503012 0.0573769 0.379476 -0.137239 0.0529556 -0.161725 -0.988424 -3.05071
internal_weight=0 7018.89 6763.7 91.5848 255.19 6672.12 151.946 18.2945 5.63487
internal_count=291400 38923 29149 519 9774 28630 7446 2797 843
is_linear=0
shrinkage=0.07


Tree=5
num_leaves=10
num_cat=0
split_feature=4 31 31 30 32 29 13 32 30
split_gain=3697.6 1404.51 1658.44 3376.44 2207.9 1717.77 834.068 750.765 5185.59
threshold=115.85797966521069 13.062500000000002 0.81250000000000011 78.062500000000014 1.0000000180025095e-35 18.437500000000004 59.803877884025404 1.0000000180025095e-35 45.687500000000007
decision_type=2 2 2 2 2 2 2 2 2
left_child=6 2 -2 7 -5 -6 -1 -4 -9
right_child=1 -3 3 4 5 -7 -8 8 -10
leaf_value=-0.070415440557170111 0.024051831075446849 0.056359863586098367 -0.23690861897107832 -1.4313263622345407 -0.070374063010176791 -7.2368568057964469 0.083147668874613376 -0.24983153276680636 -6.4441681690313191
leaf_weight=1917.3729574317895 111.41255521317271 6077.9747425524902 59.49193919523168 1.9701202162541442 0.21313523780554522 0.70930500701069832 190.53199872229015 4.9659662228077641 0.76412093080580223
leaf_count=275687 169 7904 1489 343 47 76 5408 201 76
internal_value=0 0.0506602 -0.142303 -0.414404 -2.75466 -5.581 -0.056535 -0.310615 -1.07586
internal_weight=0 6257.5 179.527 68.1146 2.89256 0.92244 2107.9 65.222 5.73009
internal_count=291400 10305 2401 2232 466 123 281095 1766 277
is_linear=0
shrinkage=0.07


Tree=6
num_leaves=10
num_cat=0
split_feature=4 30 30 29 31 1 35 40 0
split_gain=3453.66 799.181 2000.89 1314.77 2342.83 1487.97 1239.34 1081.03 1403.38
threshold=115.85797966521069 42.062500000000007 1.0000000180025095e-35 13.062500000000002 69.187500000000014 115.50000000000001 7.5000000000000009 1.0000000180025095e-35 42.500000000000007
decision_type=2 2 2 2 2 2 2 2 2
left_child=-1 2 -2 4 6 -6 -3 8 -7
right_child=1 3 -4 -5 5 7 -8 -9 -10
leaf_value=-0.054674157592939497 0.065329575899708073 -1.7677267946676447 -0.19605420707200957 0.062485207348145916 -8.2428924451355634 -9.8351960556985922 -0.11459681554054651 -0.79510174184624116 -1.1598958043719971
leaf_weight=2030.6379582200161 426.18339780811129 2.454001440899936 216.35269759507719 5280.8554506597338 0.23654794433150428 0.17674941197037675 23.518833850037481 0.84412833996836412 0.18914976716041565
leaf_count=281095 179 263 4828 4287 57 26 495 145 25
internal_value=0 0.05105 -0.0226827 0.0599749 -0.423494 -3.16525 -0.27079 -2.17262 -5.35054
internal_weight=0 5950.81 642.536 5308.27 27.4194 1.44658 25.9728 1.21003 0.365899
internal_count=291400 10305 5007 5298 1011 253 758 196 51
is_linear=0
shrinkage=0.07


Tree=7
num_leaves=10
num_cat=0
split_feature=4 12 4 30 30 41 28 32 12
split_gain=3179.32 778.471 1332.88 757.188 1605.42 1007.77 905.048 900.324 856.755
threshold=115.85797966521069 126.67205693552502 111.30211561560502 42.062500000000007 1.0000000180025095e-35 0.97385605267652664 13.062500000000002 1.0000000180025095e-35 124.07638437190802
decision_type=2 2 2 2 2 2 2 2 2
left_child=1 2 -1 4 -2 8 7 -5 -6
right_child=3 -3 -4 6 5 -7 -8 -9 -10
leaf_value=-0.070577116088022918 0.064956316596122832 0.0053505421772569667 -0.42945032754080686 -1.341641203818245 -1.7128883712787371 0.020497679853495387 0.061814160690711495 -0.16097804898540888 -0.25650624748126299
leaf_weight=1197.287795851938 399.57470504567209 726.12096293970762 52.954405928961933 4.1676297983794415 2.0062706508906549 90.048797230418131 4980.161366505843 13.152090912022739 146.98936422520092
leaf_count=246071 179 29608 5416 726 391 312 4360 212 4125
internal_value=0 -0.0522967 -0.0857773 0.0508856 -0.0208881 -0.164381 0.0600574 -0.44508 -0.276117
internal_weight=0 1976.36 1250.24 5636.1 638.619 239.044 4997.48 17.3197 148.996
internal_count=291400 281095 251487 10305 5007 4828 5298 938 4516
is_linear=0
shrinkage=0.07


Tree=8
num_leaves=10
num_cat=0
split_feature=4 13 30 30 41 28 12 4 8
split_gain=2907.38 756.758 702.264 1249.71 836.857 700.178 580.426 784.831 930.545
threshold=115.85797966521069 59.803877884025404 42.812500000000007 1.0000000180025095e-35 0.91629518385720943 13.062500000000002 135.73550570335252 111.30211561560502 103.82975341327349
decision_type=2 2 2 2 2 2 2 2 2
left_child=1 6 3 -2 -5 -4 7 -1 -9
right_child=2 -3 5 4 -6 -7 -8 8 -10
leaf_value=-0.069547402468269598 0.064563657966871149 0.082441577049473413 -0.35920055573729054 -0.24893362437744865 -0.0024726627834826998 0.061376161494853976 0.014986648206660723 -0.41214839125297187 -0.0084179034866413496
leaf_weight=1243.2339513800534 374.74795155553147 188.68221591211113 19.477017260697721 143.23652122941712 127.68563953145167 4668.3639602367402 351.08001747344679 73.294303963837592 45.240294024231844
leaf_count=264133 179 5408 912 4397 516 4301 5378 5792 384
internal_value=0 -0.0506097 0.050202 -0.01824 -0.132777 0.0596288 -0.0652662 -0.0859563 -0.258059
internal_weight=0 1901.53 5333.51 645.67 270.922 4687.84 1712.85 1361.77 118.535
internal_count=291400 281095 10305 5092 4913 5213 275687 270309 6176
is_linear=0
shrinkage=0.07


Tree=9
num_leaves=10
num_cat=0
split_feature=4 30 30 28 29 31 0 13 41
split_gain=2668.38 798.649 1352.16 824.424 718.143 1559.72 940.894 698.659 639.145
threshold=114.47301779768168 42.062500000000007 1.0000000180025095e-35 13.062500000000002 13.062500000000002 12.812500000000002 93.500000000000014 59.803877884025404 0.97385605267652664
decision_type=2 2 2 2 2 2 2 2 2
left_child=7 2 -2 -3 5 -5 -7 -1 -4
right_child=1 3 8 4 -6 6 -8 -9 -10
leaf_value=-0.069632478621661997 0.063514526231720658 -0.39390859303217313 -0.21790682574456408 -0.017298910696213698 0.062173216369091087 -1.1041771385602865 -5.6147065821483624 0.078459259425440617 0.0091228650283706816
leaf_weight=1484.2320442203227 359.66928257467225 19.692951144033032 183.64767861461223 22.117137742600509 4540.0103571739328 5.9254006863969257 0.23562249948736269 174.44551580156985 90.805779691585485
leaf_count=274548 187 1059 5164 272 3770 623 37 5384 356
internal_value=0 0.0478574 -0.0257765 0.0580346 0.0599828 -0.291683 -1.27668 -0.0540575 -0.142792
internal_weight=0 5222.1 634.123 4587.98 4568.29 28.2782 6.16102 1658.68 274.453
internal_count=291400 11468 5707 5761 4702 932 660 279932 5520
is_linear=0
shrinkage=0.07


Tree=10
num_leaves=10
num_cat=0
split_feature=12 30 30 29 31 28 4 33 4
split_gain=2454.15 893.816 1196.09 933.527 1176.86 592.595 588.25 532.657 466.51
threshold=126.67205693552502 42.812500000000007 1.0000000180025095e-35 13.062500000000002 12.062500000000002 13.062500000000002 117.87029081158654 1.0000000180025095e-35 108.04788393241888
decision_type=2 2 2 2 2 2 2 2 2
left_child=6 2 -2 7 -5 -6 -1 8 -3
right_child=1 3 -4 4 5 -7 -8 -9 -10
leaf_value=-0.084601334913501136 0.063736992791067329 -0.070405764782083019 -0.11121219665659685 -0.4447500235743973 -0.27636546502934789 0.063743922544616402 0.050616166867322968 0.0067162892564954649 -0.65334530235257415
leaf_weight=1075.6294612309298 373.42632745020182 10.645758016268127 393.01999421286382 22.587024525055313 25.2459692731818 4416.9788563356269 184.72308970903532 24.124424067318614 18.273329390234387
leaf_count=251999 295 2029 22335 2774 2405 6711 478 1458 916
internal_value=0 0.0439224 -0.0259738 0.0557801 0.0592484 0.061811 -0.0647832 -0.236151 -0.438752
internal_weight=0 5284.3 766.446 4517.86 4464.81 4442.22 1260.35 53.0435 28.9191
internal_count=291400 38923 22630 16293 11890 9116 252477 4403 2945
is_linear=0
shrinkage=0.07


Tree=11
num_leaves=10
num_cat=0
split_feature=4 12 30 30 41 28 4 30 4
split_gain=2269.87 663.027 575.867 847.785 493.232 488.972 452.892 661.151 815.281
threshold=115.85797966521069 126.67205693552502 42.062500000000007 1.0000000180025095e-35 0.97385605267652664 13.062500000000002 111.30211561560502 72.562500000000014 113.49271225606218
decision_type=2 2 2 2 2 2 2 2 2
left_child=1 6 3 -2 -5 -4 -1 8 -8
right_child=2 -3 5 4 -6 -7 7 -9 -10
leaf_value=-0.070564164237527538 0.063262312132886356 0.0057209490320509595 -0.29593793049288836 -0.17265224372095939 0.024056737868621839 0.059759148343827978 -0.31009382503634375 -0.068751368506722629 -1.1808975204822867
leaf_weight=901.18425074499055 310.00691597862169 678.65504996103527 19.02942943066455 182.18901626775187 95.042981525471987 3914.6050993440563 25.899065068049822 42.92120249994332 6.6134783241868709
leaf_count=246071 179 29608 938 4516 312 4360 2902 1218 1296
internal_value=0 -0.0474246 0.0483855 -0.0162747 -0.105215 0.0580384 -0.0843556 -0.249118 -0.487227
internal_weight=0 1655.27 4520.87 587.239 277.232 3933.63 976.618 75.4337 32.5125
internal_count=291400 281095 10305 5007 4828 5298 251487 5416 4198
is_linear=0
shrinkage=0.07


Tree=12
num_leaves=10
num_cat=0
split_feature=12 30 30 29 31 4 31 39 4
split_gain=2084.33 861.229 998.984 885.481 1196.67 553.351 986.375 964.098 677.189
threshold=124.89375854344551 42.062500000000007 1.0000000180025095e-35 13.062500000000002 12.062500000000002 108.21043139084298 1.0625000000000002 -0.62348980185873637 115.85797966521069
decision_type=2 2 2 2 2 2 2 2 2
left_child=-1 2 -2 -3 5 -5 7 -7 -8
right_child=1 3 -4 4 -6 6 8 -9 -10
leaf_value=-0.070113759620950747 0.062538387218521854 -0.21378364195698335 -0.10026492243124338 -0.070266884169237598 0.060214831307215375 -7.3028472963901532 -1.766213096264845 -1.1752063135476474 -0.38593123397851331
leaf_weight=994.44886834225781 331.87596122314972 59.838773944327841 416.40738000244255 9.6584184959065187 4061.1529721311945 0.21891020867042243 2.1499060960341003 0.29584691824857046 9.1726858054535096
leaf_count=237679 351 6278 30933 2886 12293 32 313 31 604
internal_value=0 0.041055 -0.028059 0.0535395 0.0574577 -0.463451 -0.784261 -3.7811 -0.648016
internal_weight=0 4890.77 748.283 4142.49 4082.65 21.4958 11.8373 0.514757 11.3226
internal_count=291400 53721 31284 22437 16159 3866 980 63 917
is_linear=0
shrinkage=0.07


Tree=13
num_leaves=10
num_cat=0
split_feature=4 12 4 30 30 1 2 28 13
split_gain=1946.28 586.655 512.784 506.618 609.924 456.281 447.855 425.876 368.154
threshold=115.85797966521069 124.99831021546352 111.30211561560502 42.812500000000007 1.0000000180025095e-35 199.50000000000003 197.71101324693169 13.062500000000002 58.807746832733805
decision_type=2 2 2 2 2 2 2 2 2
left_child=1 2 -1 4 -2 -6 -4 -5 -3
right_child=3 8 6 7 5 -7 -8 -9 -10
leaf_value=-0.07059113213264602 0.062276435018292865 -0.026795186637917037 -0.38462385878647526 -0.2695886038994304 0.060984482929359839 -0.13347249801885464 0.062539100405758066 0.059130920901895437 0.092431448145340642
leaf_weight=736.9153046654543 273.70444828364998 561.31129139390384 47.292412160066306 19.419660087326974 80.491191287919719 222.75589481803763 14.291488366812699 3484.2697976719965 163.97835354530616
leaf_count=232935 179 42031 4958 912 88 4825 39 4301 1132
internal_value=0 -0.0454127 -0.0868075 0.0473002 -0.0134807 -0.0818576 -0.280853 0.0573089 0.000160372
internal_weight=0 1523.79 798.499 4080.64 576.952 303.247 61.5839 3503.69 725.29
internal_count=291400 281095 237932 10305 5092 4913 4997 5213 43163
is_linear=0
shrinkage=0.07


Tree=14
num_leaves=10
num_cat=0
split_feature=4 30 30 13 28 41 29 17 31
split_gain=1775.26 578.124 675.521 525.469 470.352 409.39 356.2 426.692 406.275
threshold=114.47301779768168 42.062500000000007 1.0000000180025095e-35 59.803877884025404 13.062500000000002 0.97385605267652664 13.062500000000002 34.180470182960654 13.062500000000002
decision_type=2 2 2 2 2 2 2 2 2
left_child=3 2 -2 -1 -3 -4 7 -6 -8
right_child=1 4 5 -5 6 -7 8 -9 -10
leaf_value=-0.065469431609588666 0.060913822889300633 -0.26345584973244496 -0.15104600721646497 0.069007834409063773 -0.41051291668259698 0.020517569487584861 -0.22715435158394387 0.063443411821871548 0.06188186525043398
leaf_weight=1155.8317537420528 264.24547050532419 22.521897318219089 198.93168715286356 162.38145054227857 17.425232669936463 103.6691363054706 23.998522921978292 19.979206371850182 3380.2916217998572
leaf_count=274548 187 1059 5164 5384 880 356 716 52 3054
internal_value=0 0.044674 -0.0208603 -0.0489041 0.0553973 -0.0922694 0.0574838 -0.157354 0.0598443
internal_weight=0 4031.06 566.846 1318.21 3464.22 302.601 3441.69 37.4044 3404.29
internal_count=291400 11468 5707 279932 5761 5520 4702 932 3770
is_linear=0
shrinkage=0.07


Tree=15
num_leaves=10
num_cat=0
split_feature=12 30 29 30 31 0 28 4 4
split_gain=1649.97 689.975 762.041 737.291 674.125 410.607 398.21 364.849 762.507
threshold=124.89375854344551 42.062500000000007 13.062500000000002 1.0000000180025095e-35 12.062500000000002 15.500000000000002 13.062500000000002 108.04788393241888 114.47301779768168
decision_type=2 2 2 2 2 2 2 2 2
left_child=-1 3 5 -2 -4 -3 -6 -7 -9
right_child=1 2 4 -5 6 7 -8 8 -10
leaf_value=-0.067296501622935934 0.061153504480328136 0.046250026372341178 -0.31609890506443811 -0.086393297437812169 -0.18824073132621832 -0.070279273832103167 0.060433653798698111 -1.3460578370895209 -0.31671249295123211
leaf_weight=858.92130984498453 283.25702237617134 20.668448745680685 23.744442277412418 400.70957597644065 31.845224750242323 14.332485650200402 3443.1886807773335 4.4190273053497995 17.45493543243224
leaf_count=237679 351 824 3866 30933 3654 4083 8639 520 851
internal_value=0 0.0390979 0.0514832 -0.0252885 0.0556149 -0.202687 0.0581548 -0.344793 -0.524663
internal_weight=0 4239.62 3555.65 683.967 3498.78 56.8749 3475.03 36.2064 21.874
internal_count=291400 53721 22437 31284 16159 6278 12293 5454 1371
is_linear=0
shrinkage=0.07


Tree=16
num_leaves=10
num_cat=0
split_feature=4 12 30 21 41 29 29 28 4
split_gain=1524.99 525.242 404.369 441.413 370.069 303.484 311.069 280.631 257.913
threshold=115.85797966521069 124.99831021546352 42.812500000000007 1.0000000180025095e-35 0.91629518385720943 13.062500000000002 15.062500000000002 13.062500000000002 111.30211561560502
decision_type=2 2 2 2 2 2 2 2 2
left_child=1 8 3 4 -2 -3 -7 -4 -1
right_child=2 5 7 -5 -6 6 -8 -9 -10
leaf_value=-0.070628003918048979 -0.13567574468856466 -0.13374896578733342 -0.19887698336971379 0.069988638660642491 0.013543277704063852 0.0788389555455489 -0.022631737208773699 0.057276454324726417 -0.21020150669178969
leaf_weight=604.56607576250076 163.83343212718592 73.296782538640173 21.107687764597813 203.08794171354748 161.93236475513913 242.26997876881626 380.60240205192383 2937.0828691957945 72.670690186481806
leaf_count=232935 4400 11926 912 130 562 1659 29578 4301 4997
internal_value=0 -0.0417149 0.0453698 -0.0110074 -0.0615016 0.000981442 0.0168359 0.0554487 -0.0856049
internal_weight=0 1373.41 3487.04 528.854 325.766 696.169 622.872 2958.19 677.237
internal_count=291400 281095 10305 5092 4962 43163 31237 5213 237932
is_linear=0
shrinkage=0.07


Tree=17
num_leaves=10
num_cat=0
split_feature=4 12 30 21 41 30 29 29 31
split_gain=1387.11 488.8 374.486 398.55 327.746 269.192 290.188 251.265 313.82
threshold=115.85797966521069 124.99831021546352 42.812500000000007 1.0000000180025095e-35 0.91629518385720943 58.062500000000007 12.562500000000002 13.062500000000002 12.312500000000002
decision_type=2 2 2 2 2 2 2 2 2
left_child=1 -1 3 4 -2 -3 -7 -4 -9
right_child=2 5 7 -5 -6 6 -8 8 -10
leaf_value=-0.083929451492436219 -0.12872719170848604 -0.056578626949446618 -0.14088312973280939 0.069947183946888619 0.012723395865484304 -0.22151035981865416 0.047047231479819845 -0.28847038770086147 0.05848790278199726
leaf_weight=643.03034409852319 160.69836864038507 252.28229582982408 31.843050290144674 189.46624708895615 160.36011437333673 20.69872973037684 414.91322337756765 12.833394723818854 2753.6983525298638
leaf_count=237932 4400 30587 981 130 562 3648 8928 722 3510
internal_value=0 -0.0400529 0.0445697 -0.0105642 -0.0580764 0.000961993 0.0342863 0.0546281 0.0568784
internal_weight=0 1330.92 3308.9 510.525 321.058 687.894 435.612 2798.37 2766.53
internal_count=291400 281095 10305 5092 4962 43163 12576 5213 4232
is_linear=0
shrinkage=0.07


Tree=18
num_leaves=10
num_cat=0
split_feature=4 12 28 30 21 13 31 1 35
split_gain=1266.36 466.382 356.199 291.303 515.958 243.202 231 475.373 261.561
threshold=115.85797966521069 124.99831021546352 13.062500000000002 30.062500000000004 1.0000000180025095e-35 58.807746832733805 13.062500000000002 1895.5000000000002 10.500000000000002
decision_type=2 2 2 2 2 2 2 2 2
left_child=1 -1 -2 4 -4 -3 7 8 -5
right_child=2 5 3 6 -6 -7 -8 -9 -10
leaf_value=-0.083776371219122306 -0.068850354797619848 -0.021475789624555302 -0.12379834294702072 -0.18779210755879058 0.069823854018138426 0.079384286547290642 0.058223905104401431 0.03221470050939259 -0.85038088399512868
leaf_weight=600.62000132578771 131.8164825112699 527.09114390396951 126.43290696791883 6.5612454172469352 144.52401953392109 150.62053799117484 2692.0279624611103 34.265821304261408 5.2593961253569432
leaf_count=237932 2049 42031 3275 334 112 1132 3738 465 332
internal_value=0 -0.0388636 0.0437784 0.0487123 -0.0205234 0.000940231 0.0555636 -0.0998292 -0.4826
internal_weight=0 1278.33 3140.89 3009.07 270.957 677.712 2738.11 46.0865 11.8206
internal_count=291400 281095 10305 8256 3387 43163 4869 1131 666
is_linear=0
shrinkage=0.07


Tree=19
num_leaves=10
num_cat=0
split_feature=12 30 29 30 31 28 4 13 1
split_gain=1164.77 502.854 550.963 535.417 527.437 330.664 310.099 302.578 280.877
threshold=124.89375854344551 42.062500000000007 13.062500000000002 1.0000000180025095e-35 12.062500000000002 13.062500000000002 117.87029081158654 64.130782834550573 103.50000000000001
decision_type=2 2 2 2 2 2 2 2 2
left_child=6 3 7 -2 -4 -6 -1 -3 -5
right_child=1 2 4 8 5 -7 -8 -9 -10
leaf_value=-0.083792580308254358 0.059495773698932018 -0.26679256024522591 -0.27732461419475718 0.065287080049515236 -0.17608778943573083 0.0574142247320171 0.044373791491160504 0.070320610463570535 -0.10155718855899129
leaf_weight=584.0386948141379 238.79657257953704 41.602906442793937 23.604470983273586 58.801273366294481 30.034874892774951 2806.1425523557918 109.90919020752358 19.006289486307651 310.59631305388302
leaf_count=237283 351 6266 3866 372 3654 8639 396 12 30561
internal_value=0 0.0357134 0.0477726 -0.0221918 0.052199 0.0549415 -0.0634933 -0.161078 -0.0749987
internal_weight=0 3528.59 2920.39 608.194 2859.78 2836.18 693.948 60.6092 369.398
internal_count=291400 53721 22437 31284 16159 12293 237679 6278 30933
is_linear=0
shrinkage=0.07


Tree=20
num_leaves=10
num_cat=0
split_feature=12 30 29 30 31 28 4 13 1
split_gain=1067.82 460.246 494.725 484.94 462.684 302.629 287.685 257.728 251.393
threshold=124.89375854344551 42.062500000000007 13.062500000000002 1.0000000180025095e-35 12.062500000000002 13.062500000000002 120.07264218104947 64.130782834550573 103.50000000000001
decision_type=2 2 2 2 2 2 2 2 2
left_child=6 3 7 -2 -4 -6 -1 -3 -5
right_child=1 2 4 8 5 -7 -8 -9 -10
leaf_value=-0.080837000701667605 0.058794176946263675 -0.24847958970552583 -0.25632960229543961 0.064668742017971265 -0.17282832074967286 0.056438082664093274 0.055443663945131762 0.070250887795358263 -0.097687315591780746
leaf_weight=568.14586793082765 225.21662695636087 41.548724459118603 23.748427648222787 55.331987210987791 28.51392012395354 2660.0988872976013 87.603863226267435 17.73832183086779 300.66069125320109
leaf_count=237476 351 6266 3866 372 3654 8639 203 12 30561
internal_value=0 0.0350407 0.0469171 -0.0215947 0.0512894 0.0540066 -0.0626308 -0.153117 -0.0724523
internal_weight=0 3352.86 2771.65 581.209 2712.36 2688.61 655.75 59.287 355.993
internal_count=291400 53721 22437 31284 16159 12293 237679 6278 30933
is_linear=0
shrinkage=0.07


Tree=21
num_leaves=10
num_cat=0
split_feature=4 12 28 30 21 0 31 1 8
split_gain=990.788 380.176 285.929 232.242 397.815 208.894 191.169 272.292 190.892
threshold=115.85797966521069 124.99831021546352 13.062500000000002 30.062500000000004 1.0000000180025095e-35 89.500000000000014 13.062500000000002 2801.5000000000005 103.96324422236624
decision_type=2 2 2 2 2 2 2 2 2
left_child=1 -1 -2 4 -4 8 7 -5 -3
right_child=2 5 3 6 -6 -7 -8 -9 -10
leaf_value=-0.082466937211617866 -0.062388060131951327 -0.10068452397874245 -0.11230290960712293 -0.28216820269585607 0.069734175972813506 0.052002619420698816 0.056155594003088977 0.067234356038209514 0.0030081429426080616
leaf_weight=495.05243276380838 123.3989317721539 130.64934235965438 115.48228252156969 19.97182829183248 119.89819654343955 233.78922524499671 2290.546159119609 24.137475278839702 260.35002620085515
leaf_count=237932 2049 31630 3275 1077 112 4946 3738 54 6587
internal_value=0 -0.0366472 0.0416969 0.0466945 -0.0195768 -0.000341787 0.0533759 -0.0909683 -0.0316399
internal_weight=0 1119.84 2693.43 2570.04 235.38 624.789 2334.66 44.1093 390.999
internal_count=291400 281095 10305 8256 3387 43163 4869 1131 38217
is_linear=0
shrinkage=0.07


Tree=22
num_leaves=10
num_cat=0
split_feature=4 12 28 30 21 29 29 30 31
split_gain=903.709 357.111 258.266 212.642 362.357 192.434 226.345 186.577 173.615
threshold=115.85797966521069 124.99831021546352 13.062500000000002 30.062500000000004 1.0000000180025095e-35 13.062500000000002 15.062500000000002 1.0000000180025095e-35 13.062500000000002
decision_type=2 2 2 2 2 2 2 2 2
left_child=1 -1 7 4 -4 -3 -7 -2 -5
right_child=2 5 3 8 -6 6 -8 -9 -10
leaf_value=-0.081696427008141101 0.036013214057279419 -0.11424915437019081 -0.10884246151838958 -0.087210188900361488 0.069680620771099572 0.070755465031218059 -0.022063880660962487 -0.13538262834931292 0.055274314016091758
leaf_weight=465.79010054626599 57.312700220616819 64.95219023063953 110.9738840770965 42.728829785727612 111.87527738063363 207.5992258223651 338.86467996745199 68.098799172733095 2168.5499040205673
leaf_count=237932 60 11926 3275 1131 112 1659 29578 1989 3738
internal_value=0 -0.0355197 0.0409059 0.045953 -0.0192199 -0.000341213 0.0131978 -0.0570552 0.0525211
internal_weight=0 1077.21 2559.54 2434.13 222.849 611.416 546.464 125.411 2211.28
internal_count=291400 281095 10305 8256 3387 43163 31237 2049 4869
is_linear=0
shrinkage=0.07


Tree=23
num_leaves=10
num_cat=0
split_feature=12 30 29 30 31 28 4 1 0
split_gain=826.677 351.56 416.49 396.113 358.274 253.046 227.487 221.009 2281.35
threshold=124.89375854344551 42.062500000000007 13.062500000000002 1.0000000180025095e-35 12.062500000000002 13.062500000000002 117.87029081158654 91.500000000000014 84.500000000000014
decision_type=2 2 2 2 2 2 2 2 2
left_child=6 3 -3 -2 -4 -6 -1 8 -7
right_child=1 2 4 -5 5 7 -8 -9 -10
leaf_value=-0.080383714697981501 0.057369459311470049 -0.14009706126846769 -0.21693830364749542 -0.068670538422254623 -0.16648013606420795 0.0098975513904375756 0.039855876763894314 0.056038697679986621 -2.9632452309491306
leaf_weight=463.74050714962141 199.57338039460592 58.774676336346147 24.64325590022554 315.0609342141488 25.833612953593274 22.172686055186208 92.475120094292379 2272.8621968641528 1.3411002587527026
leaf_count=237283 351 6278 3866 30933 3654 594 396 7838 207
internal_value=0 0.0327185 0.0439522 -0.0197927 0.0485616 0.051379 -0.060393 0.0538299 -0.159675
internal_weight=0 2920.26 2405.63 514.634 2346.85 2322.21 556.216 2296.38 23.5138
internal_count=291400 53721 22437 31284 16159 12293 237679 8639 801
is_linear=0
shrinkage=0.07


Tree=24
num_leaves=10
num_cat=0
split_feature=4 12 28 30 21 30 16 29 30
split_gain=763.374 305.183 225.422 184.251 311.552 172.612 163.996 158.735 154.54
threshold=115.85797966521069 124.99831021546352 13.062500000000002 30.062500000000004 1.0000000180025095e-35 58.062500000000007 88.105771461964721 13.062500000000002 1.0000000180025095e-35
decision_type=2 2 2 2 2 2 2 2 2
left_child=1 -1 8 4 -4 6 -3 -7 -2
right_child=2 5 3 -5 -6 7 -8 -9 -10
leaf_value=-0.079600190379706184 0.032660349278701629 -0.11624203619153563 -0.10439701274853194 0.050791335685359706 0.069599011722939419 -0.1580307782416189 0.0061879117852421273 0.03909327914713024 -0.13042141859616779
leaf_weight=415.37711632024525 52.243853506166822 100.60496918046397 103.1966964661824 2007.0722142631435 98.608755906574515 21.233087842594443 114.77018186096393 349.35290598201863 62.575724907595152
leaf_count=237932 60 27531 3275 4869 112 3784 3056 8792 1989
internal_value=0 -0.0337015 0.0394099 0.0443807 -0.0193769 -0.0011647 -0.051001 0.0277989 -0.0562179
internal_weight=0 1001.34 2323.7 2208.88 201.805 585.961 215.375 370.586 114.82
internal_count=291400 281095 10305 8256 3387 43163 30587 12576 2049
is_linear=0
shrinkage=0.07


Tree=25
num_leaves=10
num_cat=0
split_feature=4 12 28 30 21 31 31 2 4
split_gain=694.191 283.418 205.57 167.245 285.437 166.389 178.341 160.863 168.084
threshold=115.85797966521069 124.99831021546352 13.062500000000002 30.062500000000004 1.0000000180025095e-35 30.062500000000004 12.312500000000002 201.45596713923553 113.49271225606218
decision_type=2 2 2 2 2 2 2 2 2
left_child=1 7 -2 4 -4 6 -3 8 -1
right_child=2 5 3 -5 -6 -7 -8 -9 -10
leaf_value=-0.077947592666801721 -0.054809672347499602 -0.087612151561010224 -0.10194244738449178 0.049685353701993208 0.06953773426410928 -0.058341563181753105 0.043400937422324273 0.066848550917633004 -0.25441168074974646
leaf_weight=330.76354572542414 109.7714959947798 59.894301095344815 98.453027044148712 1911.5725792682756 92.020408207084984 173.54465792350243 339.47472630793419 34.183187955663016 28.747795648740066
leaf_count=235460 2049 10157 3275 4869 112 22326 10680 964 1508
internal_value=0 -0.0325362 0.038576 0.0434527 -0.0190979 -0.00111503 0.0237526 -0.0782609 -0.0920583
internal_weight=0 966.608 2211.82 2102.05 190.473 572.914 399.369 393.695 359.511
internal_count=291400 281095 10305 8256 3387 43163 20837 237932 236968
is_linear=0
shrinkage=0.07


Tree=26
num_leaves=10
num_cat=0
split_feature=12 31 29 30 21 30 28 1 1
split_gain=632.997 271.844 242.076 222.132 246.559 219.044 216.553 213.363 203.34
threshold=124.89375854344551 13.062500000000002 13.062500000000002 42.062500000000007 1.0000000180025095e-35 42.812500000000007 13.062500000000002 103.50000000000001 91.500000000000014
decision_type=2 2 2 2 2 2 2 2 2
left_child=-1 -2 5 4 7 -3 -5 -4 -8
right_child=1 2 3 6 -6 -7 8 -9 -10
leaf_value=-0.057511954710237137 -0.054870213970083834 0.00078338540558588524 0.06593804402187381 -0.16297975948253199 0.070159633387922873 -0.20883425727706284 -0.15301328182849647 -0.11063275563181386 0.054394493775417871
leaf_weight=478.01008898586315 171.76398486115977 81.135778695170984 44.706530735709748 23.241295324884959 101.32706306223554 34.949048023215482 23.438789600491873 134.17654301246239 1958.8895929014543
leaf_count=237679 13229 6628 265 3542 117 4923 793 16734 7490
internal_value=0 0.030203 0.0362869 0.0412949 -0.017085 -0.0623251 0.0494515 -0.0665041 0.0519421
internal_weight=0 2573.63 2401.86 2285.78 280.21 116.085 2005.57 178.883 1982.33
internal_count=291400 53721 40492 28941 17116 11551 11825 16999 8283
is_linear=0
shrinkage=0.07


Tree=27
num_leaves=10
num_cat=0
split_feature=4 12 2 31 13 8 4 28 21
split_gain=596.771 290.815 142.646 137.404 130.378 211.623 125.614 115.427 132.993
threshold=117.87029081158654 126.67205693552502 201.45596713923553 13.062500000000002 58.807746832733805 103.96324422236624 111.30211561560502 13.062500000000002 1.0000000180025095e-35
decision_type=2 2 2 2 2 2 2 2 2
left_child=1 2 -1 -2 5 -3 -7 8 -5
right_child=3 4 -4 7 -6 6 -8 -9 -10
leaf_value=-0.083206578024109343 -0.039091955055815704 -0.10126578621319332 0.06608149975358453 -0.12791482083694689 0.066935208572947144 -0.08492810924590001 0.029645890404464838 0.047071057722227069 0.070235296091008093
leaf_weight=392.74887726168299 104.22466112025495 103.14055664503587 34.083714288164629 39.982107640007371 128.23360661724928 55.256203437285876 309.60166767335761 1739.8563791046286 28.376948952674866
leaf_count=250986 2130 22334 1013 1413 786 5937 1169 5615 17
internal_value=0 -0.0271758 -0.0712855 0.0390607 0.00440155 -0.0127329 0.0122941 0.0435654 -0.0456595
internal_weight=0 1023.06 426.833 1912.44 596.232 467.998 364.858 1808.22 68.3591
internal_count=291400 282225 251999 9175 30226 29440 7106 7045 1430
is_linear=0
shrinkage=0.07


Tree=28
num_leaves=10
num_cat=0
split_feature=4 12 2 8 8 30 21 28 1
split_gain=538.58 273.514 141.057 139.234 132.506 125.386 250.747 194.35 122.48
threshold=117.87029081158654 124.99831021546352 201.45596713923553 100.74388078766408 100.76486772207126 30.062500000000004 1.0000000180025095e-35 13.062500000000002 91.500000000000014
decision_type=2 2 2 2 2 2 2 2 2
left_child=1 2 -1 -3 -5 6 -2 -7 -9
right_child=5 3 -4 4 -6 7 -8 8 -10
leaf_value=-0.087937217024969885 -0.077785932613904679 -0.1123331745137576 0.065442287553000758 0.090299445741517395 -0.0027995375233467695 -0.14289020020363002 0.069597676411025863 -0.092994398076208545 0.050619643614565467
leaf_weight=332.24181490199635 124.23945566343468 48.210625286518507 32.230470873102604 88.50833095123653 487.57593953456785 26.593839184524086 103.83826745154511 29.654126067692459 1552.4455926679846
leaf_count=237427 3532 16350 965 158 27325 1111 125 205 4202
internal_value=0 -0.0261898 -0.0743738 0.00194077 0.011504 0.0378868 -0.0106857 0.0447733 0.0479278
internal_weight=0 988.767 364.472 624.295 576.084 1836.77 228.078 1608.69 1582.1
internal_count=291400 282225 238392 43833 27483 9175 3657 5518 4407
is_linear=0
shrinkage=0.07


Tree=29
num_leaves=10
num_cat=0
split_feature=4 12 31 2 0 8 28 21 30
split_gain=491.118 223.069 152.131 136.187 131.775 142.662 127.365 129.681 116.408
threshold=115.85797966521069 124.99831021546352 13.062500000000002 201.45596713923553 89.500000000000014 103.96324422236624 13.062500000000002 1.0000000180025095e-35 30.062500000000004
decision_type=2 2 2 2 2 2 2 2 2
left_child=1 3 -2 -1 5 -3 7 -4 -8
right_child=2 4 6 -5 -6 -7 8 -9 -10
leaf_value=-0.091188909250412523 -0.043951488403567752 -0.097508786554431334 -0.13350046447146224 0.064219867875334249 0.044567331930520267 0.001718159542165328 -0.019497487387476236 0.070204589113765509 0.049062867864769127
leaf_weight=283.522816112996 112.40593184928434 101.24447684677756 40.307542947774664 30.613353383239883 192.74815946154911 237.65138569603431 131.5687393197004 24.695443868637085 1562.0279866545159
leaf_count=236968 2401 31630 1631 964 4946 6587 2518 17 3738
internal_value=0 -0.0292769 0.0349997 -0.0760439 -0.00164326 -0.0279257 0.040046 -0.0561104 0.0437367
internal_weight=0 845.78 1871.01 314.136 531.644 338.896 1758.6 65.003 1693.6
internal_count=291400 281095 10305 237932 43163 38217 7904 1648 6256
is_linear=0
shrinkage=0.07


Tree=30
num_leaves=10
num_cat=0
split_feature=4 12 31 31 8 2 33 31 3
split_gain=445.913 241.886 126.423 150.257 139.057 121.269 107.877 105.542 165.19
threshold=117.87029081158654 124.99831021546352 30.062500000000004 12.312500000000002 104.27618122012682 201.45596713923553 1.0000000180025095e-35 13.062500000000002 329.91676089267509
decision_type=2 2 2 2 2 2 2 2 2
left_child=1 5 3 -3 -4 -1 -5 8 -2
right_child=7 2 4 6 -6 -7 -8 -9 -10
leaf_value=-0.086880481464165576 -11.662710804316257 -0.074554249319550195 -0.1383483469146719 0.048684129125073167 -0.0070597861452814971 0.062860417026037479 -0.17033442991638917 0.040515594435991155 -0.030925488519737622
leaf_weight=293.77947919705161 0.0059829100609637411 64.750085942151941 55.864525104056753 337.93854725073766 135.20141440341828 29.128689645265695 11.390944247618107 1578.9756175264001 106.17777096444505
leaf_count=237427 4 10307 18870 7381 3799 965 3476 7045 2126
internal_value=0 -0.0244505 0.00165468 0.0233882 -0.0454464 -0.0733728 0.0415424 0.0359727 -0.0315809
internal_weight=0 928.054 605.146 414.08 191.066 322.908 349.329 1685.16 106.184
internal_count=291400 282225 43833 21164 22669 238392 10857 9175 2130
is_linear=0
shrinkage=0.07


Tree=31
num_leaves=10
num_cat=0
split_feature=12 30 37 1 0 4 30 30 29
split_gain=406.263 249.686 214.312 119.106 952.931 172.669 141.235 260.586 143.499
threshold=133.60550448251152 58.062500000000007 0.70710678118655479 91.500000000000014 84.500000000000014 115.85797966521069 43.187500000000007 1.0000000180025095e-35 13.062500000000002
decision_type=2 2 2 2 2 2 2 2 2
left_child=1 -1 -3 4 -2 -6 7 -5 -8
right_child=3 2 -4 6 5 -7 8 -9 -10
leaf_value=-0.077999910588267135 0.0075914118337166497 -0.066509127691412609 0.042321033120990385 0.058836315096328397 -0.38700386540071696 -1.7469173877394253 -0.075456442639229668 -0.062803281351121412 0.0476806230720885
leaf_weight=310.72695531018456 30.216393244377059 133.51773714663835 263.92307479533849 161.45720858499379 0.60399610403692294 1.8861704021692274 47.971121509185195 185.38291209285541 1392.1690633258104
leaf_count=194883 362 63553 16973 202 40 63 1458 8769 5097
internal_value=0 -0.0309917 0.00576023 0.0314984 -0.100877 -1.41707 0.0339213 -0.00617895 0.0435789
internal_weight=0 708.168 397.441 1819.69 32.7066 2.49017 1786.98 346.84 1440.14
internal_count=291400 275409 80526 15991 465 103 15526 8971 6555
is_linear=0
shrinkage=0.07


Tree=32
num_leaves=10
num_cat=0
split_feature=4 14 30 30 28 12 15 31 1
split_gain=383.154 186.845 154.022 279.006 242.037 147.551 138.036 123.165 266.517
threshold=114.47301779768168 148.60601980747802 30.062500000000004 1.0000000180025095e-35 13.062500000000002 140.71426697074352 343.0530470350746 13.062500000000002 2801.5000000000005
decision_type=2 2 2 2 2 2 2 2 2
left_child=1 5 3 -2 -4 -1 -3 8 -6
right_child=2 6 4 -5 7 -7 -8 -9 -10
leaf_value=-0.085125697160575525 0.051358691340922184 0.052944667280053814 -0.15113119089550517 -0.096919444691886736 -0.23548454408713865 0.0098851658690465756 -0.080863990691054141 0.045845542332099511 0.068377796905489369
leaf_weight=310.23112125326139 126.82808893058225 157.01031800159376 32.493182324839836 121.98830256378048 24.20677436806227 107.96623651705886 49.744728756880647 1481.9468954067152 34.023596001468832
leaf_count=229266 187 17758 1446 4546 1207 2322 30586 4024 58
internal_value=0 -0.0336843 0.0298365 -0.0213383 0.037933 -0.0605967 0.0207507 0.0419217 -0.0579399
internal_weight=0 624.952 1821.49 248.816 1572.67 418.197 206.755 1540.18 58.2304
internal_count=291400 279932 11468 4733 6735 231588 48344 5289 1265
is_linear=0
shrinkage=0.07


Tree=33
num_leaves=10
num_cat=0
split_feature=4 12 8 8 2 4 28 30 28
split_gain=350.973 201.492 109.086 103.527 101.576 98.1019 87.1847 94.0464 92.8198
threshold=117.87029081158654 124.99831021546352 100.74388078766408 100.76486772207126 201.45596713923553 111.73601379974019 13.062500000000002 1.0000000180025095e-35 105.68750000000001
decision_type=2 2 2 2 2 2 2 2 2
left_child=1 4 -3 -4 -1 -5 7 -2 -8
right_child=6 2 3 5 -6 -7 8 -9 -10
leaf_value=-0.085595737602277774 0.032158643422908653 -0.11482375978790067 0.08528976266329133 -0.060823771998278472 0.061080365017855909 0.015261693471242632 0.043333577601829314 -0.11855843662891441 -0.01566171898414882
leaf_weight=251.06669834659499 44.203833033330874 37.201519149890601 75.089892924106607 110.31216079220127 25.48304249487046 335.83195088039616 1285.5708656612483 37.494335627036527 145.46423385494177
leaf_count=237427 56 16350 158 25401 965 1924 6212 1736 1171
internal_value=0 -0.0232162 0.000982286 0.0092476 -0.0720801 -0.00355095 0.0333214 -0.037011 0.0373367
internal_weight=0 834.985 558.436 521.234 276.55 446.144 1512.73 81.6982 1431.04
internal_count=291400 282225 43833 27483 238392 27325 9175 1792 7383
is_linear=0
shrinkage=0.07


Tree=34
num_leaves=10
num_cat=0
split_feature=4 12 31 8 31 2 41 28 1
split_gain=314.518 185.64 104.616 127.347 120.258 92.6648 91.1982 91.1248 98.0605
threshold=117.87029081158654 124.99831021546352 30.062500000000004 104.27618122012682 13.062500000000002 201.45596713923553 0.99990161119634247 211.56250000000003 330.50000000000006
decision_type=2 2 2 2 2 2 2 2 2
left_child=1 5 4 -4 6 -1 -3 -5 -9
right_child=-2 2 3 7 -6 -7 -8 8 -10
leaf_value=-0.083802351982704401 0.032095668553410006 -0.12634153091940206 -0.14481311328542931 -0.0035215802191245807 0.04020777077953868 0.059673011567747097 0.04193190965480826 -1.718958242385467 -0.15751411248425498
leaf_weight=238.92924348377437 1462.5853001598625 41.985235998220503 45.35744171170677 127.32847837143873 308.35737249308704 24.30091010094111 25.286381754907779 0.31170851329807092 0.53589994955200382
leaf_count=237427 9175 10854 18870 3743 10199 965 111 22 34
internal_value=0 -0.0222251 0.000941824 -0.0440086 0.0217081 -0.070557 -0.0630901 -0.00833715 -0.731736
internal_weight=0 812.393 549.163 173.534 375.629 263.23 67.2716 128.176 0.847608
internal_count=291400 282225 43833 22669 21164 238392 10965 3799 56
is_linear=0
shrinkage=0.07


Tree=35
num_leaves=10
num_cat=0
split_feature=12 30 36 29 31 30 30 1 7
split_gain=284.499 196.717 172.518 119.489 96.5386 95.9319 206.26 155.985 560.496
threshold=133.60550448251152 58.062500000000007 -0.70710678118644643 13.062500000000002 13.062500000000002 43.187500000000007 1.0000000180025095e-35 91.500000000000014 364.75553866512564
decision_type=2 2 2 2 2 2 2 2 2
left_child=1 -1 -3 -4 -5 6 -2 8 -7
right_child=5 2 3 4 -6 7 -8 -9 -10
leaf_value=-0.074656571677008343 0.057048832910835817 -0.13582524388555908 -0.14365339612623587 -0.13579379197850791 0.043325087717091759 -8.080686983242817 -0.056283116859276665 0.03976977919109749 -0.12011778296445107
leaf_weight=259.74706689700957 140.06163691775834 37.703536250898253 19.835263556298628 15.567465901031936 278.72192913412982 0.043411565012958842 179.57258575376062 1253.7675314869559 25.973224038238005
leaf_count=194883 204 29150 14953 10553 25870 9 8835 6555 388
internal_value=0 -0.0284522 0.00565956 0.0226416 0.03385 0.0276819 -0.00662179 0.0362494 -0.133401
internal_weight=0 611.575 351.828 314.125 294.289 1599.42 319.634 1279.78 26.0166
internal_count=291400 275409 80526 51376 36423 15991 9039 6952 397
is_linear=0
shrinkage=0.07


Tree=36
num_leaves=10
num_cat=0
split_feature=4 12 31 29 30 41 31 29 35
split_gain=267.622 150.298 114.212 99.8532 156.799 118.102 176.15 128.624 96.285
threshold=115.85797966521069 124.99831021546352 13.062500000000002 13.062500000000002 39.062500000000007 0.98272745276227258 53.062500000000007 39.812500000000007 2.5000000000000004
decision_type=2 2 2 2 2 2 2 2 2
left_child=1 -1 -2 4 -4 -5 -7 -8 -3
right_child=2 8 3 5 -6 6 7 -9 -10
leaf_value=-0.074810067140329714 -0.044283544076938262 0.053844846822990719 0.014991388440257221 0.042505613957045239 -0.21579401485260014 0.015930093109335606 0.053787629653652164 -0.37946071226731048 -0.021285166807326793
leaf_weight=206.76421859918571 99.226798971262269 111.11300872651049 55.316101884309411 1252.8092375956724 19.514144017039278 42.789863962962045 4.7226644217716993 11.617641701281171 337.37706654034554
leaf_count=237932 2401 4153 930 5764 799 211 32 168 39010
internal_value=0 -0.0254349 0.0282657 0.0334568 -0.0451926 0.0379428 -0.058731 -0.254244 -0.00267177
internal_weight=0 655.254 1486 1386.77 74.8302 1311.94 59.1302 16.3403 448.49
internal_count=291400 281095 10305 7904 1729 6175 411 200 43163
is_linear=0
shrinkage=0.07


Tree=37
num_leaves=10
num_cat=0
split_feature=30 30 17 8 27 0 4 31 28
split_gain=246.81 282.237 441.52 1131.55 252.128 5082.21 7981.79 220.67 2309.69
threshold=58.062500000000007 45.187500000000007 22.020384567746856 120.7963130061472 1.0000000180025095e-35 21.500000000000004 115.85797966521069 136.56250000000003 227.43750000000003
decision_type=2 2 2 2 2 2 2 2 2
left_child=1 -1 3 -3 -4 6 -6 -2 -9
right_child=7 2 4 -5 5 -7 -8 8 -10
leaf_value=-0.0071511151566948017 0.038045283445281179 -0.070034705590228424 -0.14011228088817931 -22.416270913141894 -0.070176747781133225 -0.2718962710084733 -62.496340925517138 -0.044506481485170633 -3.755294099158704
leaf_weight=762.91478601230313 1191.798669155354 0.038738994227918933 57.837635818301429 0.015564804780296981 0.024966480705187588 1.0762682392877136 0.016782165155746043 74.705744546833785 0.83104116076537948
leaf_count=181080 74752 80 24044 5 39 417 15 10264 704
internal_value=0 -0.0185592 -0.16605 -6.47502 -0.160239 -1.20142 -25.1643 0.0306917 -0.0853319
internal_weight=0 821.925 59.01 0.0543038 58.9557 1.11802 0.0417486 1267.34 75.5368
internal_count=291400 205680 24600 85 24515 471 54 85720 10968
is_linear=0
shrinkage=0.07


Tree=38
num_leaves=10
num_cat=0
split_feature=12 36 30 31 28 28 41 30 28
split_gain=251.72 173.53 169.762 113.508 97.0924 90.0895 142.247 141.83 223.803
threshold=133.60550448251152 -0.70710678118632997 34.937500000000007 13.062500000000002 13.062500000000002 105.68750000000001 0.95841076886716736 74.062500000000014 145.18750000000003
decision_type=2 2 2 2 2 2 2 2 2
left_child=1 -1 -3 -4 -5 -2 7 8 -7
right_child=5 2 3 4 -6 6 -8 -9 -10
leaf_value=-0.11312541508435735 0.032340849456669193 -0.095047302039943701 -0.12415964249418598 -0.12752428228448609 0.030630158698236737 -0.400410091721426 -0.23823671452948497 0.06358803702511398 -0.026230487598885861
leaf_weight=97.792352525620572 1338.1347697247456 93.420337483645142 28.390578384298863 20.196235469346107 326.68243727682977 9.0675130983684067 13.840481050360266 74.085690753239305 57.508214085180043
leaf_count=103179 14047 90948 22812 18520 39950 588 304 418 634
internal_value=0 -0.0283086 -0.0106115 0.0104082 0.021422 0.0264973 -0.0241132 -0.00304439 -0.0771932
internal_weight=0 566.482 468.69 375.269 346.879 1492.64 154.502 140.661 66.5757
internal_count=291400 275409 172230 81282 58470 15991 1944 1640 1222
is_linear=0
shrinkage=0.07


Tree=39
num_leaves=10
num_cat=0
split_feature=4 12 8 30 21 28 2 8 28
split_gain=226.849 133.766 85.8838 85.4488 178.925 137.747 82.1022 81.0596 79.4058
threshold=117.87029081158654 124.99831021546352 100.74388078766408 30.062500000000004 1.0000000180025095e-35 13.062500000000002 190.37652204421451 100.76486772207126 109.18750000000001
decision_type=2 2 2 2 2 2 2 2 2
left_child=1 6 -3 4 -2 -5 -1 -4 -7
right_child=3 2 7 5 -6 8 -8 -9 -10
leaf_value=-0.084525820410206481 -0.073412294083166379 -0.11461250334755448 0.081301676661778927 -0.13980753608915769 0.069313800123128363 0.045618966340107675 0.040596204056008896 -0.0048367922624652357 -0.016096087281399506
leaf_weight=184.26077498947558 107.72484626206301 30.531292431332702 61.709325150549375 21.492696486931663 71.674435149583587 973.9947579307576 29.861565928179516 403.92398762132439 114.12653816191698
leaf_count=231746 3532 16350 158 1111 125 3612 6646 27325 795
internal_value=0 -0.0208344 -0.000878524 0.028433 -0.0163897 0.0356798 -0.0670763 0.00657894 0.039146
internal_weight=0 710.287 496.165 1289.01 179.399 1109.61 214.122 465.633 1088.12
internal_count=291400 282225 43833 9175 3657 5518 238392 27483 4407
is_linear=0
shrinkage=0.07


Tree=40
num_leaves=10
num_cat=0
split_feature=31 29 28 30 41 21 30 12 12
split_gain=213.003 250.99 209.738 214.869 161.131 141.713 140.203 132.182 366.771
threshold=13.062500000000002 13.062500000000002 13.062500000000002 30.062500000000004 0.99849442579865444 1.0000000180025095e-35 1.0000000180025095e-35 134.54997316799253 132.69034904404404
decision_type=2 2 2 2 2 2 2 2 2
left_child=4 -2 6 5 -1 -4 -3 8 -6
right_child=1 2 3 -5 7 -7 -8 -9 -10
leaf_value=-0.1055322658328765 -0.073370901191447235 0.06981472355485846 -0.09409499053639854 0.040660865755848846 -0.25237652326715554 0.069852513088111676 -0.12409981540936652 0.046661647643391618 -3.8434839751190917
leaf_weight=126.938709410716 134.95947184997317 24.56663936934649 100.27877614225372 1375.6951206970966 2.8836608821839032 34.799580973106458 71.277855022889185 67.581292223298533 0.14643533789785568
leaf_count=72941 64591 114 61049 44108 868 192 47436 85 16
internal_value=0 0.0183164 0.0260184 0.0323887 -0.0583815 -0.051858 -0.0743961 0.0263819 -0.425924
internal_weight=0 1741.58 1606.62 1510.77 197.55 135.078 95.8445 70.6114 3.0301
internal_count=291400 217490 152899 105349 73910 61241 47550 969 884
is_linear=0
shrinkage=0.07


Tree=41
num_leaves=10
num_cat=0
split_feature=12 37 30 8 4 31 28 41 30
split_gain=196.165 153.795 122.505 92.4267 78.6404 76.5574 73.5181 103.608 140.015
threshold=133.60550448251152 0.70710678118655479 34.937500000000007 104.48916475085737 111.73601379974019 13.062500000000002 105.68750000000001 0.96793778302406419 74.062500000000014
decision_type=2 2 2 2 2 2 2 2 2
left_child=1 3 -3 -1 -2 -4 -6 8 -8
right_child=4 2 5 -5 6 -7 7 -9 -10
leaf_value=-0.10004023320659182 -0.050524420491112998 -0.10125272719679246 -0.13077529418200934 0.0043181128270995302 0.033537635838402906 0.034514147345058192 -0.080841828227291745 -0.2116191430856478 0.067748599541453222
leaf_weight=156.34327832765698 66.006897302497691 44.454569298362429 14.581866611329131 56.654635401276067 1160.1299351505929 235.23258136624062 58.022773010298579 12.63376739046589 66.901706293484722
leaf_count=210727 6717 33026 8163 3483 8095 20010 713 151 315
internal_value=0 -0.0269783 0.00581358 -0.0722823 0.0240093 0.0248661 0.0278004 -0.0205856 -0.00126613
internal_weight=0 507.267 294.269 212.998 1363.7 249.814 1297.69 137.558 124.924
internal_count=291400 275409 61199 214210 15991 28173 9274 1179 1028
is_linear=0
shrinkage=0.07


Tree=42
num_leaves=10
num_cat=0
split_feature=31 29 28 30 41 30 21 30 28
split_gain=181.33 214.065 190.624 184.736 140.946 131.48 128.328 128.126 114.713
threshold=13.062500000000002 13.062500000000002 13.062500000000002 30.062500000000004 0.99849442579865444 39.062500000000007 1.0000000180025095e-35 1.0000000180025095e-35 105.68750000000001
decision_type=2 2 2 2 2 2 2 2 2
left_child=4 5 7 6 -1 -2 -4 -3 -5
right_child=1 2 3 8 -6 -7 -8 -9 -10
leaf_value=-0.10112988573289394 -0.011512021067158949 0.069744463357273079 -0.093113213905808567 0.045914535117353397 0.025867768152067261 -0.15407477235789274 0.069826991048734244 -0.12501501632658854 -0.021652011236150223
leaf_weight=119.67001905715779 79.798599614261207 22.177238067135889 91.469049350234855 1154.808926867197 66.681551987705006 52.589386963698075 31.959732268072003 65.246962252194677 137.81929312300417
leaf_count=72941 34594 114 61049 34297 969 29997 192 47436 9811
internal_value=0 0.0171907 0.0247047 0.0308979 -0.0556867 -0.0681432 -0.0509227 -0.0756096 0.0387106
internal_weight=0 1635.87 1503.48 1416.06 186.352 132.388 123.429 87.4242 1292.63
internal_count=291400 217490 152899 105349 73910 64591 61241 47550 44108
is_linear=0
shrinkage=0.07


Tree=43
num_leaves=10
num_cat=0
split_feature=12 36 30 31 31 31 31 31 28
split_gain=165.48 144.69 120.549 75.7886 83.0673 69.5611 117.843 94.0364 416.663
threshold=133.60550448251152 -0.70710678118632997 34.937500000000007 13.062500000000002 58.937500000000007 13.062500000000002 0.81250000000000011 30.062500000000004 211.56250000000003
decision_type=2 2 2 2 2 2 2 2 2
left_child=1 -1 -3 -4 -5 6 -2 -7 -9
right_child=5 2 3 4 -6 7 -8 8 -10
leaf_value=-0.11464110222193147 0.029430744080299318 -0.093437577622256046 -0.11445000018249742 0.032436731678777052 -0.074159835471575411 0.046029830468484446 -0.10921539132291302 0.0115518263815396 -0.69538924131764923
leaf_weight=75.887589473496121 73.244986163428607 68.630231188629352 22.804137167232454 262.10370820502942 41.491737714463 629.26720280640552 50.923744196352587 530.96627835821687 4.1168904403939441
leaf_count=103179 357 90948 22812 33614 24856 4153 3496 7861 124
internal_value=0 -0.0261142 -0.00910769 0.00862389 0.0178684 0.0223744 -0.0274304 0.0276857 0.00611267
internal_weight=0 470.917 395.03 326.4 303.595 1288.52 124.169 1164.35 535.083
internal_count=291400 275409 172230 81282 58470 15991 3853 12138 7985
is_linear=0
shrinkage=0.07


Tree=44
num_leaves=10
num_cat=0
split_feature=28 29 31 1 30 30 12 15 6
split_gain=152.587 171.639 173.143 160.838 160.345 134.07 128.577 348.425 131.162
threshold=13.062500000000002 13.062500000000002 13.062500000000002 2912.5000000000005 30.062500000000004 1.0000000180025095e-35 138.23781375914203 286.52001536994413 164.84630733754133
decision_type=2 2 2 2 2 2 2 2 2
left_child=5 3 -3 -2 -4 6 7 -1 -9
right_child=1 2 4 -5 -6 -7 -8 8 -10
leaf_value=-8.9978494374954092 -0.097164587441859129 -0.070538044596472324 -0.050678353148307993 0.067346008488716094 0.036609299203775668 -0.11640525931083852 0.046288376908730826 -5.3437103823000518 -0.34535875090847268
leaf_weight=0.023352691729513153 114.09188925194258 91.112271530006637 112.67056648145581 39.100213582278229 1216.6346322139539 84.654498544595555 52.640931892674416 0.026025992854556868 2.2225969856554002
leaf_count=22 65981 47780 61241 85 44108 71691 58 16 418
internal_value=0 0.0152203 0.0228125 -0.0551755 0.0292109 -0.0611486 0.0240357 -0.491551 -0.403211
internal_weight=0 1573.61 1420.42 153.192 1329.31 139.567 54.9129 2.27198 2.24862
internal_count=291400 219195 153129 66066 105349 72205 514 456 434
is_linear=0
shrinkage=0.07


Tree=45
num_leaves=10
num_cat=0
split_feature=4 31 31 8 33 30 16 28 28
split_gain=145.302 100.435 119.943 98.2493 77.1672 66.0647 58.6869 56.7341 52.9872
threshold=117.87029081158654 30.062500000000004 12.312500000000002 104.27618122012682 1.0000000180025095e-35 58.062500000000007 84.470988899894778 27.812500000000004 105.68750000000001
decision_type=2 2 2 2 2 2 2 2 2
left_child=1 2 -1 -3 5 6 -4 -7 -2
right_child=8 3 4 -5 -6 7 -8 -9 -10
leaf_value=-0.072204714514210802 0.029771752104039421 -0.1107405452892652 -0.11663643596903144 -0.013633061598909051 -0.13531804728109614 -0.065467053724877003 0.016309818653433755 0.061642277779169155 -0.019007966425195016
leaf_weight=83.624144375333913 948.90040298386907 95.110732193775732 23.885267680041068 110.21128480023953 14.45095426217557 18.882126144421221 51.029907893976002 193.85765682038618 123.29370226334868
leaf_count=67742 8004 141841 25041 5237 22347 6129 7390 6498 1171
internal_value=0 -0.0190653 0.00198723 -0.0586159 0.0225239 0.0304534 -0.0260775 0.0503604 0.0241625
internal_weight=0 591.052 385.73 205.322 302.106 287.655 74.9152 212.74 1072.19
internal_count=291400 282225 135147 147078 67405 45058 32431 12627 9175
is_linear=0
shrinkage=0.07


Tree=46
num_leaves=10
num_cat=0
split_feature=12 36 30 28 4 38 41 31 28
split_gain=130.499 137.451 112.236 71.7064 70.0232 89.6031 92.0558 65.3925 61.9204
threshold=135.73550570335252 -0.70710678118646442 34.937500000000007 13.062500000000002 110.93056546454751 0.70710678118655612 0.99990161119634247 13.062500000000002 105.68750000000001
decision_type=2 2 2 2 2 2 2 2 2
left_child=1 -1 -3 -4 5 6 -2 -5 -6
right_child=4 2 3 7 8 -7 -8 -9 -10
leaf_value=-0.10909790745479608 -0.17515028413250039 -0.091900771063318829 -0.12270167860922167 -0.11119438461238482 0.030517769599736552 0.017740469393798343 -1.6866747601190322 0.025088251709246438 -0.021974458570698963
leaf_weight=75.214342048546428 16.531574110552359 63.089190217820544 18.943289852246323 18.282321039164913 977.59288188051187 24.050790033901421 0.19981810645549458 306.17072487347878 124.09045366991381
leaf_count=98239 3603 95000 23816 19176 7735 1223 12 41466 1130
internal_value=0 -0.0221708 -0.00608613 0.00967985 0.0212709 -0.0688013 -0.193202 0.017409 0.0246052
internal_weight=0 481.7 406.486 343.396 1142.47 40.7822 16.7314 324.453 1101.68
internal_count=291400 277697 179458 84458 13703 4838 3615 60642 8865
is_linear=0
shrinkage=0.07


Tree=47
num_leaves=10
num_cat=0
split_feature=8 37 28 30 29 1 30 31 30
split_gain=120.924 107.136 95.468 135.198 115.999 128.005 116.74 104.275 106.3
threshold=100.65190462726437 0.85355339059338264 13.062500000000002 1.0000000180025095e-35 13.062500000000002 2912.5000000000005 1.0000000180025095e-35 13.062500000000002 30.062500000000004
decision_type=2 2 2 2 2 2 2 2 2
left_child=1 -1 3 -2 5 6 -4 -6 -9
right_child=2 -3 4 -5 7 -7 -8 8 -10
leaf_value=-0.1127117891218071 0.034694091456923017 0.0091174865642332792 0.069811453960344716 -0.12185640799368436 -0.056866956738182893 0.068495527112944474 -0.13017416981079583 -0.041612843208916193 0.037102758582908513
leaf_weight=73.078083792335661 50.515217280119749 68.545140251279321 17.906739395881075 58.142744287185415 70.552206613753469 34.755725315801101 71.062372165165172 91.357874656463309 1052.9006344775366
leaf_count=152784 238 21996 64 28202 18826 38 26629 24337 18286
internal_value=0 -0.0537468 0.0140268 -0.0490759 0.0191493 -0.0454216 -0.0899232 0.0257256 0.0308181
internal_weight=0 141.623 1447.19 108.658 1338.54 123.725 88.9691 1214.81 1144.26
internal_count=291400 174780 116620 28440 88180 26731 26693 61449 42623
is_linear=0
shrinkage=0.07


Tree=48
num_leaves=10
num_cat=0
split_feature=28 29 1 31 30 30 21 21 28
split_gain=109.444 131.26 125.137 123.32 118.359 115.013 114.115 102.049 95.25
threshold=13.062500000000002 13.062500000000002 2912.5000000000005 13.062500000000002 1.0000000180025095e-35 30.062500000000004 1.0000000180025095e-35 1.0000000180025095e-35 105.68750000000001
decision_type=2 2 2 2 2 2 2 2 2
left_child=4 2 7 -3 -1 6 -5 -2 -7
right_child=1 3 -4 5 -6 8 -8 -9 -10
leaf_value=0.026173677347325067 -0.12110548641204751 -0.060323670547241089 0.066816021953387206 -0.091041329095412821 -0.11447586747617441 0.040354161823511932 0.06988016661460314 0.066855886187671423 -0.022977412287953566
leaf_weight=50.016289324831277 86.099938882693095 87.155813731228818 32.780386496844585 74.152383137066863 70.84051522027643 957.36284778985544 30.463682635488567 16.938047402208213 132.46527763430106
leaf_count=514 65831 47780 85 61049 71691 34297 192 150 9811
internal_value=0 0.0131264 -0.0523089 0.020061 -0.0562684 0.0259265 -0.0441818 -0.0902072 0.0326564
internal_weight=0 1417.42 135.818 1281.6 120.857 1194.44 104.616 103.038 1089.83
internal_count=291400 219195 66066 153129 72205 105349 61241 65981 44108
is_linear=0
shrinkage=0.07


Tree=49
num_leaves=10
num_cat=0
split_feature=8 37 30 30 28 4 38 31 30
split_gain=104.436 101.009 81.2727 149.378 411.665 6063.17 176.231 139.5 395.051
threshold=100.65190462726437 0.85355339059338264 58.062500000000007 45.187500000000007 136.93750000000003 117.87029081158654 0.11196447610330891 136.56250000000003 74.062500000000014
decision_type=2 2 2 2 2 2 2 2 2
left_child=1 -1 3 -2 -5 -6 -7 -4 -9
right_child=2 -3 7 4 5 6 -8 8 -10
leaf_value=-0.11465749255266204 0.001969494196530286 0.0085359312378812478 0.034941880741964096 -0.10792642987485405 -0.43106022095538366 -23.547383686751452 -34.08313668245188 -0.60146511726964402 -0.01553895350876964
leaf_weight=64.576462988769975 484.81285392889447 65.885501703280767 771.30805564793309 37.293664938559346 0.78176162013141848 0.01187737617874518 0.022547749798832228 6.2412463757945664 58.384292237662343
leaf_count=152784 71918 21996 30745 9235 646 28 24 663 3361
internal_value=0 -0.0524427 0.0131247 -0.00852 -0.141962 -1.69712 -30.4481 0.0266646 -0.0721251
internal_weight=0 130.462 1358.86 522.923 38.1099 0.816187 0.0344251 835.934 64.6255
internal_count=291400 174780 116620 81851 9933 698 52 34769 4024
is_linear=0
shrinkage=0.07


Tree=50
num_leaves=10
num_cat=0
split_feature=4 31 8 31 31 31 28 17 1
split_gain=103.15 82.6255 89.3168 84.4827 101.074 104.102 43.7078 54.0964 43.5345
threshold=117.87029081158654 30.062500000000004 104.27618122012682 28.187500000000004 15.062500000000002 13.062500000000002 13.062500000000002 31.059070130649655 91.500000000000014
decision_type=2 2 2 2 2 2 2 2 2
left_child=1 3 -3 4 5 -1 7 -2 -8
right_child=6 2 -4 -5 -6 -7 8 -9 -10
leaf_value=-0.059921940405010081 -0.113204342551147 -0.11479946746688544 -0.013921975436747128 0.055201461879106288 -0.11546000073023767 0.046664327420832361 -0.05698504969567017 0.027426224498053989 0.027781705738163142
leaf_weight=77.399156060576331 25.790263470305774 74.457018198155495 101.81874651217872 103.59427248578729 44.662455201417316 106.93544119466952 30.736254224173308 27.905374670188337 870.33795993672925
leaf_count=71780 1154 141841 5237 6072 47393 9902 206 638 7177
internal_value=0 -0.0177869 -0.0565316 0.00274809 -0.0209809 0.00191045 0.0212342 -0.0401193 0.0248903
internal_weight=0 508.867 176.276 332.591 228.997 184.335 954.77 53.6956 901.074
internal_count=291400 282225 147078 135147 129075 81682 9175 1792 7383
is_linear=0
shrinkage=0.07


Tree=51
num_leaves=10
num_cat=0
split_feature=12 36 30 0 4 8 4 6 5
split_gain=94.7163 110.554 84.6157 56.3902 95.2883 54.0126 53.9966 59.9162 81.0934
threshold=135.73550570335252 -0.70710678118646442 34.937500000000007 89.500000000000014 113.49271225606218 115.00905712671305 111.30211561560502 172.51182225806923 35.554761482707775
decision_type=2 2 2 2 2 2 2 2 2
left_child=1 5 -3 4 -4 -1 7 -2 -9
right_child=6 2 3 -5 -6 -7 -8 8 -10
leaf_value=-0.13742909727008396 -0.028030262100203839 -0.091869495277687369 -0.10375408640831812 0.045423878574478535 0.013023543411192461 0.033054165185969958 0.022066648390794065 -2.3691880653786273 -0.24710669806702956
leaf_weight=51.108849767249865 36.729575123879727 48.165787386453246 45.852297064071138 119.35830493815303 135.17884097945478 11.080142931019735 977.73736616570545 0.089829192816977321 4.9825840957082619
leaf_count=98158 3683 95000 73678 9602 1178 81 8833 70 1117
internal_value=0 -0.0210781 -0.00573827 0.00807239 -0.0165544 -0.107054 0.0187357 -0.059174 -0.284687
internal_weight=0 410.744 348.555 300.389 181.031 62.189 1019.54 41.802 5.07241
internal_count=291400 277697 179458 84458 74856 98239 13703 4870 1187
is_linear=0
shrinkage=0.07


Tree=52
num_leaves=10
num_cat=0
split_feature=29 29 29 30 16 4 31 4 4
split_gain=88.6115 128.947 334.671 263.789 3940.58 711.322 259.703 8036.01 701.916
threshold=13.062500000000002 15.062500000000002 28.062500000000004 269.93750000000006 91.11533572368846 117.87029081158654 188.56250000000003 117.87029081158654 115.85797966521069
decision_type=2 2 2 2 2 2 2 2 2
left_child=-1 -2 3 6 5 -5 -3 8 -8
right_child=1 2 -4 4 -6 -7 7 -9 -10
leaf_value=-0.042168647690663093 0.047777644451272763 -0.13856650775994778 0.00855616835482567 -0.10825644456077517 -29.556333376870949 -8.9505728710451233 -0.10023344666743669 -44.975122593844901 -12.776815725348996
leaf_weight=159.570492867344 371.27135200038958 42.363542387361122 824.07805832013344 0.79166954167294434 0.023689029345405288 0.04723903008562047 0.96528853257905101 0.020206312306981999 0.021888446284265228
leaf_count=79188 11544 46451 151049 681 28 16 2382 50 11
internal_value=0 0.0132507 -0.00151224 -0.189088 -1.40121 -0.606168 -0.164981 -1.27578 -0.381308
internal_weight=0 1239.58 868.312 44.2335 0.862598 0.838909 43.3709 1.00738 0.987177
internal_count=291400 212212 200668 49619 725 697 48894 2443 2393
is_linear=0
shrinkage=0.07


Tree=53
num_leaves=10
num_cat=0
split_feature=12 36 30 0 4 8 4 38 29
split_gain=87.214 98.2464 77.3718 49.7614 88.4831 48.9797 46.8245 65.9827 43.3879
threshold=135.73550570335252 -0.70710678118646442 34.937500000000007 89.500000000000014 113.49271225606218 115.00905712671305 110.93056546454751 0.70710678118655612 12.312500000000002
decision_type=2 2 2 2 2 2 2 2 2
left_child=1 5 -3 4 -4 -1 7 -2 -6
right_child=6 2 3 -5 8 -7 -8 -9 -10
leaf_value=-0.13534301936119938 -0.16629412088806558 -0.091492821743540079 -0.10363042004302314 0.044007105434213323 -0.17270069832102383 0.031143730424041526 0.022149525988102801 0.020104217295172009 0.021574012025375174
leaf_weight=46.823981080803776 15.823884233133752 44.278622524459536 42.332226229041424 113.27214582034259 5.8990539044623622 10.623142404610688 951.62640764485081 22.59008273065092 124.84822974170226
leaf_count=98158 3615 95000 73678 9602 268 81 8865 1223 910
internal_value=0 -0.0200606 -0.00537941 0.00793632 -0.0156703 -0.104556 0.0190909 -0.0566789 0.0128087
internal_weight=0 388.077 330.63 286.352 173.08 57.4471 990.04 38.414 130.747
internal_count=291400 277697 179458 84458 74856 98239 13703 4838 1178
is_linear=0
shrinkage=0.07


Tree=54
num_leaves=10
num_cat=0
split_feature=30 21 28 28 8 1 0 41 17
split_gain=83.8297 123.831 146.444 269.713 5925.86 117.251 161.923 706.094 8172.41
threshold=58.062500000000007 1.0000000180025095e-35 117.68750000000001 121.56250000000001 108.94647872131716 163.50000000000003 84.500000000000014 0.95464641996424515 29.936515341279403
decision_type=2 2 2 2 2 2 2 2 2
left_child=1 2 -1 4 -4 6 -2 8 -8
right_child=5 -3 3 -5 -6 -7 7 -9 -10
leaf_value=-0.019578570798178076 -0.0063173714844794978 0.069281707867016817 -0.3427751849900858 -0.17517451517395277 -39.867194877167506 0.029075568356919601 -44.798836248068625 -0.19744990067971219 -0.69600996634714718
leaf_weight=437.99114923965669 42.986882179101883 75.165806334001331 0.5133958996546174 17.762579553943947 0.019285540620330721 757.77210920214395 0.021871474629732712 14.153829273662778 0.35082537938137648
leaf_count=185473 8764 548 1295 18346 18 74928 53 1742 233
internal_value=0 -0.0139693 -0.0276836 -0.221718 -1.77374 0.0217622 -0.0745953 -0.276643 -3.28416
internal_weight=0 531.452 456.286 18.2953 0.532681 815.286 57.5134 14.5265 0.372697
internal_count=291400 205680 205132 19659 1313 85720 10792 2028 286
is_linear=0
shrinkage=0.07


Tree=55
num_leaves=10
num_cat=0
split_feature=32 28 4 11 41 17 30 14 40
split_gain=88.2857 156.457 109.816 73.4628 62.9928 113.141 123.655 57.803 1941.43
threshold=1.0000000180025095e-35 216.93750000000003 112.79393003708951 539.25089341348269 0.98067962325306157 30.718397678486856 45.187500000000007 164.98521402652304 -0.73322565903187975
decision_type=2 2 2 2 2 2 2 2 2
left_child=1 2 -1 4 -4 6 -6 -2 -9
right_child=7 -3 3 -5 5 -7 -8 8 -10
leaf_value=-0.063786541556388396 0.03114769476755673 -0.30862040344959324 -0.012236365296826292 0.026608983153530719 -0.70706381223232773 0.0019508997164687674 -0.12000705885617788 -15.439788950790659 0.061170305932191374
leaf_weight=123.82167120335896 545.04783563489832 8.3172060227574303 228.78072929740085 401.73384255142628 2.9837621103497334 9.985000287165315 4.2800141740781781 0.040926639429652911 1.2134523504770864
leaf_count=223629 49223 7784 4062 6088 87 135 77 46 269
internal_value=0 -0.00664005 -0.00338489 0.00816104 -0.021962 -0.150959 -0.361154 0.0300554 -0.44458
internal_weight=0 779.902 771.585 647.763 246.03 17.2488 7.26378 546.302 1.25438
internal_count=291400 241862 234078 10449 4361 299 164 49538 315
is_linear=0
shrinkage=0.07


Tree=56
num_leaves=10
num_cat=0
split_feature=32 28 4 11 13 41 8 41 17
split_gain=83.3525 129.232 98.084 65.8486 138.609 234.669 60.3723 59.1426 86.7341
threshold=1.0000000180025095e-35 216.93750000000003 111.73601379974019 539.25089341348269 61.224677060079451 -0.51237141212842363 100.62856801459914 0.98067962325306157 30.718397678486856
decision_type=2 2 2 2 2 2 2 2 2
left_child=1 2 -1 4 7 -6 -2 -4 -9
right_child=6 -3 3 -5 5 -7 -8 8 -10
leaf_value=-0.0730362631683147 -0.062984870190699926 -0.27491289102943534 -0.0092405693100252005 0.023104300940983855 -2.2664765473843764 -0.075107303291053057 0.035769277527013012 -0.30107136140169843 0.0034319721481804455
leaf_weight=87.179580619969329 32.290177244493123 8.6708701456695945 241.63276446834175 416.943509829346 0.36203491354535799 0.70720395123811275 500.59675031064631 8.6338028072837005 9.7706112857655967
leaf_count=221852 28678 7784 4702 7118 23 40 20860 186 157
internal_value=0 -0.00618963 -0.00314471 0.00584153 -0.0217243 -0.817086 0.0297853 -0.0184538 -0.139415
internal_weight=0 773.9 765.23 678.05 261.106 1.06924 532.887 260.037 18.4044
internal_count=291400 241862 234078 12226 5108 63 49538 5045 343
is_linear=0
shrinkage=0.07


Tree=57
num_leaves=10
num_cat=0
split_feature=29 17 31 41 33 34 30 21 28
split_gain=83.0592 128.147 114.371 113.423 91.4546 86.2694 89.1481 118.553 95.3274
threshold=13.062500000000002 31.963653909885355 13.062500000000002 0.98272745276227258 1.0000000180025095e-35 1.0000000180025095e-35 30.062500000000004 1.0000000180025095e-35 13.062500000000002
decision_type=2 2 2 2 2 2 2 2 2
left_child=1 -1 -2 4 5 6 7 -4 -8
right_child=2 -3 3 -5 -6 -7 8 -9 -10
leaf_value=-0.10451649652950364 -0.062576629955343022 0.023663449639231959 -0.089338468306271776 -0.070022699087027976 -0.088863709389168266 -0.092113140485554273 -0.11417728871236954 0.070050446781599482 0.04546871395840945
leaf_weight=76.412008340255298 86.950878544011857 76.458926191895316 60.427890124659598 63.067150406185647 32.383589613537993 27.197650814183817 18.753115255665989 36.785917962763051 807.09247283211505
leaf_count=56823 59313 22365 24108 10532 48445 47473 8550 134 13657
internal_value=0 -0.0404069 0.0145626 0.0209767 0.0268172 0.0307594 0.0343798 -0.0290254 0.0418435
internal_weight=0 152.871 1132.66 1045.71 982.641 950.257 923.059 97.2138 825.846
internal_count=291400 79188 212212 152899 142367 93922 46449 24242 22207
is_linear=0
shrinkage=0.07


Tree=58
num_leaves=10
num_cat=0
split_feature=12 36 30 32 28 11 13 28 14
split_gain=75.2227 88.2762 63.0921 47.7547 115.239 46.0328 67.2659 246.72 786.435
threshold=135.73550570335252 -0.70710678118646442 34.937500000000007 1.0000000180025095e-35 227.43750000000003 539.25089341348269 60.418067951263112 34.187500000000007 145.60067818611904
decision_type=2 2 2 2 2 2 2 2 2
left_child=1 -1 -3 4 5 6 -2 8 -8
right_child=3 2 -4 -5 -6 -7 7 -9 -10
leaf_value=-0.10665124919810068 -0.011607260915877269 -0.091725233100245857 0.0068070908132111399 0.038828469585960805 -0.26022743066575893 0.025943359532868481 -7.0646041002611391 -0.052704718690486478 -0.074675918789593593
leaf_weight=49.544347271224581 214.89509154193144 36.410333989253814 253.84750851938125 344.68971782562926 7.8741962620526911 330.20248126434461 0.10837811007968357 1.8072491517068554 0.28968028032340953
leaf_count=98239 4192 95000 84458 3204 206 5985 51 44 21
internal_value=0 -0.0202934 -0.00555294 0.0183631 0.00565694 0.00948229 -0.0155544 -0.400185 -1.9778
internal_weight=0 339.802 290.258 899.867 555.177 547.303 217.1 2.20531 0.398058
internal_count=291400 277697 179458 13703 10499 10293 4308 116 72
is_linear=0
shrinkage=0.07


Tree=59
num_leaves=10
num_cat=0
split_feature=29 17 28 31 30 33 1 8 21
split_gain=74.6619 111.525 102.331 93.1639 88.5244 80.9067 164.033 451.476 80.5174
threshold=13.062500000000002 31.963653909885355 13.062500000000002 13.062500000000002 30.062500000000004 1.0000000180025095e-35 2903.5000000000005 101.72566506810982 1.0000000180025095e-35
decision_type=2 2 2 2 2 2 2 2 2
left_child=1 -1 -2 -4 8 6 -6 -8 -5
right_child=2 -3 3 4 5 -7 7 -9 -10
leaf_value=-0.098864166063947032 -0.070671722044412508 0.022286136260127681 -0.055036773337794491 -0.089089843528879539 0.037498905630627154 -0.082593177148673078 -0.15285623818974323 -4.1363066176611696 0.069851476131053539
leaf_weight=74.822543686441534 65.200022096184625 74.109456055696043 75.368391487997883 56.755525350331148 823.09680201775916 28.954212787718006 0.74269836781604581 0.17163395079842303 21.546508688039459
leaf_count=56823 59083 22365 47780 61049 30002 13976 90 40 192
internal_value=0 -0.038579 0.0143149 0.0198195 0.0258777 0.0324167 0.036458 -0.90061 -0.0453537
internal_weight=0 148.932 1071.84 1006.64 931.267 852.965 824.011 0.914332 78.302
internal_count=291400 79188 212212 153129 105349 44108 30132 130 61241
is_linear=0
shrinkage=0.07


Tree=60
num_leaves=10
num_cat=0
split_feature=28 28 28 28 30 40 4 4 30
split_gain=68.6319 173.783 84.7505 157.34 234.98 3202.87 27365.4 258.095 129.379
threshold=27.812500000000004 15.062500000000002 30.062500000000004 42.937500000000007 111.06250000000001 -0.90473488973090277 117.87029081158654 109.7708456649337 115.31250000000001
decision_type=2 2 2 2 2 2 2 2 2
left_child=1 -1 -2 4 -4 6 7 -6 -7
right_child=2 -3 3 -5 5 8 -8 -9 -10
leaf_value=0.0018487102373546214 0.0515687931508447 -0.13952067272804591 -0.073099219675053381 0.015209851133973613 -0.070106247494377133 -2.7333423482504409 -134.69870537518179 -10.817416874541802 -0.21833395258305444
leaf_weight=286.33156863302975 258.86201371083041 50.056843212748277 52.743558332311636 535.38645170777943 0.073125706898281684 0.10374084437717046 0.0083105321973562241 0.012877138055046089 2.9582458378959018
leaf_count=82783 8191 47992 31360 117970 293 260 16 14 2521
internal_value=0 -0.019188 0.0181657 0.00354202 -0.108208 -0.694892 -13.4005 -1.67929 -0.303543
internal_weight=0 336.388 850.148 591.286 55.8999 3.1563 0.0943134 0.0860028 3.06199
internal_count=291400 130775 160625 152434 34464 3104 323 307 2781
is_linear=0
shrinkage=0.07


Tree=61
num_leaves=10
num_cat=0
split_feature=12 36 30 8 32 28 31 31 4
split_gain=71.7059 76.1067 53.5449 50.1642 48.1231 97.1881 39.5696 46.1968 47.4072
threshold=135.73550570335252 -0.70710678118646442 34.937500000000007 115.00905712671305 1.0000000180025095e-35 227.43750000000003 13.062500000000002 58.312500000000007 120.07264218104947
decision_type=2 2 2 2 2 2 2 2 2
left_child=1 3 -3 -1 5 -2 -4 -8 -9
right_child=4 2 6 -5 -6 -7 7 8 -10
leaf_value=-0.14229798653776352 0.0096888981759229546 -0.091550024143589787 -0.10134172040408163 0.03401381162425865 0.040341218157768116 -0.23124356934643056 0.027503991293510378 -0.1279581188640756 0.024805929986501687
leaf_weight=35.860313052281526 522.00945403232095 31.731894895768221 15.952197182965163 10.14407349414415 318.04760397303346 8.3348542882561087 184.79298427865072 20.995381259473945 18.92776128473615
leaf_count=98158 10293 95000 23771 81 3204 206 34756 25821 110
internal_value=0 -0.020144 -0.00607982 -0.103421 0.0188129 0.00590242 0.00518935 0.0127518 -0.0555319
internal_weight=0 318.405 272.4 46.0044 848.392 530.344 240.668 224.716 39.9231
internal_count=291400 277697 179458 98239 13703 10499 84458 60687 25931
is_linear=0
shrinkage=0.07


Tree=62
num_leaves=10
num_cat=0
split_feature=28 28 29 1 30 21 1 35 33
split_gain=65.571 156.686 72.6031 81.0658 69.6761 91.4738 78.1577 78.3647 69.279
threshold=27.812500000000004 15.062500000000002 13.062500000000002 2912.5000000000005 30.062500000000004 1.0000000180025095e-35 91.500000000000014 10.500000000000002 1.0000000180025095e-35
decision_type=2 2 2 2 2 2 2 2 2
left_child=1 -1 3 -2 5 -4 7 -6 -8
right_child=2 -3 4 -5 6 -7 8 -9 -10
leaf_value=0.0011124118788963476 -0.07888140067503896 -0.13706316237642349 -0.086238172501759386 0.068982119920079285 0.049046995936810181 0.070045393961258681 0.043592371215464408 -0.16355745993554588 -0.098583183243213815
leaf_weight=280.42659126985092 68.60752769915473 46.944358173267176 55.444144945473333 24.712357715514372 15.307684945322533 27.430371940635503 588.27718369584386 19.08858372379791 17.287268952638328
leaf_count=82783 49252 47992 62804 75 2636 182 28811 2432 14433
internal_value=0 -0.0187017 0.0183809 -0.0397252 0.0258826 -0.0345104 0.0337034 -0.0689402 0.0395336
internal_weight=0 327.371 816.155 93.3199 722.835 82.8745 639.961 34.3963 605.564
internal_count=291400 130775 160625 49327 111298 62986 48312 5068 43244
is_linear=0
shrinkage=0.07


Tree=63
num_leaves=10
num_cat=0
split_feature=12 36 0 4 29 32 28 29 4
split_gain=63.9484 74.9212 47.0359 51.2442 44.2973 42.3684 81.4907 37.3211 36.7066
threshold=133.60550448251152 -0.70710678118644643 89.500000000000014 113.49271225606218 12.312500000000002 1.0000000180025095e-35 227.43750000000003 14.062500000000002 111.30211561560502
decision_type=2 2 2 2 2 2 2 2 2
left_child=1 -1 3 -3 -5 6 8 -6 -2
right_child=5 2 -4 4 7 -7 -8 -9 -10
leaf_value=-0.12538743921446596 -0.069432026241621439 -0.098730337096861076 0.032607696086607373 -0.15705126069473394 0.062690021374900554 0.03660801142432215 -0.2076777212384722 -0.028831296922418568 0.012467595910300425
leaf_weight=30.944552505728836 28.355538657993918 41.871899146414734 83.055511419332277 8.7267744463049706 36.582281241223868 323.59325948590094 8.7261724758851624 54.149694189561515 493.52885320828187
leaf_count=99520 5128 154705 19066 494 103 3684 223 1521 6956
internal_value=0 -0.0232806 -0.00919928 -0.0337679 -0.00641887 0.016645 0.00447052 0.00806924 0.00801774
internal_weight=0 255.331 224.386 141.331 99.4587 854.204 530.611 90.732 521.884
internal_count=291400 275409 175889 156823 2118 15991 12307 1624 12084
is_linear=0
shrinkage=0.07


Tree=64
num_leaves=10
num_cat=0
split_feature=8 37 32 28 4 30 40 41 1
split_gain=59.1585 78.9187 57.2152 63.7123 55.5935 44.0597 78.0818 121.679 61.5317
threshold=100.65190462726437 0.85355339059338264 1.0000000180025095e-35 216.93750000000003 111.30211561560502 58.062500000000007 0.7476865323733719 0.50588911366243583 2197.5000000000005
decision_type=2 2 2 2 2 2 2 2 2
left_child=1 -1 3 4 -2 6 8 -8 -6
right_child=2 -3 -4 -5 5 -7 7 -9 -10
leaf_value=-0.13171215512646722 -0.074634584929619871 0.0090941222657306923 0.032326650926208012 -0.18317374132656439 0.025099686479622983 0.025712656323766708 -0.059605920054535494 -0.44092804603166968 -0.05489387259460507
leaf_weight=34.015901916818791 44.094438139871613 45.719361248293751 397.66938952318435 9.3429777749629448 161.3038339750438 293.16457940428234 32.750115360879775 4.6872806096856285 66.560562448416846
leaf_count=152784 82964 21996 20663 2951 3298 3161 1300 230 2053
internal_value=0 -0.0509753 0.0116555 -0.00177849 0.00103413 0.00700865 -0.0136597 -0.107349 0.00173309
internal_weight=0 79.7353 1009.57 611.904 602.561 558.466 265.302 37.4374 227.864
internal_count=291400 174780 116620 95957 93006 10042 6881 1530 5351
is_linear=0
shrinkage=0.07


Tree=65
num_leaves=10
num_cat=0
split_feature=28 28 31 41 0 31 41 12 5
split_gain=57.2544 142.557 66.4289 78.9222 80.9334 87.7563 84.9483 1729.58 81.2911
threshold=27.812500000000004 15.062500000000002 60.187500000000007 0.98272745276227258 20.500000000000004 88.062500000000014 -0.95963008194610411 151.08555938296703 51.412052674194804
decision_type=2 2 2 2 2 2 2 2 2
left_child=1 -1 -2 4 8 6 7 -6 -4
right_child=2 -3 3 -5 5 -7 -8 -9 -10
leaf_value=0.00054073124254073296 0.027881859064173106 -0.1355827109260179 -0.15995219337666056 -0.16229694157742369 -0.31260931389886237 0.034100393325132823 -0.093831700025662712 -18.233009761551227 -3.11171997887068
leaf_weight=272.66034579819188 595.12782244424079 43.746431323331194 13.192556163446707 17.766932205541139 1.2686968442562854 109.40864110977745 14.527450122917395 0.026950672137900145 0.045875642738793299
leaf_count=82783 118117 47992 6275 5272 1032 20700 9099 22 108
internal_value=0 -0.0182797 0.0172174 -0.0234048 -0.00558378 0.011816 -0.142269 -0.68537 -0.170181
internal_weight=0 316.407 751.365 156.237 138.47 125.232 15.8231 1.29565 13.2384
internal_count=291400 130775 160625 42508 37236 30853 10153 1054 6383
is_linear=0
shrinkage=0.07


Tree=66
num_leaves=10
num_cat=0
split_feature=12 36 8 28 32 28 0 4 11
split_gain=57.5318 63.0517 50.4752 46.8437 40.5617 49.3701 34.4565 57.58 34.072
threshold=135.73550570335252 -0.70710678118646442 111.97086473940091 13.062500000000002 1.0000000180025095e-35 227.43750000000003 89.500000000000014 113.49271225606218 539.25089341348269
decision_type=2 2 2 2 2 2 2 2 2
left_child=1 2 -1 -3 5 8 7 -5 -2
right_child=4 3 -4 6 -6 -7 -8 -9 -10
leaf_value=-0.15858683653663308 -0.01461947254457004 -0.11087805319117935 0.013622408030359499 -0.10223387425258587 0.038043818712395983 -0.15306423274494116 0.037643799587184265 0.0053852278858683329 0.023071300584560622
leaf_weight=26.202594036336194 198.49640311418665 19.604193042098473 12.23373979490094 31.694730180544965 276.94563577266752 9.5441840721027784 82.975682820424282 105.27634979733075 288.09383502036434
leaf_count=98106 4308 44348 133 118764 3204 206 14504 1842 5985
internal_value=0 -0.0205485 -0.103775 -0.00719468 0.016583 0.00460342 0.00204678 -0.0195175 0.00769598
internal_weight=0 277.987 38.4363 239.551 773.08 496.134 219.947 136.971 486.59
internal_count=291400 277697 98239 179458 13703 10499 135110 120606 10293
is_linear=0
shrinkage=0.07


Tree=67
num_leaves=10
num_cat=0
split_feature=8 37 1 30 21 28 15 39 11
split_gain=51.4366 118.608 42.0507 47.5051 73.698 116.021 362.959 2071.34 367.423
threshold=103.71430500215858 2.1055878197058831e-14 91.500000000000014 58.062500000000007 1.0000000180025095e-35 117.68750000000001 304.31305172601606 -0.70710678118655734 499.14937223536009
decision_type=2 2 2 2 2 2 2 2 2
left_child=1 -1 -2 4 5 -4 7 -7 -8
right_child=2 -3 3 -5 -6 6 8 -9 -10
leaf_value=-0.15789192630275525 -0.069887562565438516 -0.003439212308717552 -0.0086584024434715155 0.032115014978363617 0.070093583431715262 -21.777210496651346 -5.4935491156843277 -0.070883072524622101 -0.16727997527897506
leaf_weight=28.480925735806863 28.290242526538464 168.47188653836872 291.27561825107506 448.5072835689345 58.066752312653989 0.025708016441058135 0.063956772793971051 0.13291325782967689 8.209850859262863
leaf_count=145202 638 123248 14022 6809 155 25 15 62 1224
internal_value=0 -0.0257743 0.0139962 0.0169395 -0.00208466 -0.0160688 -0.272041 -3.58886 -0.208452
internal_weight=0 196.953 834.572 806.282 357.775 299.708 8.43243 0.158621 8.27381
internal_count=291400 268450 22950 22312 15503 15348 1326 87 1239
is_linear=0
shrinkage=0.07


Tree=68
num_leaves=10
num_cat=0
split_feature=28 28 13 12 29 1 30 21 1
split_gain=54.9773 136.238 176.801 5041.83 67.6622 68.1386 62.7612 74.8817 64.9166
threshold=27.812500000000004 18.062500000000004 46.712827159200806 144.03428203955352 13.062500000000002 2912.5000000000005 30.062500000000004 1.0000000180025095e-35 91.500000000000014
decision_type=2 2 2 2 2 2 2 2 2
left_child=1 -1 3 -3 5 -2 7 -6 -8
right_child=4 2 -4 -5 6 -7 8 -9 -10
leaf_value=-0.0045521036255194306 -0.077853226135855907 -0.20319179379728736 -0.14180411150548278 -30.814818042420733 -0.085410846540942761 0.069187677738743639 -0.063268885226658717 0.069994821854435035 0.039076228388554325
leaf_weight=281.23645061709527 63.024890294753391 0.84681774667242393 22.879599700039343 0.027211160976548854 48.626958189590482 20.453967408990138 32.234820378876179 22.096577589499702 524.39461914358321
leaf_count=94139 49252 3519 33092 25 62804 75 5068 182 43244
internal_value=0 -0.0181488 -0.17913 -1.15622 0.0173793 -0.0418253 0.0252574 -0.0368565 0.0331493
internal_weight=0 304.99 23.7536 0.874029 710.832 83.4789 627.353 70.7235 556.629
internal_count=291400 130775 36636 3544 160625 49327 111298 62986 48312
is_linear=0
shrinkage=0.07


Tree=69
num_leaves=10
num_cat=0
split_feature=12 36 8 28 21 30 28 31 1
split_gain=52.662 58.7886 48.1883 42.5652 32.7491 75.0854 85.7066 63.7365 114.246
threshold=135.73550570335252 -0.70710678118646442 111.97086473940091 13.062500000000002 1.0000000180025095e-35 30.062500000000004 13.062500000000002 13.062500000000002 2912.5000000000005
decision_type=2 2 2 2 2 2 2 2 2
left_child=1 2 -1 -3 5 -2 -7 8 -8
right_child=4 3 -4 -5 -6 6 7 -9 -10
leaf_value=-0.16440736550534507 -0.046388511183640041 -0.10959844616563587 0.011026501868112519 0.0021049176918303265 0.069196080079390279 -0.12091816199507045 -0.17310169726815211 0.03310279596716733 0.070304907657194049
leaf_weight=22.745918469498832 91.451574913535069 18.180926214705664 11.576835399166496 207.3754874179638 54.113616292060215 19.918516548723005 20.466995573586701 529.15315467140567 17.551483869552612
leaf_count=98106 6244 44348 133 135110 144 1641 1420 4245 9
internal_value=0 -0.0198863 -0.105235 -0.00689891 0.0167898 0.0126105 0.0218008 0.0268129 -0.0607314
internal_weight=0 259.879 34.3228 225.556 732.655 678.542 587.09 567.172 38.0185
internal_count=291400 277697 98239 179458 13703 13559 7315 5674 1429
is_linear=0
shrinkage=0.07


Tree=70
num_leaves=10
num_cat=0
split_feature=12 15 4 4 35 39 28 10 21
split_gain=46.8461 57.3378 516.874 48.9378 63.9162 35.1299 31.7808 70.2801 31.177
threshold=135.73550570335252 267.28911912519658 122.00939021179552 120.07264218104947 2.5000000000000004 -0.90096886790242636 117.68750000000001 205.02572839733452 1.0000000180025095e-35
decision_type=2 2 2 2 2 2 2 2 2
left_child=1 2 -1 4 -3 6 -6 -8 -2
right_child=8 3 -4 -5 5 -7 7 -9 -10
leaf_value=-0.15255272516999266 0.012045105383871775 0.039161723686755988 -5.6684459936162046 0.026008735261933619 0.020545686593035063 -0.082150503186458765 -0.078031468598830853 -1.6998337638897301 0.069091616895453983
leaf_weight=1.9272609013740685 661.50498882621548 39.642272197505648 0.087000991720088794 89.008781412773175 26.40695181733351 98.749325579772432 0.58659792061703697 0.16854762365636589 50.528847390993178
leaf_count=5496 13559 27166 16 1046 28250 212475 2305 943 144
internal_value=0 -0.0187926 -0.390798 -0.015849 -0.0383536 -0.0627587 0.00774141 -0.440016 0.0160934
internal_weight=0 256.577 2.01426 254.562 165.554 125.911 27.1621 0.755146 712.034
internal_count=291400 277697 5512 272185 271139 243973 31498 3248 13703
is_linear=0
shrinkage=0.07


Tree=71
num_leaves=10
num_cat=0
split_feature=29 17 28 31 31 41 33 30 34
split_gain=45.7607 83.5414 80.3808 70.5699 69.6589 64.7008 64.1087 63.9986 67.222
threshold=13.062500000000002 31.963653909885355 13.062500000000002 13.062500000000002 12.812500000000002 0.98272745276227258 1.0000000180025095e-35 30.062500000000004 1.0000000180025095e-35
decision_type=2 2 2 2 2 2 2 2 2
left_child=1 -1 -2 4 -4 6 7 -5 -9
right_child=2 -3 3 5 -6 -7 -8 8 -10
leaf_value=-0.088058505843504442 -0.06917446211484668 0.025833714158136001 -0.047516413543494097 -0.043617771046069703 -0.74547226627450647 -0.055905838014240379 -0.089635276066118957 0.04420435911549421 -0.089904050605640856
leaf_weight=64.820906490192812 54.992091130745735 61.49848996084981 56.960414979094068 48.45563354217586 0.70940142199010736 46.035758397654604 21.298472106350687 584.08744465407187 18.907372424631149
leaf_count=56823 59083 22365 46884 37862 896 8150 33301 13657 12379
internal_value=0 -0.0326102 0.0126089 0.0184012 -0.056102 0.0243788 0.0298726 0.0337798 0.0399993
internal_weight=0 126.319 831.447 776.454 57.6698 718.785 672.749 651.45 602.995
internal_count=291400 79188 212212 153129 47780 105349 97199 63898 26036
is_linear=0
shrinkage=0.07


Tree=72
num_leaves=10
num_cat=0
split_feature=8 37 32 28 4 38 40 28 30
split_gain=42.5928 70.9346 39.4406 46.442 42.2439 40.7736 34.1467 65.0963 32.7966
threshold=100.65190462726437 0.85355339059338264 1.0000000180025095e-35 216.93750000000003 111.30211561560502 0.78183148246804313 0.34662150071030878 105.68750000000001 43.187500000000007
decision_type=2 2 2 2 2 2 2 2 2
left_child=1 -1 3 4 5 -2 7 -4 -6
right_child=2 -3 6 -5 8 -7 -8 -9 -10
leaf_value=-0.14155906326648462 -0.13174039987156685 0.0091567380057302489 0.020825755077729831 -0.15349157496937579 -0.021670565963686841 0.013669273515021675 0.057655179750594428 -0.1580560071022066 0.018627587923940488
leaf_weight=24.731648689904759 21.914165545957317 40.130524735760005 192.99637099187817 9.646554783457189 138.54099764553496 16.611844220984139 128.69213567436603 10.511181169588864 346.36408860328913
leaf_count=152784 66153 21996 11778 2951 5717 16811 7694 1191 4325
internal_value=0 -0.0483105 0.0105016 -0.00129607 0.00150881 -0.0690419 0.0294332 0.0115865 0.0071141
internal_weight=0 64.8622 865.277 533.078 523.431 38.526 332.2 203.508 484.905
internal_count=291400 174780 116620 95957 93006 82964 20663 12969 10042
is_linear=0
shrinkage=0.07


Tree=73
num_leaves=10
num_cat=0
split_feature=21 30 28 29 31 1 34 33 15
split_gain=42.4796 79.7546 100.265 77.4971 88.6878 84.0457 60.5012 61.778 60.316
threshold=1.0000000180025095e-35 30.062500000000004 13.062500000000002 13.062500000000002 13.062500000000002 2912.5000000000005 1.0000000180025095e-35 1.0000000180025095e-35 262.48633860284309
decision_type=2 2 2 2 2 2 2 2 2
left_child=1 -1 -3 5 8 -4 7 -6 -5
right_child=-2 2 3 4 6 -7 -8 -9 -10
leaf_value=-0.052571840178476083 0.068247018069522089 -0.11034437234046109 -0.11629401477117671 0.068528584809827806 0.037084095054276588 0.066815909182868283 -0.094186587006696451 -0.083005864311796476 -0.14189554415382186
leaf_weight=112.4633581082187 50.835306667597479 32.127109676830969 40.84315953121245 9.0597103695193528 584.46363741361358 17.564639120120773 18.967998980212201 21.772112369858519 25.355836910194324
leaf_count=139874 722 43419 38360 360 15348 54 14716 13952 24595
internal_value=0 0.00239951 0.0106408 0.0160541 0.0228973 -0.0612284 0.0289195 0.0327712 -0.0865025
internal_weight=0 862.618 750.154 718.027 659.619 58.4078 625.204 606.236 34.4155
internal_count=291400 290678 150804 107385 68971 38414 44016 29300 24955
is_linear=0
shrinkage=0.07


Tree=74
num_leaves=10
num_cat=0
split_feature=21 30 28 29 31 1 34 33 15
split_gain=39.651 70.2086 91.3634 70.1194 80.436 76.0715 55.7496 56.065 54.7866
threshold=1.0000000180025095e-35 30.062500000000004 13.062500000000002 13.062500000000002 13.062500000000002 2912.5000000000005 1.0000000180025095e-35 1.0000000180025095e-35 262.48633860284309
decision_type=2 2 2 2 2 2 2 2 2
left_child=1 -1 -3 5 8 -4 7 -6 -5
right_child=-2 2 3 4 6 -7 -8 -9 -10
leaf_value=-0.049466577934981146 0.068036231462270835 -0.10826173096368685 -0.11284329017240974 0.068268368927072096 0.035705472518012878 0.066511900084055428 -0.095199232937813419 -0.082074282301674295 -0.13851029330060802
leaf_weight=111.2045278828366 47.540298019063471 30.510888276649325 39.204409841662141 8.4783055491340118 565.24127038530412 16.449416187455427 17.503946061295665 20.522756514792945 24.198713441704619
leaf_count=139874 722 43419 38360 360 15348 54 14716 13952 24595
internal_value=0 0.0023095 0.010283 0.0155128 0.0221064 -0.0598319 0.0279005 0.031579 -0.08486
internal_weight=0 833.314 722.11 691.599 635.945 55.6538 603.268 585.764 32.677
internal_count=291400 290678 150804 107385 68971 38414 44016 29300 24955
is_linear=0
shrinkage=0.07


Tree=75
num_leaves=10
num_cat=0
split_feature=8 37 4 16 28 15 36 21 30
split_gain=38.8228 115.317 36.7428 81.3041 105.001 56.8296 33.9275 30.5273 48.0769
threshold=103.71430500215858 2.1055878197058831e-14 111.30211561560502 88.982150734995017 56.312500000000007 401.41763734760508 -0.70710678118632997 1.0000000180025095e-35 30.062500000000004
decision_type=2 2 2 2 2 2 2 2 2
left_child=1 2 -1 5 -5 -4 -3 8 -2
right_child=7 6 3 4 -6 -7 -8 -9 -10
leaf_value=-0.070757848548243671 -0.037656022700303146 -0.13478668298028243 -0.23717919153470901 -6.7472429038811832 -1.0450109137728278 -2.3924753544139348 0.0059381003003000478 0.069121036776517333 0.016774267227546664
leaf_weight=8.1696406859657262 92.819366414126193 8.9736198170086805 11.343591842210488 0.0206760490064547 0.067420036565408736 0.060264036092349538 130.12773883085367 44.166166145239913 554.76519489849818
leaf_count=141277 10693 37336 3784 52 34 55 85912 171 12086
internal_value=0 -0.0255695 -0.184251 -0.264934 -2.38332 -0.248569 -0.00314025 0.012813 0.00897268
internal_weight=0 158.763 19.6616 11.492 0.0880961 11.4039 139.101 691.751 647.585
internal_count=291400 268450 145202 3925 86 3839 123248 22950 22779
is_linear=0
shrinkage=0.07


Tree=76
num_leaves=10
num_cat=0
split_feature=8 37 21 30 28 29 29 31 1
split_gain=34.6343 65.7081 30.649 50.9035 79.2146 61.2728 58.113 67.7245 66.6034
threshold=100.65190462726437 0.85355339059338264 1.0000000180025095e-35 30.062500000000004 13.062500000000002 1.0000000180025095e-35 13.062500000000002 13.062500000000002 2912.5000000000005
decision_type=2 2 2 2 2 2 2 2 2
left_child=1 -1 3 5 -5 -2 8 -8 -6
right_child=2 -3 -4 4 6 -7 7 -9 -10
leaf_value=-0.14898716533333475 0.028332595782153958 0.0081662158624127897 0.067792621089581159 -0.10929978304254302 -0.11038213481986586 -0.083231769326961288 -0.083037441987903596 0.030047430137479878 0.066363809517220207
leaf_weight=20.124811733163355 39.371275947355912 37.014220537553925 41.52149669528535 24.81507669814755 33.434817911257255 62.278999760155102 27.265408222277756 537.76176719371756 15.1948246342763
leaf_count=152784 329 21996 359 17079 15650 55118 9811 18251 23
internal_value=0 -0.0471844 0.00927092 0.0059878 0.0133127 -0.0400206 0.0182709 0.0245905 -0.0551561
internal_weight=0 57.139 781.644 740.122 638.472 101.65 613.657 565.027 48.6296
internal_count=291400 174780 116620 116261 60814 55447 43735 28062 15673
is_linear=0
shrinkage=0.07


Tree=77
num_leaves=10
num_cat=0
split_feature=12 36 30 8 8 28 41 30 32
split_gain=32.887 44.8146 45.9457 58.1474 46.731 32.5628 40.2785 33.6965 30.5456
threshold=135.73550570335252 -0.70710678118646442 301.68750000000006 120.7963130061472 111.97086473940091 156.31250000000003 0.95841076886716736 74.062500000000014 1.0000000180025095e-35
decision_type=2 2 2 2 2 2 2 2 2
left_child=1 2 4 -4 -1 -2 7 8 -7
right_child=5 -3 3 -5 -6 6 -8 -9 -10
leaf_value=-0.17598222753275203 0.018773087167708511 -0.0065040802061410207 -0.070046679670959261 -7.5599170299394984 0.017572809022982323 -0.11169062094031777 -0.14577463720845285 0.063358205532711792 0.062215750244605982
leaf_weight=16.020242369816039 545.41420672836887 185.52171744575296 0.011379006408929082 0.009173625148832798 9.8825841229426299 16.862751299867554 12.894893505415437 19.515482797885809 7.0047257306980013
leaf_count=97782 12716 179458 324 1 132 372 173 280 162
internal_value=0 -0.0185505 -0.104761 -3.41314 -0.102136 0.0135422 -0.037153 -0.00486691 -0.0606519
internal_weight=0 211.445 25.9234 0.0205526 25.9028 601.692 56.2779 43.383 23.8675
internal_count=291400 277697 98239 325 97914 13703 987 814 534
is_linear=0
shrinkage=0.07


Tree=78
num_leaves=10
num_cat=0
split_feature=21 30 28 29 31 1 31 17 4
split_gain=31.852 50.8817 75.3399 56.6965 64.832 62.0064 52.5467 346.248 702.406
threshold=1.0000000180025095e-35 30.062500000000004 13.062500000000002 13.062500000000002 13.062500000000002 2912.5000000000005 1.0000000180025095e-35 29.829949845215754 117.87029081158654
decision_type=2 2 2 2 2 2 2 2 2
left_child=1 6 -3 5 -5 -4 7 8 -1
right_child=-2 2 3 4 -6 -7 -8 -9 -10
leaf_value=-0.49947620356198252 0.067408367197292748 -0.10484001164345844 -0.10766873932696433 -0.079798135241822735 0.025382731298176288 0.065953812113982713 -0.082549484138590978 0.053804410379452793 -5.8328227594514663
leaf_weight=0.80512167686683866 38.125454487112393 27.323323192389012 35.321974492540448 30.280564072485959 555.47949918936843 14.103459627480332 64.510521137220792 37.746076732346033 0.1424008367175702
leaf_count=278 722 43419 38360 24955 44016 54 139084 497 15
internal_value=0 0.0018527 0.00897464 0.0138705 0.0199455 -0.0581259 -0.0438659 0.0206279 -1.30101
internal_weight=0 765.713 662.509 635.185 585.76 49.4254 103.204 38.6936 0.947523
internal_count=291400 290678 150804 107385 68971 38414 139874 790 293
is_linear=0
shrinkage=0.07


Tree=79
num_leaves=10
num_cat=0
split_feature=30 30 28 29 31 1 15 28 41
split_gain=30.8727 87.4649 69.2114 51.0493 56.5218 56.4226 52.9897 51.4051 53.7323
threshold=1.0000000180025095e-35 30.062500000000004 13.062500000000002 13.062500000000002 13.062500000000002 2912.5000000000005 262.48633860284309 170.43750000000003 0.94276114339042083
decision_type=2 2 2 2 2 2 2 2 2
left_child=-1 -2 -3 5 6 -4 -5 -6 -9
right_child=1 2 3 4 7 -7 -8 8 -10
leaf_value=0.048469153032507317 -0.079457546634212728 -0.10304641271847478 -0.10501903434209783 0.068931732213334346 0.031012575901663224 0.065585689416058177 -0.13391505178727869 0.0057554007888332365 -0.14905587157022374
leaf_weight=74.091820461284101 60.576814636442009 26.15714958931369 33.738668569073184 8.9511585558116504 493.68602958489379 13.22098837129124 21.388832725460556 35.043633260372452 16.002097273429534
leaf_count=1105 139184 43507 38436 360 39077 55 24645 2182 2849
internal_value=0 0.000980453 0.00849783 0.0131884 0.0189188 -0.0569871 -0.0740695 0.024098 -0.0427757
internal_weight=0 708.765 648.189 622.031 575.072 46.9597 30.34 544.732 51.0457
internal_count=291400 290295 151111 107604 69113 38491 25005 44108 5031
is_linear=0
shrinkage=0.07


Tree=80
num_leaves=10
num_cat=0
split_feature=12 36 8 16 10 30 30 28 28
split_gain=29.4998 52.1899 31.7696 38.7798 95.407 30.9288 73.7227 50.622 39.265
threshold=134.54997316799253 -0.70710678118653203 108.94647872131716 91.878288511829254 185.11771719929052 1.0000000180025095e-35 30.062500000000004 13.062500000000002 187.06250000000003
decision_type=2 2 2 2 2 2 2 2 2
left_child=1 2 3 -1 -5 -2 -7 -8 -9
right_child=5 -3 -4 4 -6 6 7 8 -10
leaf_value=-0.20938852103613276 0.057659658814742623 -0.0079420112037974257 -0.0018623817006071749 -9.8756655399823519 -0.070380773593670801 -0.080176032580616036 -0.10839626983184712 0.025594372716489011 -0.053109034365584264
leaf_weight=10.008957835560917 67.347535355695868 169.78241049321684 5.1348353121711048 0.0070383698057420166 0.01572845517944188 43.302117957397058 15.652129706141407 413.13410901358725 33.586031588528954
leaf_count=80747 192 195417 108 3 280 6826 1823 5476 528
internal_value=0 -0.0190558 -0.14347 -0.215953 -3.10169 0.0130972 0.00716224 0.0153417 0.0196772
internal_weight=0 184.949 15.1666 10.0317 0.0227668 573.022 505.674 462.372 446.72
internal_count=291400 276555 81138 81030 283 14845 14653 7827 6004
is_linear=0
shrinkage=0.07


Tree=81
num_leaves=10
num_cat=0
split_feature=8 37 30 30 28 29 1 31 15
split_gain=27.394 61.2496 25.916 75.1113 56.0086 42.7679 49.3948 48.4629 48.6103
threshold=100.65190462726437 0.85355339059338264 1.0000000180025095e-35 30.062500000000004 13.062500000000002 13.062500000000002 2912.5000000000005 13.062500000000002 262.48633860284309
decision_type=2 2 2 2 2 2 2 2 2
left_child=1 -1 -2 -4 -5 6 -6 8 -7
